2708 128
1 0.272588 -0.0914952 0.093569 0.121004 0.279488 -0.299255 -0.079839 0.0865898 -0.303393 0.304197 0.0187294 0.197592 -0.134691 -0.162674 0.331707 0.0486202 -0.19512 0.0837527 -0.206473 -0.053275 -0.282816 -0.0399082 -0.0985631 0.191014 -0.103857 -0.173798 -0.0369715 -0.0523559 0.0712077 0.0550945 0.107184 0.0524492 0.0897274 -0.079433 0.227089 0.058396 0.0398048 0.125562 0.168778 0.039778 0.0391818 0.0011992 -0.15688 -0.0795935 -0.0996204 -0.319986 0.0194773 0.20783 -0.292169 0.198438 -0.188935 -0.52458 -0.120037 -0.170772 0.0518757 -0.163308 -0.286863 -0.225725 -0.141182 -0.0838873 -0.281405 -0.0408753 0.140707 0.403875 -0.128228 -0.117854 -0.0767074 0.0164672 0.10852 0.0531197 0.0880523 -0.14193 -0.110971 0.204204 0.376625 0.112511 -0.146617 -0.0978886 0.0614376 -0.00168303 0.129777 -0.0401776 0.186103 0.0135095 0.314189 -0.148768 -0.141643 0.232433 -0.0689532 0.0225019 0.043438 0.0806527 -0.133446 0.307639 -0.149157 0.204249 0.0938785 0.182472 0.145734 0.347677 0.125528 -0.0289291 -0.0605813 0.0257816 -0.172167 0.18106 0.108209 0.00349398 0.0873437 -0.0711348 0.198619 -0.240195 -0.116043 -0.298339 -0.103166 -0.0528836 -0.200628 -0.151055 -0.000474458 0.186067 -0.0990739 -0.110075 0.0417605 0.34732 -0.0240722 0.34629 0.0450724 -0.264959 
2 0.144468 -0.235852 0.0102525 -0.138402 0.00222159 -0.221268 -0.327078 0.0263688 0.0618949 0.305131 -0.120714 0.294677 -0.325931 0.265352 -0.351104 -0.0107335 -0.0468703 -0.232353 -0.236895 -0.0124798 -0.0979916 0.307516 -0.116331 -0.00419524 0.0148085 -0.0166187 -0.0874421 -0.127482 -0.160375 -0.0575104 -0.0314465 0.228559 -0.114829 0.111274 0.0435862 -0.091211 0.134445 0.169633 0.0204997 -0.100091 0.399079 -0.148991 0.164219 -0.314949 -0.33605 0.216327 -0.0966846 -0.327152 -0.331077 -0.00511538 0.150575 0.00160063 0.0753172 -0.107105 -0.0943259 0.0376537 0.056061 0.109856 -0.0870295 0.180304 0.0693097 0.031276 -0.298403 0.209029 0.15982 0.109322 -0.0801541 0.163448 0.00223791 0.190929 -0.128428 0.415379 0.17627 -0.158983 0.214151 0.318926 0.293108 0.178592 -0.212007 0.186499 0.223425 -0.486637 0.242869 -0.129802 -0.327096 -0.162878 0.0454994 -0.17814 -0.140581 -0.159631 -0.185622 0.321657 0.0946717 0.00916527 -0.174557 0.0160428 -0.0897136 0.0126914 0.543418 -0.259781 -0.0750412 -0.276479 0.243542 0.032432 -0.237099 0.201318 -0.0359073 -0.19095 -0.117092 -0.231729 0.0422675 -0.176534 -0.113345 0.0537686 -0.155124 -0.136502 0.0174419 -0.0590188 0.0141652 -0.0458621 0.0243333 0.059784 0.0687423 0.176166 -0.253924 -0.104165 0.34086 0.134644 
3 0.0118962 -0.167386 0.145806 -0.146086 0.249347 0.091373 -0.0157913 -0.208294 -0.0311901 -0.156389 -0.016587 0.173228 0.211463 -0.292788 -0.154738 -0.0196736 -0.033782 0.0320406 0.107975 0.0653452 0.299505 -0.324197 0.0245972 -0.14464 0.0365819 -0.362671 0.0933816 -0.0285164 -0.237596 -0.0754497 0.241199 0.318169 0.216644 0.17667 -0.20009 0.0662674 -0.140808 -0.036224 0.00986487 0.265177 0.249014 -0.248636 0.0801803 -0.0593795 -0.20284 0.342403 0.204448 0.0737904 -0.032644 -0.134332 -0.258492 0.00540938 0.147847 -0.149736 0.0754802 0.285233 -0.204983 0.0488205 -0.223799 -0.0370253 -0.00389015 -0.236405 0.145534 0.00501096 0.199369 0.210482 -0.248259 -0.246286 0.0563531 -0.0704159 -0.336964 0.166406 -0.188718 0.220323 0.355554 0.187546 0.112453 0.122225 -0.17734 -0.164294 -0.0851609 -0.0277229 0.118471 -0.0935437 -0.189631 -0.0247529 -0.087518 0.0753069 -0.190673 -0.152158 -0.199223 -0.145898 0.0177332 0.372376 -0.012299 -0.21775 -0.127344 0.0928596 -0.011285 -0.109276 0.260278 0.0426341 0.0288264 0.0539382 0.0540657 0.0512176 0.0741193 -0.0754061 -0.0996624 -0.217449 0.0957666 0.0141506 0.164731 -0.170273 0.178417 -0.0576291 -0.239405 -0.0417466 0.248925 -0.0933618 -0.0595211 -0.283489 0.14272 0.049804 -0.213313 -0.024626 0.215921 0.32001 
4 -0.0869507 0.0582154 0.386842 -0.389027 -0.365194 -0.122236 0.0824559 -0.0642521 0.0247944 -0.00330803 -0.36835 -0.187397 -0.0364296 0.321615 0.0553111 0.14086 -0.130563 0.12776 -0.137812 -0.0179622 0.0410378 -0.166109 -0.393681 0.134916 0.069755 -0.221453 0.0474768 -0.0692109 -0.056699 -0.0247879 -0.29094 0.0718973 -0.488539 -0.0973797 0.299617 -0.328179 -0.0818571 -0.14568 0.181466 0.0134259 0.0109317 0.189585 0.019463 0.0541793 0.0704334 -0.384289 0.0983001 -0.0675689 0.111617 0.0971923 -0.0784466 -0.487982 -0.0813085 0.19634 -0.284697 0.0725142 0.180269 0.166822 -0.0245298 -0.0411385 0.0055368 -0.00105241 -0.106749 0.0411796 0.119693 0.0504192 -0.0296637 -0.391219 0.0455677 -0.114503 -0.0367738 0.0354575 -0.14163 0.156858 -0.110882 0.147047 0.00961287 0.293567 0.183051 0.184971 0.192747 -0.109604 0.0931548 -0.0696316 0.0712919 0.328448 -0.00883875 0.246996 -0.0981932 0.256413 -0.0241576 0.25907 0.0568283 -0.153169 -0.179161 0.0244343 -0.177956 0.151846 0.499912 0.0366758 0.0856701 -0.201559 -0.136189 -0.0621269 0.253871 0.245173 -0.288514 0.0746253 0.0622482 0.104718 -0.039393 0.0918019 0.0577647 0.0509132 -0.153194 -0.138065 0.251481 0.196143 0.423357 -0.455804 -0.0700771 0.0547394 0.381661 0.0821799 0.171415 0.182879 -0.283318 0.134577 
5 0.0585172 0.247074 -0.0162835 -0.226199 0.301404 0.309517 0.00655305 0.160243 -0.0243018 0.267277 0.199986 -0.0804929 0.109179 0.0371006 0.0264411 0.215432 -0.188312 0.0959123 -0.0775498 -0.117852 -0.0412845 -0.1718 0.0684758 0.238765 -0.111478 0.172152 -0.0902226 -0.045408 0.0119525 -0.0344317 0.0466973 -0.126086 0.0654989 -0.155095 0.118648 -0.171809 0.0224304 0.123467 -0.252681 0.0650563 0.113991 -0.106706 0.0619859 -0.269467 0.000295983 -0.0223689 -0.263263 0.0404277 -0.0912927 0.00222238 0.0204617 0.0720459 -0.201648 0.192559 -0.0306717 -0.086352 0.263743 0.234635 -0.240275 -0.324733 -0.0178123 0.243465 -0.203813 -0.0862479 -0.0354171 0.345909 0.116143 -0.233046 0.0788833 0.427076 0.132854 0.146005 -0.0499175 0.161541 -0.0519261 0.0935061 -0.251309 0.0402518 0.163144 0.11204 0.0740838 0.14731 -0.15295 -0.112214 0.0227014 0.315241 0.308901 -0.188669 0.149546 0.0700191 -0.10771 -0.0546539 -0.0986137 -0.162501 0.217919 -0.109133 -0.145235 -0.0518659 0.101683 0.371479 -0.232013 0.0327251 0.242175 -0.112139 -0.0653957 -0.15668 0.0265907 -0.089002 -0.0739816 -0.00886217 -0.162227 0.262914 -0.0639563 -0.267792 -0.0924061 -0.169059 -0.378359 0.0369537 -0.208178 0.0956317 0.103642 0.258792 -0.199127 0.225086 -0.208041 0.0255652 0.185942 0.346817 
6 -0.0907481 -0.0316485 0.145778 -0.0130954 0.0929646 0.240614 0.0272993 -0.176968 0.0151828 -0.227201 0.032277 -0.0592407 -0.00122552 0.116951 -0.308791 -0.34461 0.018726 -0.0554283 0.00610819 -0.254975 -0.165981 -0.294964 0.212422 -0.213817 -0.0810283 -0.00740576 -0.101302 0.0646824 0.0712307 0.00315832 -0.00552869 -0.0429736 -0.0169707 0.0344035 0.134088 0.0976824 -0.0803157 0.135859 0.15333 -0.18797 -0.225703 -0.192223 0.165411 0.0473074 -0.14226 0.307766 -0.182618 -0.211408 -0.0742054 0.0554599 -0.0206522 -0.232895 0.193166 -0.0277356 -0.144312 -0.0861097 0.181121 0.10819 0.197083 0.12443 0.143227 -0.112134 0.247495 0.0775708 0.265326 -0.192004 0.0272348 -0.317169 -0.223731 -0.10831 -0.0802145 -0.251567 0.0483966 -0.236527 0.156709 0.136302 -0.285993 0.242324 0.0701305 0.0407951 0.127815 -0.0110305 0.0924251 0.0529186 0.146462 0.0745592 0.024743 -0.0435321 0.0131312 -0.176878 -0.217372 0.031092 0.0738417 -0.216166 0.249592 -0.080538 -0.0884207 -0.0684654 -0.0479061 -0.104096 0.167358 0.0576023 0.0876526 -0.087722 0.159295 -0.142039 0.0760973 0.103172 -0.159483 0.0971136 -0.101719 0.24509 -0.0388348 0.129485 0.0290035 0.175937 0.0296493 0.293167 -0.122361 -0.125262 -0.187148 -0.0631453 0.0763373 -0.0546233 -0.0237185 0.199536 0.247207 -0.00679553 
7 0.217535 -0.131343 -0.14379 -0.160301 -0.475944 0.00243059 -0.0327725 0.0654598 0.099863 -0.0416104 0.0997037 -0.287316 -0.324938 0.172882 0.229066 0.210253 -0.129814 -0.124478 -0.104446 0.157539 0.0108448 -0.122082 0.0462629 -0.265191 -0.211824 0.11842 -0.0264337 0.0984889 -0.204476 -0.11038 0.0376925 0.090312 -0.0887843 -0.033726 0.112264 0.226846 -0.0636484 -0.0905288 -0.119965 -0.295526 0.259198 -0.0864031 -0.119748 0.136519 0.0762139 0.0583594 -0.00603325 0.151261 -0.269423 -0.053695 0.161791 0.0146835 -0.0150161 0.151034 0.0921387 0.0064582 -0.14081 -0.0949219 -0.169548 -0.0657506 0.0460254 0.202191 -0.0201298 -0.188958 0.102234 0.15897 -0.305123 0.493704 0.105475 -0.190581 -0.0258367 -0.299384 0.121421 -0.108474 -0.0031042 -0.0366278 -0.321922 0.0249204 -0.247154 0.13359 -0.190876 0.0526065 -0.251909 0.0436702 0.0833247 0.222017 0.0873662 0.211331 -0.145541 -0.142964 -0.154877 -0.256299 0.166722 -0.296449 -0.0284995 -0.0228184 0.167919 0.146681 -0.0968378 0.109371 0.186612 -0.140355 0.370965 -0.128072 0.337872 -0.0700931 -0.0292241 -0.0167923 0.182216 0.193518 -0.0734156 0.10582 0.0553613 0.337207 -0.0302331 0.0541994 -0.257167 -0.0803366 -0.0414218 0.295698 0.0512162 -0.312912 -0.00383767 -0.117234 -0.157452 0.147779 0.00455536 0.120584 
8 0.081055 -0.0377858 0.190193 0.133531 -0.183474 -0.361314 0.108461 0.0180094 -0.175052 -0.0421079 -0.326244 -0.160763 0.226759 -0.044277 -0.0550562 0.261581 0.0951675 0.428667 -0.304944 -0.176847 -0.0215267 0.0352565 0.0393921 -0.137957 0.0980393 -0.134564 -0.0234084 0.389473 0.253758 -0.25709 0.134713 0.203095 0.0635766 0.00168632 -0.30645 -0.273331 0.566488 -0.214603 -0.512956 -0.162877 -0.143347 -0.134412 0.188182 0.163689 0.182058 0.0944329 0.137194 -0.154861 0.573556 0.357791 -0.017834 0.0755442 -0.0626539 -0.0696558 0.32186 -0.279392 0.0543995 0.130683 0.044084 -0.0444844 0.326736 -0.170406 -0.28295 0.116485 -0.0790154 -0.0537217 -0.0966636 -0.146051 -0.064778 0.178103 0.256583 0.259017 0.272692 -0.0646626 -0.00611391 -0.0966326 -0.372442 0.269211 0.160858 -0.00439083 -0.0139125 -0.127907 -0.258678 -0.173451 0.271272 0.209455 -0.377626 -0.139698 -0.219628 0.393871 -0.0337259 -0.0565439 -0.029328 0.193692 0.0263746 0.0555456 -0.337822 -0.132442 0.231962 -0.171485 0.111322 0.130669 0.0842877 -0.124354 -0.282569 0.0400848 0.0192562 -0.135894 0.112421 -0.261684 0.177544 -0.0860798 -0.246497 0.226286 -0.0740318 0.221441 -0.0852116 -0.164794 0.0499363 0.0645178 -0.179777 -0.128237 -0.230085 -0.0338304 -0.0907706 0.200872 -0.0212592 -0.152337 
9 -0.40266 -0.215839 0.0455147 0.256907 0.323469 0.310004 0.137952 0.0244834 -0.1155 -0.207588 0.245581 0.074707 -0.122894 0.297024 -0.0984207 0.283085 -0.179357 -0.185731 -0.0966953 -0.0670967 0.0950033 0.421962 0.26737 -0.288052 -0.342752 -0.542459 0.369998 0.12775 -0.0858096 -0.0795071 -0.227298 -0.137346 0.265145 -0.069442 -0.218819 -0.127988 -0.0432212 0.0917356 0.0700451 0.122472 0.0624668 0.0410715 0.251724 0.0975212 -0.0714489 0.250719 0.110767 -0.178784 -0.0311038 0.246414 0.188266 -0.0399554 0.265992 0.27837 0.100667 0.160125 0.299208 -0.0769538 0.28744 0.170215 -0.00167181 -0.302615 -0.0907234 0.138133 -0.0733094 -0.104837 0.232685 -0.0385204 0.193726 0.125211 0.118342 -0.374677 0.125291 0.263465 0.413765 0.151257 -0.104675 0.0839208 -0.313726 0.404905 -0.137531 0.146594 -0.279628 -0.347374 0.338947 -0.0689014 -0.164422 0.0774194 -0.00300762 -0.329397 -0.0209118 0.296819 -0.232473 0.143218 -0.129254 -0.0199353 -0.0121437 0.119501 0.156596 0.191953 -0.349259 0.104461 -0.132166 0.399627 0.138076 -0.351831 -0.0396175 -0.0947969 0.173569 -0.0359071 0.029016 0.345747 0.0857975 0.184688 -0.126115 -0.464219 -0.125216 -0.0352391 0.317868 0.139503 0.0208933 0.00341889 -0.0999689 -0.0733698 0.0569896 0.0551175 -0.230064 0.0650725 
10 0.0994162 0.183049 -0.133107 0.307913 -0.0572793 -0.235425 0.215415 0.0960499 0.100629 0.149554 -0.239168 0.279828 -0.0238301 -0.354614 -0.123664 -0.372378 -0.127977 0.0778218 -0.305863 0.171435 0.104254 -0.144341 -0.0946805 -0.0594602 -0.0121435 -0.085732 0.120923 -0.0329906 -0.204124 0.106252 0.274438 0.109671 -0.111232 -0.0393879 0.00133111 0.066874 -0.00447072 0.0281586 0.25298 0.239303 0.117107 -0.101079 -0.187622 -0.28522 0.0434555 -0.108024 -0.0869087 0.0625139 0.106886 0.00625365 0.0384109 0.140456 -0.0773 0.0676821 0.116073 -0.115713 0.0742138 -0.168151 -0.0229679 0.202927 0.131167 -0.0910212 0.0444339 -0.178751 0.251642 -0.0255123 -0.0145567 -0.313257 0.107585 -0.0586794 0.426353 -0.200719 -0.0551767 -0.0763777 0.130107 -0.287777 0.276004 -0.566438 0.173272 0.00218445 0.0568182 0.222051 -0.0444492 -0.267072 0.145315 0.163068 -0.0812089 -0.14709 -0.118713 -0.28869 -0.33548 0.00970367 -0.0125514 -0.106232 -0.268506 0.152993 0.398064 0.157293 0.251314 0.092193 0.161612 0.126705 -0.205592 -0.371039 -0.129284 0.145504 -0.0757938 -0.0254182 0.340003 -0.144919 0.241945 -0.171489 0.309097 0.0858707 0.145319 -0.187079 0.058388 -0.0845243 -0.246007 0.0300278 -0.0309421 -0.237708 -0.262121 -0.164608 -0.0121654 0.22022 0.159175 0.0247974 
11 -0.116647 -0.0677544 0.0376611 -0.0766318 -0.318819 0.105155 0.246133 0.0325935 -0.127039 0.0374565 -0.0153524 -0.130628 -0.100466 -0.239509 0.01421 -0.171567 -0.119265 -0.0890588 0.083112 0.0460244 -0.20816 -0.0134072 -0.253239 0.0298044 0.156926 0.0359139 0.00359512 -0.03103 0.154863 -0.140255 -0.126285 -0.134423 0.221162 -0.00796607 0.0996691 0.159541 0.0878205 0.0858528 -0.128012 -0.112642 -0.210775 0.259569 0.115438 0.22994 -0.0426964 0.0444273 -0.0229483 -0.229045 -0.331155 0.0364747 0.0519205 -0.103802 -0.301501 0.0403764 0.27437 0.216901 0.0294421 -0.116161 -0.0152933 -0.130146 0.116757 -0.0229274 0.0650575 -0.0453201 0.293178 -0.0245661 0.0128425 0.0464117 -0.0482353 -0.0913229 -0.0206377 -0.191159 -0.217513 -0.33763 0.287594 -0.241101 0.130293 -0.163643 -0.0624909 -0.126611 0.193163 -0.0496953 0.00657861 -0.0241549 0.0151287 -0.121129 -0.061511 -0.177493 0.190512 -0.0628429 0.0100409 0.0857302 -0.123856 -0.178622 -0.223574 -0.439965 0.18215 0.00420607 0.113326 0.131275 -0.125872 0.0906148 0.109799 0.0740622 0.0407818 0.054589 0.112336 -0.0988948 -0.0615973 0.0592642 -0.0446038 0.0689441 -0.353297 0.0643796 0.0411106 -0.024599 0.0109929 -0.0152735 0.306849 0.220701 -0.149851 -0.0768106 -0.0614953 0.0240593 -0.280048 -0.0469646 0.0437777 0.219865 
12 0.110314 0.0039752 -0.034125 0.00396488 0.17585 0.00690192 0.240557 -0.212465 -0.00630063 -0.0141098 0.204401 0.0530867 -0.142532 0.202043 -0.217338 -0.0689957 0.201376 -0.10274 0.142833 0.163913 -0.171265 -0.0573567 -0.0338486 -0.0267272 -0.596281 0.124177 0.387574 -0.127739 0.0338413 0.217641 -0.278865 -0.262912 0.330733 0.112321 -0.0373929 -0.164748 0.299171 0.234947 0.159275 0.096416 -0.0860686 -0.134227 -0.255254 -0.0499692 0.147987 -0.0504923 0.239795 0.100191 0.39306 0.149368 0.0985251 0.166156 -0.158441 0.188113 -0.458396 -0.211222 -0.0548712 -0.196176 -0.101504 -0.0931674 0.0215846 0.0736124 -0.0863293 -0.0691199 -0.209967 -0.0691632 0.183352 -0.284496 0.194534 0.13859 -0.0717411 0.293929 -0.309569 -0.00221583 -0.247403 -0.0445668 0.272747 -0.0714611 -0.286419 0.329669 0.0784522 -0.0659502 0.0234669 -0.236152 -0.172386 0.0901012 -0.0393654 0.134381 -0.00584888 -0.147353 -0.424884 -0.102652 0.042086 -0.0203416 -0.11835 -0.0894337 0.123546 -0.199528 -0.133939 0.065882 -0.0466857 -0.235797 0.28058 0.355822 0.127681 0.0324074 -0.0830715 0.125509 -0.0824233 -0.100215 0.266254 0.0303271 0.0939401 -0.0585105 -0.384057 0.174652 -0.0361899 0.223748 -0.258604 -0.0588048 -0.0735359 -0.140588 -0.115066 -0.239038 -0.128644 0.183033 0.0966515 -0.269143 
13 -0.00966201 0.357074 0.240675 0.0793383 -0.00392044 -0.249032 0.246716 -0.293785 -0.35763 0.0567239 0.286182 0.195056 -0.0267317 -0.0424881 -0.262048 -0.066244 0.000356778 0.0927805 -0.0614534 0.20796 0.0531647 0.121659 -0.0109426 0.0817418 0.176104 0.222734 0.021033 -0.0168725 0.0211501 0.36808 -0.0537876 -0.155181 0.276601 -0.0618493 0.134596 -0.0186131 0.189475 -0.295281 -0.36401 0.143188 -0.0929922 0.17138 -0.126479 -0.0157993 -0.0822321 0.0695688 0.0564344 0.00520252 -0.228202 -0.297173 -0.204456 -0.241759 -0.263145 -0.0874642 0.0836969 -0.230904 0.100213 -0.039518 -0.198964 -0.123154 -0.145683 -0.208715 -0.0840011 0.2182 0.0184677 0.212498 0.13174 -0.263893 0.175182 0.0656414 0.317835 0.211535 0.0089424 0.0429651 -0.0489503 -0.151002 -0.1908 0.029865 0.137776 0.0295361 0.300445 0.188607 -0.0620006 -0.225374 0.00101424 -0.237958 -0.361642 -0.257025 -0.0225869 -0.363769 -0.0350062 -0.10053 0.0713702 0.21585 -0.126709 0.241752 0.124331 0.215929 0.370459 0.144124 0.025193 0.258523 -0.225875 -0.0150816 -0.160169 0.12794 -0.116706 0.132383 0.143443 0.055677 0.129467 0.202571 0.179196 0.043167 0.0770775 -0.291485 -0.0487849 0.205609 -0.0628136 0.28473 0.333724 0.281437 0.0680343 0.123895 -0.0652088 0.0885171 -0.379202 0.00142541 
14 0.0204601 -0.0913445 0.0848265 -0.186781 0.0751389 -0.0239707 0.314849 -0.0285772 -0.0827561 -0.0249457 -0.0911732 -0.0788098 -0.206598 0.135128 -0.0618023 0.305071 -0.00320561 0.428505 0.163448 -0.152628 0.110296 -0.354754 -0.164612 0.105958 -0.207974 -0.0929122 0.0864422 0.0616726 -0.245467 0.292387 -0.0034102 0.0589219 -0.133821 0.0639374 0.0137157 -0.197588 -0.0472356 -0.321126 0.0445173 -0.0012894 -0.2692 0.128898 0.112017 0.0560022 0.094671 -0.337471 0.241099 0.0580135 -0.179353 0.0147615 0.0522316 -0.168317 -0.112411 0.284839 -0.299261 0.0960206 -0.206647 -0.195703 -0.193813 0.00842076 0.100514 -0.264102 -0.0607606 0.0779713 0.265979 0.348783 0.218292 -0.0733069 -0.106492 -0.125 -0.415654 -0.00352395 -0.113077 -0.00995858 -0.118525 -0.143159 -0.0448383 0.357796 0.266277 -0.056253 0.00848365 -0.149953 0.0228694 -0.159776 0.0647409 0.23403 -0.134018 0.145765 0.0313056 0.183239 -0.132158 0.138855 0.371596 -0.0254652 0.131176 0.242238 -0.0459899 0.152543 0.496184 0.186029 0.0562512 0.019983 -0.0363901 -0.0346093 0.344739 0.352509 -0.3837 -0.128774 0.0137757 0.404274 -0.175005 0.363296 -0.148057 0.196352 -0.183782 -0.319983 0.166752 0.307847 0.101373 -0.438862 -0.0136713 -0.110942 0.227068 0.0337192 0.0282958 0.195649 -0.210777 0.196665 
15 -0.0198558 0.150639 -0.0204457 -0.295335 -0.00154792 0.0216897 -0.384378 0.0978758 -0.0875525 0.0918836 0.0972698 0.0639519 -0.312061 -0.13297 0.0435385 0.0173564 -0.452536 0.133303 0.115266 0.0616831 0.141889 -0.00406237 0.0648353 -0.112034 -0.130548 0.152298 0.0649659 0.0614258 0.0826159 0.164386 -0.329466 -0.00276657 -0.0367803 0.117452 0.000130316 0.471758 -0.267367 0.295214 -0.0894712 -0.0593883 0.270681 0.252105 -0.150903 -0.329055 -0.106698 0.0195753 0.20866 -0.120969 -0.00154622 0.263671 -0.0723765 -0.128673 -0.0167949 0.357184 -0.271807 0.178448 0.123448 0.149586 -0.186046 0.0489129 0.00635036 -0.107797 0.0365763 0.372447 -0.0991164 -0.195397 0.113411 -0.107958 -0.227516 0.151037 0.367328 0.278071 -0.0678874 0.330906 -0.161882 -0.541226 -0.197211 -0.0674807 0.174286 0.110986 -0.0829754 0.0455039 0.0455387 -0.0817638 0.0224763 -0.21267 0.0184086 -0.0901831 0.252262 -0.237307 0.226164 -0.0473181 -0.171598 -0.214638 0.333585 0.0460993 0.148921 0.183952 -0.335617 0.185855 0.0961655 0.0544659 0.341135 0.106333 0.128345 0.189591 -0.150087 -0.239579 -0.00857507 0.105831 -0.232263 0.000451096 0.176565 -0.0949873 -0.129563 0.446584 0.00710322 0.282624 -0.279288 -0.42982 -0.234134 0.187535 0.0472681 0.0222486 -0.178089 0.00159305 0.255629 -0.279251 
16 0.146299 -0.0103019 0.224533 0.188266 0.119956 -0.0509411 0.283336 0.111187 -0.0751844 -0.039354 0.188246 -0.302794 -0.101541 -0.486274 0.188289 0.448533 -0.232956 -0.13922 0.0819205 -0.186653 0.10331 -0.290071 -0.0856308 0.136966 0.161017 0.0816345 0.218988 -0.105934 0.0780193 -0.232159 -0.0567741 0.145353 -0.171939 -0.167848 -0.217092 -0.00316123 0.0957303 -0.0968115 -0.391802 -0.0611848 -0.0482569 -0.25891 -0.170465 0.10431 -0.192741 -0.160769 0.345647 -0.157253 -0.064428 0.2831 0.270251 0.241006 0.138304 -0.160017 0.103317 0.0372559 -0.0473064 0.00420072 0.238272 -0.151258 0.0502106 -0.228397 0.168675 0.207272 -0.169184 -0.032566 0.27339 0.311868 0.053167 -0.220323 0.224049 0.0197631 -0.329161 -0.115401 -0.0204824 0.137037 0.236913 -0.176691 -0.165178 -0.0193459 -0.243586 0.0266341 -0.337254 -0.159884 -0.0338613 0.263486 -0.02353 -0.156024 -0.244858 0.103254 -0.0906655 -0.0655484 -0.216025 0.0728529 0.294632 -0.112284 -0.185766 -0.0714148 0.0471275 0.285782 0.0484085 -0.260002 -0.129608 0.215971 -0.050936 -0.148814 -0.233946 -0.0747657 0.198009 -0.0616526 0.229486 0.171215 -0.0189266 -0.145546 0.0816593 -0.0497476 -0.0118789 0.0671678 -0.255312 -0.427899 0.122315 0.200967 0.0744673 0.0180936 -0.00645532 -0.19533 0.316099 -0.0571201 
17 -0.123667 0.00112529 0.180025 0.118306 -0.0595457 0.345456 0.25286 0.227658 -0.199652 -0.0319166 0.16979 -0.028801 0.129566 0.0990858 -0.113989 -0.210557 0.297637 0.401923 -0.146786 -0.000366264 0.045046 0.0954163 0.0775842 -0.0681417 -0.435255 0.0118652 -0.168434 0.212255 0.394219 -0.0701029 -0.115757 -0.00902145 -0.116983 0.0914274 0.391177 0.00531881 0.151263 0.116318 0.0348947 0.117956 0.166513 0.0478599 0.0179642 0.274988 0.0633608 -0.167827 0.25988 0.0506025 0.241325 0.336949 -0.0762878 -0.113784 -0.218834 -0.178901 0.155785 0.00341987 0.000898443 0.08207 0.236964 0.0625306 -0.275455 -0.211839 0.15045 0.0740624 0.0615959 -0.0713821 -0.36925 0.360595 -0.327524 0.00582003 0.00661311 0.00815195 -0.131892 -0.225469 -0.0998759 -0.153677 0.032137 0.0341897 -0.410554 0.00240665 0.0877801 0.259044 0.0867167 0.0359975 0.122402 -0.351814 0.161973 -0.116807 0.0948103 -0.0999198 -0.0283225 -0.0774882 0.208304 -0.0859032 -0.172316 0.186368 -0.0655152 -0.144508 -0.0485969 -0.19977 -0.0021672 -0.231003 0.138291 -0.175595 -0.163207 0.228175 -0.317059 0.239294 -0.00292317 0.0604753 -0.149588 -0.265528 -0.0743913 -0.305452 0.301661 -0.0183556 -0.205524 -0.312166 0.342747 -0.0981007 -0.0727429 0.380193 -0.291314 -0.253159 -0.264221 -0.0383355 0.289986 0.00604226 
18 -0.00747523 -0.0311976 0.177521 -0.0759588 -0.117959 -0.28703 -0.114743 0.124137 -0.015172 -0.195518 0.253513 -0.0386761 -0.119898 0.24257 -0.118902 -0.031184 -0.0770738 0.0554543 0.0736291 -0.20588 -0.281808 0.0295456 -0.0511667 0.00752612 0.0265999 0.173332 0.257401 -0.071817 0.287619 -0.100364 0.0481177 -0.0699146 -0.330053 -0.313762 0.264845 0.0969465 -0.012042 0.0534607 0.0595466 0.140393 0.0375443 0.142637 -0.097275 -0.122705 0.173414 0.0870702 -0.0980358 -0.366522 -0.212037 0.24402 -0.157982 0.084695 -0.180731 -0.320137 -0.116801 0.307919 0.0968893 0.104166 -0.303358 0.0627314 -0.0697672 -0.033446 -0.140858 -0.209992 0.177597 0.113393 0.452953 0.10025 0.134246 -0.174642 -0.406334 0.176294 -0.210692 -0.179406 0.101766 -0.1797 0.145493 0.15718 -0.10661 0.139248 0.179276 -0.0300055 0.327804 -0.254179 -0.192283 -0.102702 -0.100384 -0.0823746 0.148401 0.101639 -0.0529453 0.333617 0.207861 -0.0303148 -0.0734369 -0.0930737 -0.255533 0.151778 -0.162758 0.113018 -0.137713 -0.246875 0.0169211 0.328217 0.0652892 -0.135961 0.0482173 0.163341 0.228727 0.385875 0.196085 0.00481463 -0.0431614 -0.21074 0.180319 -0.277301 0.162477 0.0574698 -0.214582 0.0644468 -0.0172349 -0.299458 -0.115653 0.279326 -0.299777 0.215076 0.18166 0.111927 
19 -0.154882 -0.213263 -0.0908028 0.0227807 -0.00749612 -0.016425 0.235936 -0.177577 0.0369841 0.0747832 -0.0562056 0.22092 -0.0830735 0.0207526 0.0909859 0.102424 -0.0625642 0.33046 -0.0892923 -0.145201 -0.182674 0.0549804 -0.138522 -0.0838238 0.0501399 0.12154 -0.039112 -0.0502144 -0.126386 0.232004 0.0141044 0.302386 0.148717 0.0373838 -0.0899228 0.069305 -0.00085151 -0.0267768 -0.14335 0.0931821 -0.244437 -0.294327 -0.0493244 0.0137454 -0.24914 -0.147824 0.0161939 -0.230481 -0.181101 0.0898049 -0.0872001 0.0475954 0.138841 0.225407 -0.128065 -0.0569143 -0.0497374 0.340943 -0.0579279 0.189527 0.148474 0.0330762 0.169901 -0.0127767 -0.130789 -0.291273 -0.0356351 0.0384114 0.0839685 -0.129606 0.154218 -0.123053 -0.0878768 -0.0030223 0.254816 0.0981818 -0.11983 -0.0154093 0.2324 0.0809694 -0.0883931 -0.173394 -0.0194019 -0.135582 -0.191193 0.0374425 0.167295 0.240289 0.0130833 0.146555 0.24343 -0.172618 0.0637993 -0.065137 0.0699352 0.0823998 0.0533456 0.0560645 0.0913073 0.215998 -0.238515 0.0737008 -0.0901999 0.239613 0.29456 -0.313078 -0.0793115 0.141342 -0.00255324 0.183812 -0.221994 0.0683405 0.118859 -0.20768 -0.0665236 -0.0300557 -0.0608442 -0.228891 -0.114854 -0.0307736 0.248058 0.0189559 -0.255107 -0.1363 0.101058 -0.119268 0.0328374 0.0095649 
20 -0.32619 0.202354 -0.0157378 0.17311 0.250105 0.24335 0.0253008 0.147394 0.190465 0.254691 -0.232808 0.185145 -0.0540813 -0.0980351 -0.0585329 0.0960595 -0.0496622 0.0161209 0.357589 0.137872 0.19764 -0.238483 -0.00430963 0.177849 -0.194511 0.00766577 -0.0168352 0.0467835 0.241739 0.0295909 -0.278751 -0.190239 -0.27668 0.249594 0.171536 -0.0968273 0.0105862 0.00112548 0.319152 0.320085 0.000809078 -0.108407 0.0685363 0.0244624 -0.00933189 0.0617392 0.0927483 0.14627 -0.121674 0.21075 -0.158911 0.043413 0.0434687 0.0187204 -0.0549749 -0.125502 -0.190071 0.143006 -0.0607381 -0.189744 0.0543947 -0.085447 -0.34431 0.278425 0.00404875 0.236404 -0.182782 0.0248142 0.160369 -0.101792 0.405044 -0.342896 -0.103903 -0.247964 0.103366 0.0349588 -0.14124 0.144816 0.293462 -0.0855413 0.111964 -0.351557 0.309613 0.225219 -0.137103 -0.186995 0.144524 0.0781506 0.156005 -0.00860208 0.0996911 -0.0942564 0.464641 0.165546 -0.166803 -0.155255 0.0456536 0.0132533 -0.227067 0.116551 0.30559 0.169528 -0.200632 -0.168013 -0.0472173 -0.206269 -0.076123 0.162056 0.0401054 0.065497 0.0207588 -0.026571 0.0406766 0.0207086 -0.0675219 -0.223273 0.0230825 -0.0878165 -0.277131 -0.0657832 0.123621 -0.106709 -0.260353 0.0536074 0.255618 -0.314981 -0.120426 0.313233 
21 -0.211153 -0.184709 -0.0211457 0.0580481 -0.0263682 0.133065 -0.038971 -0.107502 0.362664 -0.299621 0.369594 -0.129241 -0.0994245 0.128893 0.172626 0.0560532 -0.0840708 0.366032 0.0800932 0.109254 0.0062419 0.47328 -0.0811339 0.164312 -0.285367 0.155569 0.20399 -0.153719 -0.0215099 0.0101608 0.333145 0.0388825 -0.0668256 -0.0876528 0.117564 -0.207187 0.101663 -0.265246 -0.263113 0.054941 0.0563521 -0.0941208 -0.246607 0.134271 -0.20081 0.136847 -0.0116298 0.0590742 0.0923178 -0.276572 0.307086 0.0714429 0.110642 -0.198124 0.250611 0.0699833 -0.154765 -0.083855 0.310469 -0.113432 -0.0829936 -0.202995 -0.0844718 0.240991 -0.21592 0.102857 -0.0151565 -0.195321 -0.325475 0.0625913 0.197568 -0.0357229 0.193352 0.144477 0.103682 0.108944 -0.201746 -0.0586253 0.156608 0.160443 -0.183503 -0.048024 -0.0510754 0.0066906 -0.120295 -0.284266 0.16373 0.0575002 -0.0287888 0.213799 -0.243657 -0.0851845 -0.0599378 -0.290931 0.0805501 -0.247439 0.199598 -0.28975 0.0922711 0.46502 0.201921 0.0255654 0.107046 0.0768237 0.256778 0.0520795 0.244126 0.0489308 -0.225842 0.182194 0.131338 -0.165808 0.165422 0.114826 -0.11974 -0.30665 0.0166993 0.163786 0.261241 0.0187238 -0.281159 -0.072443 0.0464842 0.194813 0.213776 -0.16618 0.064581 0.188135 
22 -0.170501 -0.441983 0.127345 0.105279 0.0141619 0.183293 -0.14772 -0.143085 0.473589 0.0767242 -0.00323537 -0.161493 0.021234 0.201631 0.00628077 -0.0267748 -0.00388031 0.331822 0.00418209 -0.030767 -0.171634 -0.372902 -0.0302869 0.113303 0.13781 -0.0971122 -0.166736 0.133188 -0.149328 0.0409581 0.205949 0.00779205 0.115428 0.121318 0.0911899 -0.00608176 -0.228629 0.149237 0.00646874 -0.200616 -0.17689 -0.171429 -0.165426 0.0396151 0.17686 -0.00734896 -0.0280411 -0.0474829 -0.0562285 -0.247215 0.0193636 0.194632 -0.047555 -0.0413616 0.202708 -0.193327 0.0489947 -0.25676 0.258633 0.00560136 -0.0514034 0.187961 0.0586536 0.377791 -0.0556332 0.0999676 0.0698923 0.17623 0.183019 0.00318275 -0.132105 -0.275856 -0.234089 0.164503 -0.474181 -0.134513 0.282228 0.0813643 0.314816 -0.189499 0.329345 0.168 -0.0496406 -0.326817 0.101411 -0.217158 -0.372159 -0.248831 -0.0255972 -0.0655516 -0.0353328 0.0181043 -0.0127318 -0.118179 -0.0436102 0.155549 -0.259231 -0.271079 0.0391259 0.0773848 -0.0337692 0.1615 -0.00889422 0.197926 -0.356751 -0.195709 -0.118305 0.134134 -0.219343 -0.0821317 0.300237 -0.0295331 0.312331 0.00410844 -0.137829 0.0571857 0.267675 0.0929365 0.0765523 0.150816 -0.198145 -0.0480964 -0.161628 -0.211975 -0.100405 0.117557 -0.0772842 -0.0502732 
23 -0.417455 -0.170822 0.0672315 -0.116664 0.251402 0.201909 0.0506352 -0.281611 -0.235172 0.270676 -0.19108 0.0831053 0.152689 -0.276189 0.373626 0.0177518 -0.0825259 -0.125411 -0.317009 -0.105801 0.248913 -0.0277111 0.0671794 -0.126628 0.253991 -0.215415 -0.12177 0.164304 -0.0741961 -0.478355 -0.240849 -0.497941 0.0263577 -0.0622274 -0.000410916 0.279366 -0.0853989 0.185834 0.168226 -0.0104401 -0.0360697 0.18439 -0.219194 -0.177706 0.0853045 -0.399056 0.0573502 -0.153977 -0.100666 -0.188363 0.0471705 0.230713 -0.0315405 0.292973 0.202534 -0.190322 -0.134004 0.357953 -0.201046 0.0994871 -0.150657 0.0375549 0.35104 0.203002 0.11571 -0.308892 -0.0668195 -0.0436482 -0.235902 0.281949 0.0604841 0.00333907 -0.0761793 -0.369224 0.408051 -0.171142 -0.0330113 0.284701 -0.267116 -0.0334813 0.164881 -0.00342971 -0.131319 -0.0380055 -0.392737 -0.17215 0.137198 0.00815777 0.460619 0.12015 -0.23071 -0.0829115 -0.0730082 -0.00603362 0.452272 0.169898 0.21609 -0.143402 0.0776026 0.455875 -0.0609025 -0.137272 0.0739361 0.027268 -0.138011 0.161031 0.0731801 0.14736 0.0925194 0.148396 -0.317695 0.0125433 0.15473 -0.15673 -0.0154709 0.0239966 -0.0456152 0.434377 -0.108678 -0.0739704 0.129334 -0.189462 -0.2729 0.211859 0.145292 -0.120024 0.0658524 0.212702 
24 -0.00261615 0.201432 0.316293 -0.133283 -0.0819469 0.220507 0.127622 0.015792 -0.0675412 -0.0844488 0.35261 -0.0274842 0.000807227 -0.276135 0.150584 0.132256 0.116629 0.0518694 -0.0309181 0.0969143 -0.201817 0.1443 0.441346 0.1037 -0.283312 -0.0925899 -0.249003 -0.042003 0.34209 -0.225618 0.0173062 0.0619024 -0.0635759 -0.0122615 0.385239 -0.18919 0.265934 -0.0379867 0.11601 -0.216499 0.250299 -0.105918 0.251628 -0.0106191 0.210331 -0.101423 -0.144716 0.203947 0.114968 0.0939293 -0.0110248 0.0950757 -0.100159 0.125047 0.21031 -0.0655296 -0.158466 -0.18995 0.0817775 -0.353894 -0.113311 -0.226433 0.207142 -0.192222 0.163562 -0.146378 0.194949 0.371608 -0.127541 -0.0482912 -0.296184 -0.323187 0.0808545 0.279283 0.0739979 -0.224888 -0.0101069 0.124383 -0.322887 -0.0169783 0.150335 0.358155 0.128297 -0.0620896 -0.0339911 -0.126238 0.0597027 -0.0464546 0.0762575 -0.16947 -0.0299767 0.263593 0.0688553 -0.111392 -0.377619 -0.0686688 -0.222882 -0.0862167 -0.0487496 -0.0474867 0.0698093 -0.0500497 0.0379296 0.106875 -0.0891276 0.242834 -0.313629 0.090845 -0.0944538 0.263422 -0.0633719 -0.430034 0.164356 -0.128392 -0.0294644 0.0432245 -0.0706835 -0.0486028 0.219783 -0.0845547 0.16315 0.01049 -0.325363 -0.0281488 -0.0366025 -0.190999 0.0412372 -0.184128 
25 -0.0882912 0.145155 0.147164 0.176324 -0.145582 -0.191271 -0.142086 0.127633 -0.199814 0.0205328 -0.0496063 0.155732 0.0576349 -0.416292 0.322745 -0.282486 -0.0200151 0.442119 -0.150812 0.0431345 0.00107777 0.122393 -0.157813 0.0587458 0.0336214 -0.253983 -0.0813815 0.0903397 -0.296586 0.268075 0.294635 -0.0390543 0.0965345 0.0811624 0.39144 0.022331 0.360659 -0.0531852 -0.0868867 -0.0895744 -0.136063 0.123217 -0.0309252 0.0793982 -0.174578 0.32496 -0.0458096 -0.163476 0.131715 -0.0996504 0.369952 -0.24309 -0.320023 0.0136844 -0.0900035 0.135862 0.0251345 -0.108408 -0.0810673 -0.0567166 0.0406711 -0.0649996 0.46517 -0.302962 0.177655 0.347776 0.0392185 0.214031 0.40076 -0.0593234 0.0593746 0.117735 -0.00362035 -0.0690035 0.0601827 -0.0685496 -0.111071 -0.197579 -0.0986846 -0.166496 0.0541297 -0.105237 0.0540782 0.0931792 -0.191821 0.251384 0.192009 0.275518 0.133133 0.288282 0.329724 0.031392 -0.0175701 0.0359827 0.0442772 -0.0477726 0.0805029 -0.0343659 -0.261684 -0.0911399 0.039397 0.330219 -0.39841 0.00623166 -0.238018 -0.0289771 -0.10571 -0.29825 -0.0218083 -0.047643 -0.0518225 -0.0516047 0.198405 -0.00615918 0.120896 0.0736672 -0.137451 -0.0732804 0.0516281 -0.0370345 -0.0726204 -0.147827 0.0478551 -0.0799447 0.153359 0.361751 0.228055 -0.191962 
26 -0.034192 0.121307 0.105038 -0.143223 -0.0435409 0.295568 -0.19678 0.137141 0.0315162 0.120865 0.0159503 -0.275359 -0.317099 -0.137758 0.110663 0.0606612 0.203908 0.109638 0.0837519 0.357094 0.00998411 -0.163769 -0.183302 -0.118473 0.18803 0.148782 -0.181657 0.110331 0.208352 0.0404819 -0.276251 -0.0834524 0.148984 -0.357255 -0.110556 -0.369981 0.0612612 -0.320315 -0.01219 -0.0541773 0.0364 -0.357194 -0.114698 0.221519 0.162453 -0.179667 0.140423 -0.181736 -0.184253 -0.0239408 0.0592787 -0.173244 0.0681458 -0.215323 -0.337397 0.0464472 0.276159 -0.0157989 0.185953 0.173196 0.0137088 -0.117853 0.0228876 -0.0530516 0.123307 0.171678 -0.115996 -0.0820604 -0.100426 -0.243357 -0.0803816 0.347768 0.0142845 0.223269 0.0338481 0.213623 0.261954 -0.00542268 0.252052 -0.104738 0.0545056 -0.0203523 0.123101 0.241511 0.212308 0.0742698 -0.12039 -0.123967 -0.0139304 0.0612514 -0.00594304 -0.0386871 0.529276 0.289133 -0.0997078 -0.0734165 0.0776133 -0.00128736 0.0299862 0.0707992 -0.10166 -0.0667416 -0.00814875 0.228241 0.114772 0.197624 -0.148658 -0.143181 0.129815 -0.300653 0.0831761 -0.102636 -0.019018 -0.202377 -0.171943 0.124261 0.00141895 0.314014 -0.439753 -0.124973 -0.458629 -0.0398086 -0.0781423 0.130957 0.018759 0.0814362 -0.305563 -0.0731012 
27 -0.0875283 -0.133266 0.111602 -0.0684332 -0.000311483 0.331118 0.110666 0.168336 -0.212387 -0.118316 -0.17077 0.297667 -0.0575098 0.262878 -0.107898 -0.171891 0.302946 -0.129407 0.00956723 0.067071 -0.223309 0.218743 0.111281 -0.125638 0.034605 -0.147176 -0.359622 -0.259259 0.115048 -0.0774632 0.0724416 -0.16967 0.166462 -0.223693 -0.316974 -0.0144959 -0.0314031 -0.19005 0.010886 0.0287083 -0.0993764 0.180609 -0.131077 0.0379141 -0.176747 0.341139 0.0106091 -0.126416 -0.270787 0.277161 -0.305936 0.16956 -0.151362 0.134798 0.0724728 -0.0629113 0.0734986 -0.149199 0.149716 0.00189355 0.231735 0.19018 0.0539195 -0.0120047 0.116468 -0.134908 0.114751 -0.132439 0.27564 0.130875 0.162991 -0.00769018 0.132412 0.222887 -0.249494 0.253123 -0.0709483 0.0826511 -0.101187 -0.17879 -0.110425 0.0318322 0.090724 0.0640186 -0.0562277 0.146451 0.0224706 -0.130906 -0.300834 -0.173881 0.143483 0.00808853 -0.244445 0.251615 -0.026918 0.389125 -0.0437397 0.0943405 -0.201905 -0.0668867 -0.168111 0.103224 0.109927 0.231922 0.200253 0.326027 0.30853 0.00764027 -0.232839 -0.0255199 -0.0447733 0.224286 0.276336 -0.177445 0.278407 0.00221251 -0.364869 0.305778 -0.0493052 0.0353017 0.230736 -0.0705139 -0.109939 -0.0405438 -0.159878 -0.101131 0.263643 0.045302 
28 0.277731 0.125291 -0.266068 -0.205509 0.0178523 0.244984 -0.0614355 -0.190839 -0.160438 -0.13642 -0.296857 0.107034 0.203491 0.00795383 0.302829 0.140715 0.0600884 0.216521 -0.0827792 -0.23028 0.17252 0.129743 0.0317033 -0.299932 0.0655179 0.0584953 -0.395064 -0.0374731 -0.177474 0.0450003 0.0940737 -0.0970718 0.121866 0.195835 0.10746 -0.202087 0.390023 0.0743235 0.0343763 -0.198871 0.167192 -0.197888 0.344094 0.12658 0.359801 0.158231 0.192978 0.0849318 0.290752 -0.0234867 0.262113 0.27688 -0.0105883 -0.160488 0.231501 0.286234 -0.208569 0.171539 0.183631 -0.0438733 -0.296673 -0.0802166 0.0523964 0.241204 0.103079 -0.226697 -0.113086 -0.160856 0.186374 0.182063 0.355172 0.136561 0.156494 0.521832 -0.12309 0.482171 0.129459 0.246889 0.301387 -0.066566 -0.305891 -0.0921568 -0.117937 0.310469 -0.172874 -0.0499493 -0.168099 0.0738692 0.290831 -0.177788 -0.227322 -0.108795 0.186444 0.0530104 -0.341567 -0.182534 0.0960946 -0.037669 0.0549741 0.127098 -0.277617 -0.195882 -0.0255839 -0.112755 0.0228989 -0.0303792 -0.310557 -0.209964 0.239502 0.312163 0.169025 0.105981 0.122353 0.153013 -0.001862 -0.0291905 0.0887657 0.104535 0.189519 0.247545 0.0666125 0.0504176 0.0586472 0.123606 -0.174263 -0.0613243 0.170431 -0.233363 
29 -0.0558519 0.0694922 -0.169861 0.0777309 0.0377828 -0.175472 0.00500366 0.114519 -0.164416 0.066095 -0.0637715 -0.0708658 -0.0358664 -0.333524 -0.0350045 -0.138721 0.0660957 0.179299 -0.181931 -0.322628 -0.259229 -0.153813 -0.0756443 -0.00818238 0.235564 0.0839692 0.114635 0.418161 0.31607 -0.334575 -0.0360331 -0.231494 0.133961 0.164836 -0.156107 0.0792775 0.059543 0.374419 -0.450353 0.0735772 -0.0799214 0.167726 0.11056 0.303905 0.107852 -0.256122 -0.328686 -0.0862558 0.0484548 0.428339 0.147667 0.25297 -0.0917556 0.150556 0.346243 0.0222918 -0.0511617 0.142046 0.102631 -0.336247 0.352985 0.0221965 0.0497395 0.164456 0.0125347 0.331913 0.342412 0.201107 0.227649 -0.0470762 0.158276 0.0473278 -0.460742 -0.074386 0.196049 -0.0144624 0.0839441 -0.0407158 0.181004 0.0463388 -0.0176873 -0.000487524 -0.0735626 -0.0863472 0.125135 -0.156446 -0.085028 -0.0820278 0.271827 0.0248524 -0.270227 0.0734955 0.367687 -0.034726 0.119816 -0.267555 0.111253 -0.133998 0.150406 0.139119 -0.177122 0.0839418 -0.0490675 0.22544 -0.144553 -0.123052 0.180933 0.0989552 0.080283 -0.0496322 0.193132 0.0893677 -0.313478 0.0576389 -0.0550897 0.403474 0.174515 0.059549 0.175011 0.00965181 0.0956748 -0.0554495 0.151508 -0.172822 -0.302471 -0.126742 -0.036363 0.438065 
30 0.31707 0.408785 -0.245929 0.0794063 0.0849405 -0.0146345 -0.0118662 0.180114 -0.117318 -0.190462 0.132935 -0.167593 0.273141 0.0523477 0.101765 -0.179258 -0.0250181 -0.0285297 0.28027 0.0322769 0.0061423 -0.153356 -0.249591 -0.391811 -0.137195 -0.145692 0.0235443 -0.0582806 -0.135693 0.0365792 -0.0887227 -0.176996 -0.126232 0.0294938 -0.308186 0.0613945 0.0514283 0.271655 -0.183103 0.180766 -0.200457 -0.0152079 -0.0911044 0.0278394 -0.0393087 0.284506 0.0471277 0.191318 0.0215053 -0.318165 0.226051 0.124396 -0.247867 -0.0875311 -0.0869597 -0.0854229 0.297551 0.0759793 -0.0753723 0.0891155 0.21118 -0.0698979 0.0626342 -0.216588 -0.0287216 -0.289462 0.118198 -0.0967484 -0.425477 0.24569 -0.256863 -0.211061 0.0986037 -0.0211399 0.30534 0.14165 -0.0329931 -0.103839 -0.0922856 -0.0101152 -0.201233 -0.125656 -0.114132 -0.255125 0.0682689 -0.108771 0.056978 0.064725 -0.102165 0.077405 0.185351 -0.188894 0.0629653 0.215946 -0.156577 0.127258 0.255196 0.0650078 0.0311221 -0.0490401 -0.317521 0.236129 -0.274916 -0.123556 -0.165702 0.34996 0.139646 0.171109 0.172499 0.162225 -0.0288509 -0.407187 -0.0306225 0.186827 -0.387603 0.0211721 0.276666 -0.0482509 0.259882 0.0654199 -0.0247634 -0.0102842 0.153143 -0.334649 0.186261 -0.102455 0.242591 0.159483 
31 -0.214984 0.0876509 0.0396542 0.227281 -0.00413799 0.0511034 0.0379286 -0.0777144 0.019514 -0.1098 -0.00727542 0.0505411 -0.0207123 -0.344296 0.299208 -0.0824139 0.286886 -0.218869 0.0227149 0.00311955 -0.0586051 0.0526181 0.163438 0.314701 0.0333081 -0.154898 0.181186 -0.00583674 0.133547 -0.14813 0.105031 0.356638 -0.171843 0.177475 -0.00693349 0.246142 -0.0985077 -0.135842 0.00472237 0.224231 -0.0851414 0.0221375 0.0127632 0.00577299 0.195367 0.240393 0.157071 -0.0715546 -0.256601 0.188945 -0.0823483 -0.0767717 0.043041 0.187913 -0.15858 -0.141212 0.229836 -0.0948963 -0.0312907 0.109336 0.204546 0.27526 0.304063 0.192878 -0.16886 -0.146961 -0.00870669 -0.032556 0.225998 0.296254 -0.241494 -0.200501 0.109635 -0.141526 -0.0651053 -0.213298 -0.105194 -0.184105 -0.0558339 0.0146554 -0.360126 -0.317771 -0.213105 0.166282 -0.30701 -0.00210494 -0.165569 -0.0161255 0.108772 -0.307658 -0.0541099 0.0770113 0.165605 0.0400668 -0.258393 -0.253625 0.180582 -0.0122844 -0.197373 0.0705354 -0.135592 0.0363383 -0.0439661 -0.384585 -0.110509 -0.0102846 -0.128126 -0.145757 -0.185392 -0.109699 -0.123989 0.135077 0.110689 -0.0568991 -0.447276 0.137781 -0.0816417 0.0298094 -0.0644239 0.325855 -0.0060856 0.247493 0.123017 -0.13317 -0.164628 0.445547 0.0834869 0.162725 
32 -0.0852351 0.0907106 -0.0612627 -0.124638 0.0534215 0.0429313 -0.322507 0.0346834 -0.267839 0.0180598 -0.241091 -0.0343262 -0.140459 0.161564 -0.125572 -0.0713017 -0.0380401 0.224232 -0.0488476 0.123593 -0.10745 0.0798972 -0.0327128 -0.106376 0.00908867 -0.090645 0.219517 0.151465 -0.0557677 0.216443 0.259313 0.245369 0.0646411 0.0329541 -0.319026 0.0801502 -0.201845 0.0166925 -0.145719 -0.146129 0.264836 -0.15568 0.313808 -0.103556 -0.0233842 -0.0878806 0.134037 -0.0304599 0.196396 -0.1335 -0.122892 0.153963 -0.16465 0.330438 -0.376345 0.263441 -0.0856869 -0.143628 0.294555 0.0422276 -0.120741 -0.0614602 0.0863847 0.310496 0.404769 0.110999 0.162295 -0.0848212 -0.113253 0.0562008 -0.0553405 -0.380092 -0.0352027 -0.0296065 -0.193836 0.185369 0.156306 -0.292305 -0.0110613 0.180875 0.0480274 -0.136065 -0.0626354 0.0638032 -0.229138 0.114365 0.295642 -0.0266939 -0.11379 0.0725933 -0.060851 -0.0906309 -0.098093 -0.0904003 -0.15656 -0.202848 -0.0248802 0.0990278 -0.217793 0.0749943 -0.0182626 -0.18816 -0.123339 0.125009 -0.208775 0.0823298 0.031031 0.164733 0.203192 -0.07847 -0.200895 -0.218256 -0.0227844 0.149661 0.220308 0.0395077 -0.224699 -0.0204425 -0.0899266 0.0358864 0.0390036 0.36231 -0.063047 -0.160175 -0.29409 0.176495 -0.227908 0.258736 
33 0.176282 0.111836 -0.0479716 0.0317243 -0.240894 0.00047438 0.201076 0.198292 0.15477 0.0661059 -0.204378 0.0824358 0.0296295 0.193529 -0.391581 -0.203103 -0.181832 -0.140393 0.00323095 -0.0634666 0.0287883 -0.0596067 -0.00900755 -0.103821 0.0632602 0.0502768 -0.282179 -0.209558 -0.0393677 -0.185793 -0.128048 0.014566 0.217813 -0.128808 0.128847 -0.23499 0.243682 -0.306494 -0.266874 -0.178731 0.281721 0.020348 -0.179387 0.00173358 -0.0822054 -0.214914 0.186308 -0.0301384 0.00592732 -0.0697352 -0.118938 0.265737 -0.0770791 0.207773 -0.428417 0.0411812 -0.0739131 -0.146453 -0.221213 0.134844 0.0488381 0.162863 -0.363467 0.214928 -0.141644 -0.0414569 0.27203 0.267021 -0.0153683 0.319536 0.106017 0.110299 0.0135411 -0.301836 -0.0401745 0.256906 0.071824 -0.191914 0.129026 -0.138711 0.0435378 0.190479 0.087134 -0.149035 0.166286 0.158184 -0.0157188 0.134608 0.349405 0.0215028 -0.203866 -0.139196 -0.165817 -0.0843541 0.0726201 0.0245701 0.242602 0.186375 -0.218202 0.0928103 0.179026 0.0519647 -0.00945066 -0.0988308 -0.111247 -0.142222 -0.270469 0.218543 0.183605 0.25431 0.102626 -0.081479 0.0624359 -0.255935 0.0640771 -0.123441 0.10926 -0.133906 0.220145 -0.0839197 0.101679 -0.148563 -0.0525572 0.198721 0.0518631 0.14648 0.0991683 0.101121 
34 -0.00147832 0.0336733 0.020512 0.0558159 -0.151071 0.0497356 -0.144441 -0.0338954 0.0304208 -0.463209 -0.0492143 -0.164124 -0.0299877 -0.377776 -0.190709 0.0529315 -0.479866 0.206876 -0.152905 0.177057 0.0445203 -0.379669 0.0308822 -0.0260443 -0.0918555 0.10034 -0.118847 0.0394004 -0.370581 -0.0843741 -0.222849 -0.187267 0.0965391 0.0319058 0.0719861 0.201312 -0.283918 0.293823 -0.0889827 0.226032 -0.15889 0.167459 -0.359124 0.124373 0.38332 -0.0128241 0.128296 0.138879 -0.0205812 0.115386 0.373262 0.217983 0.352591 0.373784 -0.0965635 -0.326253 -0.0448338 -0.200354 0.0117818 0.0597162 -0.121598 -0.251805 0.255432 8.80759e-05 -0.288957 -0.170403 -0.189601 -0.138948 -0.128201 -0.157398 -0.243172 0.0696864 -0.0405711 -0.184645 -0.339054 0.285808 0.402391 0.0702541 0.207311 -0.197415 -0.114996 0.0802511 0.00371527 0.0987551 -0.222802 -0.0815341 0.0457742 0.235126 0.0507186 -0.00204767 0.353413 0.429054 -0.330383 0.348025 -0.11295 -0.087199 0.0471759 0.0720529 0.101892 0.0696852 0.224944 0.0450053 -0.257127 -0.199438 -0.0851546 0.100905 0.303344 -0.14688 -0.296561 0.137304 -0.014209 -0.0018695 -0.209745 0.283161 0.36557 -0.00978701 -0.0822931 0.00527495 0.107624 -0.123247 -0.016161 -0.275976 -0.13089 0.350795 -0.276092 0.0512242 0.149302 -0.0307895 
35 -0.140646 0.324793 0.109831 -0.146918 0.336175 0.275499 -0.070463 -0.0279519 -0.104319 -0.231689 0.0407121 -0.188704 0.32065 0.256778 -0.275582 0.090528 0.262492 0.0473386 0.003798 -0.0330053 0.082524 0.273519 0.0596423 -0.0215137 -0.337161 0.36636 -0.210357 0.0121808 0.148986 -0.251298 0.0992631 0.157352 -0.0741511 -0.131694 0.323348 -0.112213 0.0402175 0.303789 0.202516 0.119382 0.16533 0.132792 -0.155353 0.333767 -0.00638291 -0.320787 0.250903 -0.16365 0.0113551 0.0948275 -0.000581248 0.0187723 -0.373966 -0.134606 0.347984 -0.0312413 -0.118107 -0.0501859 0.107668 0.266576 0.0115919 -0.101068 -0.0328396 0.210283 0.330357 -0.167776 -0.214869 0.0181464 -0.155672 0.181905 0.280387 0.118602 -0.11887 -0.277374 -0.0951168 0.0977908 -0.12987 -0.274327 -0.355999 0.0864707 -0.19063 0.172848 0.0129864 0.0283665 -0.130863 -0.164579 0.292352 -0.00565283 -0.2178 -0.227884 -0.229283 -0.234815 0.252454 -0.219167 -0.188466 0.320903 0.150021 -0.245487 -0.0442643 -0.17767 0.308682 -0.287663 -0.0233634 -0.222647 -0.205946 0.0678425 -0.26553 0.184048 0.0966506 -0.177677 0.0281832 -0.281463 -0.234394 -0.187712 0.175028 -0.00344473 -0.0656635 -0.298726 0.26651 -0.217348 -0.139522 0.493103 -0.171333 -0.173281 -0.285647 -0.0904709 -0.112809 0.343611 
36 0.25067 -0.0441706 0.172941 0.250955 0.16122 -0.109477 -0.188386 0.0768128 0.114896 -0.217196 -0.0351574 0.0512117 -0.00903497 0.0238267 0.21605 0.139025 -0.264206 -0.142145 0.126051 0.248056 -0.400213 0.0111346 0.373944 -0.139027 -0.0695036 -0.357202 0.115703 -0.208469 0.0720427 0.119414 0.105125 0.371476 -0.142309 0.0829664 0.212839 0.0854097 -0.1203 0.214226 0.0230258 -0.371107 -0.0126675 0.36483 -0.0190466 0.14377 0.201322 0.0633914 0.177676 0.181712 0.101752 -0.360004 0.00497835 -0.0651533 -0.0149884 -0.0548019 -0.0501767 -0.147066 -0.263562 0.137205 0.196825 0.256259 0.211353 -0.123041 0.200654 -0.0933171 -0.334329 -0.130165 0.212261 -0.0253421 -0.210141 -0.176776 0.148863 -0.0903636 -0.205516 -0.0799787 -0.281845 0.19375 -0.0893416 0.151911 0.161088 -0.258791 0.32528 0.0794395 0.02362 -0.212984 -0.215305 0.095455 0.143078 -0.150314 0.151009 0.122776 -0.244535 0.024458 0.312748 0.271174 -0.0631191 -0.103573 -0.0942391 0.19284 0.0822602 0.141242 0.0459512 0.0927482 -0.280541 0.0641486 0.298789 -0.230743 0.191618 -0.169332 0.187323 0.0835781 0.0533607 0.00780367 -0.107812 -0.224929 0.3031 -0.187226 -0.091732 0.264915 -0.00852704 0.0552249 -0.166018 0.246962 -0.117747 -0.125965 0.0158504 -0.161095 -0.103085 0.378584 
37 -0.245169 -0.0152732 0.0340175 0.0370666 0.0362582 0.0943342 0.196612 -0.0485876 -0.11224 -0.103353 -0.068188 0.195339 -0.244609 -0.27834 0.0116843 -0.0609434 -0.00126852 -0.0130904 -0.054091 0.399346 -0.0679458 0.102446 -0.309684 0.158391 0.228575 -0.0970561 0.168042 -0.229857 0.227703 0.0290081 -0.28901 0.178622 -0.163549 0.18406 0.271258 0.0933646 -0.111568 -0.0945152 0.0855943 0.0342652 0.0829843 0.0999295 0.125687 0.226253 0.272528 0.0293973 -0.239699 -0.0324172 -0.183077 0.0951924 0.0685464 0.256341 0.240935 -0.0295179 -0.258219 0.0984879 0.110589 -0.488763 0.248994 -0.0939748 -0.14668 0.202686 -0.0531175 -0.0913859 0.23984 -0.228326 0.170553 0.144939 -0.129947 0.0127322 -0.185677 -0.111512 -0.228828 -0.00508611 -0.256156 0.163815 -0.0821204 0.233755 -0.226471 -0.0216642 -0.201154 -0.0947604 0.0787045 -0.126651 -0.1491 0.0826657 0.208947 0.180915 0.0485556 0.136064 -0.24638 -0.0981479 0.0171051 0.114056 0.126603 0.102551 -0.450263 0.153739 -0.0280059 -0.102147 -0.304354 0.115361 -0.215031 -0.30957 -0.276588 -0.192675 0.19591 0.00836576 0.130014 0.472796 0.158059 -0.311288 -0.0769183 0.120444 -0.151645 0.0119654 0.0415176 -0.259112 -0.0386944 -0.00949813 -0.179394 0.0528612 0.238642 0.420034 -0.137102 -0.133658 0.154007 0.0689645 
38 0.220716 0.0274078 -0.156986 0.305501 -0.171049 -0.199916 -0.165773 -0.196914 0.0216452 0.00658036 -0.199563 0.011668 0.293973 -0.244882 -0.140959 -0.125773 0.21268 -0.0410728 0.40141 -0.156638 -0.0829451 -0.0254004 0.293218 0.181632 -0.137189 0.213328 0.329648 0.100495 -0.298827 -0.0399908 -0.280078 -0.13257 -0.130798 0.0642602 0.168464 0.0951233 0.105986 -0.361802 -0.228885 -0.194516 0.130454 -0.039101 0.0346225 0.285121 -0.0850638 -0.223524 -0.156363 -0.151813 0.404549 -0.274142 0.131454 -0.0202012 -0.234073 -0.089459 0.147052 -0.145053 -0.236572 0.0462063 -0.143074 -0.0767563 -0.187997 -0.161947 -0.172388 -0.171784 0.404647 -0.0637879 0.00383859 0.0182582 -0.144563 -0.19249 0.003898 -0.271328 -0.00786364 0.0893246 -0.293946 0.163936 -0.189306 0.0169173 0.346861 -0.199373 -0.137601 -0.0349666 0.145819 -0.15415 0.12782 0.042392 0.066498 -0.193923 -0.35416 0.0675708 0.231444 -0.106476 -0.152877 -0.151458 0.0873625 0.158579 0.165454 -0.0425199 -0.0815232 -0.256777 0.0686916 -0.103147 0.0253329 0.0689694 0.280324 0.1206 0.0554699 0.203218 0.21192 -0.141838 -0.287603 0.078519 0.0667788 0.0233063 -0.294417 -0.279416 0.0412672 0.241546 0.0446262 -0.175081 0.0172738 0.162733 -0.0560157 0.298177 -0.30725 -0.0494074 0.233116 0.0631777 
39 -0.0346042 -0.091856 0.0573182 0.174095 -0.0878525 0.241845 -0.0690438 -0.264852 -0.0551308 -0.146331 -0.0326976 -0.0408634 -0.0895618 -0.0904158 -0.345071 -0.422219 0.139225 0.149111 0.0609651 -0.298363 -0.109682 -0.435566 0.186968 -0.105449 0.170811 0.0221824 -0.186211 0.0803146 0.0444683 0.196821 -0.0911726 0.0400542 -0.095835 -0.0816734 0.226545 0.150629 0.00687731 0.0607891 0.203268 -0.261051 -0.140256 -0.243671 0.29934 -0.101997 -0.0793825 0.349504 -0.0997843 -0.299754 0.118544 0.00967993 -0.0937162 -0.377913 0.119125 -0.00882812 -0.129616 -0.0428261 0.201606 0.140525 0.0749813 0.0753696 0.0958389 -0.14398 0.2318 0.235811 0.18318 -0.155808 0.0078971 -0.313619 -0.13293 -0.13739 -0.0539988 -0.180571 0.032166 -0.30228 0.142605 0.00969384 -0.336873 0.211457 0.0573499 0.244244 0.100249 0.204018 0.190325 0.0658518 -0.0209858 -0.0431946 0.0645843 -0.147555 -0.115274 -0.0729101 -0.175911 -0.111173 -0.0179755 -0.108659 0.26481 -0.0699761 -0.114709 -0.142146 -0.0193416 -0.128367 0.11691 0.0955253 0.166352 0.013162 0.251279 -0.120979 0.272425 0.0213175 -0.0830704 -0.0232534 0.181608 0.135958 -0.151099 0.18489 0.0786097 0.207662 0.0517359 0.195705 -0.0526301 -0.0507603 -0.0575012 -0.0730699 0.0154865 -0.204535 -0.0716809 0.17992 0.189453 -0.104859 
40 -0.248253 -0.163823 0.270197 -0.00606046 -0.18439 -0.184806 -0.264887 0.058738 -0.3692 -0.295481 0.0170519 -0.291789 0.0282645 -0.405516 -0.289681 0.330272 0.032773 0.148118 0.0999349 -0.0224181 0.00373913 -0.16255 -0.110177 -0.112327 -0.0428268 0.165029 0.0198177 0.124488 -0.0417677 -0.124716 0.0694528 0.0210286 0.133608 0.426783 -0.35921 -0.225186 -0.00520287 0.0405871 0.0807615 -0.211883 -0.117202 0.166521 0.126187 -0.264767 0.197905 0.0337022 -0.369354 -0.134826 0.164663 0.0868157 0.196325 -0.0247083 -0.197871 0.181399 0.0243871 0.132695 0.0460189 -0.0259946 0.0284626 -0.250714 0.0711873 0.0201504 0.158732 -0.101108 0.125203 -0.0498308 -0.00762577 0.0192337 -0.188806 0.140689 -0.0109766 0.0466676 0.0151591 -0.00566711 -0.209239 0.21702 -0.402203 -0.0159147 0.0758229 -0.0618246 0.33428 -0.138908 -0.0780384 0.0928633 0.0470648 0.0164372 0.040045 0.155643 0.11881 -0.219052 0.0773384 0.0849408 0.00457936 -0.169181 -0.0234768 0.0957972 0.372166 -0.135187 -0.202532 -0.313687 0.0189503 0.0647009 0.269231 -0.218268 0.124864 0.262538 -0.14841 0.0117115 -0.0949933 -0.0742258 0.314026 -0.622432 0.313387 -0.441209 0.0707511 -0.331434 0.0947716 0.0610087 0.264581 0.20598 0.0813782 -0.0375095 -0.0369636 0.0866721 0.0397101 -0.197954 -0.0111348 0.0174477 
41 0.342199 -0.237722 0.133735 -0.201125 -0.0649083 -0.416961 -0.216781 0.359261 0.00727017 -0.0165818 0.435037 0.21583 0.00252745 -0.0920981 -0.00304992 0.0783138 0.349583 0.0867153 0.00529329 0.138517 -0.144229 0.0138801 0.271944 0.329352 0.0874977 0.221244 -0.207372 0.108401 0.0925452 0.281527 -0.435824 -0.0788569 -0.172651 0.369531 0.417007 -0.048633 -0.173213 0.163076 -0.352566 -0.0341027 0.0830935 -0.191299 -0.107685 0.0326498 0.0357006 -0.0422231 0.108347 0.136346 0.15591 0.351766 -0.102756 -0.0119344 0.108929 -0.130912 0.0619845 -0.0953568 0.0942675 0.121829 0.224064 -0.103149 0.120586 -0.0733016 0.0456561 0.174201 0.262415 0.0878301 0.033155 -0.290149 0.153945 0.126 0.193563 0.269767 0.284632 -0.231127 -0.00691134 0.0300315 0.103346 0.104438 -0.498988 0.0993658 -0.432452 -0.155201 -0.00518391 -0.168656 -0.100142 0.287377 0.125643 0.077339 -0.243544 -0.0935908 -0.270406 0.0670539 -0.232469 0.230575 0.0792148 -0.231502 -0.158128 0.226434 0.159954 -0.138975 -0.254475 0.102759 0.159617 0.332604 -0.390519 -0.197997 -0.117275 0.209105 -0.218969 0.169038 -0.370018 0.0537655 0.226135 -0.17564 0.123083 -0.343302 0.277297 0.127009 0.118141 0.299709 -0.34254 -0.16538 -0.133847 0.0553384 -0.0456074 -0.142725 -0.358472 0.237984 
42 0.233283 -0.0362051 -0.116257 -0.110744 -0.236541 0.0989586 0.00707869 0.123019 -0.141104 0.228031 0.00987705 -0.197943 -0.263845 -0.0259562 0.19601 -0.225869 -0.124376 0.0172718 -0.0260974 -0.264344 0.0255617 -0.286406 0.0860538 0.0442114 -0.180293 -0.10127 0.190914 -0.0331215 -0.0199243 -0.0482524 0.0795907 0.199725 -0.0235579 0.035956 0.073973 -0.177195 -0.0064439 -0.194383 0.107447 0.0229434 0.00213756 0.101241 0.316294 0.180717 0.140392 0.0990245 -0.14209 0.26801 0.111849 0.127875 -0.218411 -0.033928 -0.174962 -0.119519 0.0064659 -0.282022 0.156049 0.204592 0.19952 -0.156853 0.183735 -0.0400746 -0.202294 0.10239 -0.0716528 -0.239688 0.156034 -0.0491519 -0.120264 -0.00317489 -0.160698 0.355472 -0.214187 0.00483915 0.100853 0.16944 -0.0574928 0.215059 0.0546553 0.0697012 0.12228 0.0798879 -0.0853398 -0.0316476 0.11128 0.0686417 0.310706 -0.234024 -0.216034 0.366408 -0.0031462 -0.0936722 -0.2321 0.13796 0.0797262 0.228549 0.118517 0.230657 0.0176134 0.188375 0.249742 0.159737 0.115851 -0.0513619 0.0538609 -0.047634 -0.161625 0.131125 -0.0987203 0.180231 0.0330732 -0.012462 0.0232435 0.0171526 -0.0132253 0.110995 -0.00568786 0.255304 -0.0493223 0.170224 0.183488 -0.123108 -0.23316 -0.121786 -0.146752 -0.254851 0.0199664 -0.208333 
43 0.0266759 -0.13362 0.324071 -0.0260076 -0.0892399 0.0248332 0.270769 -0.107941 -0.132604 0.173215 0.0300919 -0.0487392 0.136843 0.132215 0.137789 0.207486 0.196007 -0.0269276 -0.115136 -0.221231 -0.185717 0.120423 -0.331422 0.187308 -0.0909185 0.0323501 -0.139436 -0.0952998 -0.247605 0.247204 -0.305307 -0.0277204 -0.362454 -0.0241473 0.0219859 -0.241469 0.00512773 -0.242345 -0.0470764 0.0187574 0.253912 0.116613 0.0847537 0.240178 0.117065 0.165169 -0.165051 -0.321353 -0.213402 -0.0529636 0.111851 -0.110863 -0.0883882 0.17732 -0.302104 0.0500531 -0.23317 -0.146925 0.378017 -0.122209 0.0977232 -0.155359 -0.0912206 0.152986 -0.15492 0.163623 0.280217 0.218994 -0.303492 -0.137762 0.14842 -0.165379 -0.241914 0.127776 0.163019 -0.0950002 0.175919 -0.236472 0.257636 0.00345487 0.243394 -0.172089 -0.0251406 0.210534 -0.279336 -0.166853 -0.0933014 -0.171252 -0.0380316 -0.0927644 0.146284 -0.0429805 -0.0452616 -0.0812659 -0.147508 -0.200667 0.0271405 0.309279 -0.237248 0.0810442 -0.135535 -0.360889 0.0165601 -0.195329 0.215305 -0.122931 0.156744 0.244213 0.0221032 -0.163948 -0.0548291 0.0640963 -0.0617754 0.0252361 0.206904 -0.0842709 0.188579 0.269626 0.378162 -0.197598 -0.0428816 -0.11749 -0.0378188 -0.262025 0.145643 0.136358 -0.0748958 -0.362272 
44 0.248956 0.14722 0.0646733 0.423046 0.0557378 0.125744 -0.28387 0.0961067 -0.359075 0.348392 -0.0828918 -0.164953 -0.0218941 0.399035 0.21253 0.141838 -0.183357 0.158018 0.203405 0.114314 0.00721393 0.0628768 -0.0744989 0.0339938 0.0410134 -0.188582 0.0497853 -0.0278237 0.080862 -0.199166 -0.093119 -0.35535 0.309474 0.143026 0.238735 0.0385157 0.117603 0.128107 -0.214594 0.148377 0.209978 0.213885 0.103556 -0.0620326 -0.0942929 -0.269946 -0.028364 0.193822 -0.0119347 -0.114638 0.124524 0.41775 0.0731735 -0.0747578 0.0393393 0.229108 0.0709043 -0.245803 -0.301015 0.0335928 -0.0991742 0.243676 0.275301 -0.079913 0.0200841 -0.168567 -0.266354 0.106382 0.157843 0.141156 -0.179379 -0.199788 0.0797171 0.0752899 -0.112954 -0.0871024 0.0996297 -0.00134362 -0.197852 -0.0115473 0.172568 -0.247136 -0.00351826 -0.236377 -0.218992 0.0805398 -0.0416715 0.141698 0.0234498 -0.150387 0.279819 -0.0725705 0.000953525 0.051255 -0.000776883 -0.0748564 -0.0923059 -0.0987836 -0.023516 -0.272133 -0.366077 -0.161983 -0.0814127 0.178194 0.251659 -0.00286871 0.298184 0.0635793 -0.185924 -0.364094 0.234153 0.224574 -0.308252 -0.0749125 -0.043361 0.0664291 -0.143399 0.229622 -0.0512442 0.0992456 -0.200084 -0.148652 0.0195965 0.149598 0.120516 -0.260572 -0.230482 -0.207023 
45 -0.0982524 -0.205224 -0.00872912 0.0772631 -0.107571 0.123292 -0.0646317 0.0759576 0.0123089 -0.24948 -0.0436724 -0.153586 -0.0348455 -0.0959319 0.0325052 -0.495228 -0.161635 -0.224927 0.20691 -0.268879 -0.174311 -0.0250118 0.125395 0.0286206 0.160194 -0.175823 -0.0467021 -0.00298379 0.0439898 0.00851631 0.114143 0.0684084 -0.172904 -0.234443 0.0818797 -0.114917 0.293176 0.421658 -0.0195374 -0.0390474 0.0663223 -0.0345914 0.64649 -0.224667 0.12903 0.0814697 -0.121963 0.227265 -0.179248 -0.0240455 -0.237585 -0.0476358 0.0122086 0.143011 0.276159 0.0797329 -0.187508 -0.0794558 -0.268814 -0.0615666 0.0229148 -0.245893 0.0117961 0.339231 -0.376999 -0.272933 0.295345 -0.141731 0.156028 -0.0562419 0.0812215 0.316765 0.333367 0.0700689 0.390534 -0.166802 0.417656 -0.212706 0.0932674 0.11675 -0.163855 -0.0366195 0.275661 0.0697029 0.00106496 0.226017 0.117422 0.0332578 -0.154587 0.379308 0.343851 -0.318301 -0.21423 -0.0286124 0.385033 0.0846317 0.166354 0.194952 -0.153292 0.29423 -0.182004 -0.0514585 0.206748 -0.0344299 0.519174 -0.0141497 0.312947 0.275661 0.385577 -0.0815147 0.0100712 -0.31637 -0.267952 0.033819 -0.045815 0.0287886 -0.0294018 -0.0242092 0.172689 0.151208 0.0219742 0.136629 -0.120554 -0.0607892 -0.182055 -0.101025 -0.0917425 -0.243693 
46 -0.249234 0.185389 0.101995 0.110845 -0.00331435 0.0196056 0.000710225 0.00912673 0.200629 -0.383722 -0.0508854 0.126519 0.0350642 -0.302021 -0.0114408 0.0484107 -0.386574 -0.0672165 -0.0286861 0.255917 -0.138655 0.19227 -0.0980159 0.0161633 0.153072 0.256764 0.195311 -0.17268 -0.0330457 0.0196846 -0.098712 -0.1526 -0.0095845 0.0351813 -0.0338553 0.148758 -0.182883 0.00341289 0.13891 0.0702336 -0.472274 0.164534 -0.154019 0.0414836 0.342393 0.165011 -0.125553 0.219195 0.0235644 0.0723647 -0.109652 0.20757 0.18517 0.0290727 -0.244354 -0.0568176 -0.199495 -0.383147 0.118694 -0.109851 -0.0952319 -0.09358 -0.0952506 0.241933 0.0533262 -0.119557 -0.127433 0.295274 -0.231229 -0.248303 -0.348137 0.0671684 0.117936 -0.133702 -0.382424 0.248181 0.0969749 0.100509 -0.0138378 -0.130815 -0.0434667 0.151891 0.227018 -0.161966 -0.282251 -0.0688186 0.168678 0.321045 -0.169348 0.0582359 0.0359174 0.190709 -0.201338 0.411153 0.156367 0.19094 -0.339603 0.269077 0.206825 -0.019559 -0.230619 0.220066 0.222375 0.0822079 0.0582542 0.149472 0.240056 -0.111561 0.164284 0.505214 0.218747 -0.123784 0.187699 0.232282 0.0842877 0.135216 0.0770142 -0.239586 0.225664 -0.339901 -0.0307531 -0.185283 -0.0586022 0.552344 -0.302534 0.0295169 0.30524 0.192523 
47 0.0874651 -0.102095 0.144093 0.160911 -0.0408776 0.0415053 -0.136663 0.0649617 -0.142195 -0.074005 -0.353104 0.0489637 0.236894 0.180171 0.277895 0.332822 -0.117206 -0.210216 0.206766 0.189636 0.0486893 -0.0230476 0.045438 0.344749 -0.366703 0.102626 -0.0851137 -0.0885022 -0.232242 -0.111195 0.118153 0.185823 0.196571 0.0702047 -0.168589 0.379057 -0.152937 0.0791359 -0.0967557 0.0799265 0.244927 -0.0513033 -0.0966717 0.169619 -0.207117 0.127825 -0.151413 0.0439312 0.310457 -0.00724671 -0.371928 -0.283278 -0.589725 -0.161474 0.0579874 -0.163832 0.0584808 -0.0615274 0.190196 0.30924 0.341458 -0.259734 0.000471049 0.290144 0.211609 0.284123 -0.0411228 0.224009 -0.25989 -0.0521882 -0.00483532 0.242728 0.167303 0.157781 0.0887252 0.0148549 0.0654471 0.47212 -0.259295 -0.147531 -0.291282 -0.0911639 0.0869627 -0.163436 -0.0395168 -0.110145 0.278694 -0.153476 -0.1619 -0.165589 -0.179675 -0.408723 -0.058172 0.0591109 0.177787 0.101194 -0.250984 -0.00725491 0.0331793 0.0920314 -0.188797 0.00791764 -0.0319071 -0.210961 -0.281096 0.0419808 0.342913 -0.101448 -0.171221 -0.0586461 0.209021 0.225282 0.0347311 -0.07881 0.343595 0.37041 0.098369 -0.0921804 -0.121643 -0.312746 -0.0574549 -0.360338 -0.0889971 -0.0216169 0.136555 0.349422 -0.200023 -0.0788502 
48 -0.0774911 -0.356818 -0.287244 0.255412 -0.161651 0.0868917 -0.00718821 -0.149658 -0.16158 -0.0273026 -0.194705 0.0642273 0.148362 -0.174056 0.109961 0.181838 0.137396 -0.035999 -0.0136306 -0.101483 -0.365976 0.0535356 -0.0447207 -0.21212 0.209079 -0.0600822 0.145045 -0.172703 0.0474614 0.0951928 -0.288803 0.327296 -0.316005 -0.0500012 -0.0578031 0.255969 0.0754176 -0.07393 -0.161651 0.122424 -0.119399 -0.0462127 2.9604e-05 -0.1532 -0.215374 -0.218943 0.102481 0.0784201 0.0507827 -0.283059 -0.00777471 -0.206089 0.218792 0.354544 0.0165216 -0.033481 0.0882634 -0.220386 -0.263465 -0.153489 -0.13578 -0.14342 -0.00917957 0.230197 0.162215 -0.0858113 -0.135607 -0.0194193 0.203356 -0.00355759 0.394977 0.133252 -0.293479 -0.0536818 0.202041 0.00558713 0.0518723 -0.0943962 -0.280245 -0.304621 0.0753406 0.172483 0.00642715 0.373547 0.0893552 -0.358506 0.0357627 0.262659 -0.163232 -0.0723323 -0.143273 0.0690602 -0.135402 -0.0731946 0.152618 -0.126334 -0.0550368 0.111178 -0.0835594 -0.146037 0.176911 -0.0180628 0.0419153 -0.125108 0.153214 0.263414 0.0882816 -0.167727 -0.147132 -0.127547 -0.0346779 0.10711 0.354911 0.396454 -0.178585 -0.121572 0.177719 -0.516316 0.0109663 0.0590902 0.0159209 0.129035 -0.350119 -0.100392 0.169536 0.124622 0.194625 0.372622 
49 -0.0683556 -0.087489 -0.159421 -0.0918579 -0.280983 -0.241495 -0.0726266 0.25035 0.199807 0.0111223 -0.23652 0.110699 0.196024 0.111994 -0.231845 -0.0610401 -0.091752 0.236862 -0.119401 -0.0186778 -0.239005 0.0361338 0.202202 -0.20107 0.0525763 -0.123278 -0.0684317 -0.14325 0.103661 0.121588 -0.20513 -0.052219 0.0895023 0.201998 -0.14261 0.0826722 -0.000165546 0.27422 0.0790035 0.166153 -0.174838 -0.154872 -0.167792 -0.0621333 -0.199512 -0.0308485 0.0359713 -0.0126256 0.119676 -0.126968 0.0464304 0.0418541 -0.000582983 -0.0421175 0.00934348 0.102097 -0.258843 -0.00309896 0.0632782 -0.251168 0.0777677 -0.14914 -0.0900496 -0.222264 0.0209252 0.0393324 -0.0958423 -0.165524 -0.0936102 0.12538 -0.0510726 0.0325046 -0.0653777 0.179839 -0.17495 0.0453836 0.263176 0.0167632 0.0653902 -0.0393747 -0.018188 -0.210045 0.177812 0.0443338 -0.266532 0.0573802 0.0815613 -0.124351 0.0603592 0.109529 -0.178695 0.175411 0.231441 0.079179 0.444997 0.0630598 -0.125363 0.0154841 -0.0591266 0.011622 -0.0329597 -0.019659 0.154032 -0.0817786 0.174899 -0.16137 -0.159096 0.0164346 0.220661 0.0264519 -0.0486261 -0.0351171 -0.147013 -0.108949 0.22853 -0.157469 -0.171531 0.0291994 -0.149536 0.0719601 -0.254789 0.108713 0.20151 -0.00617395 0.19182 0.345933 0.0618149 0.0629839 
50 -0.201288 -0.111021 0.00964132 -0.0259142 -0.100398 0.170436 0.00767175 -0.192846 0.0195937 0.256391 0.0243347 -0.123648 0.0748722 -0.0162887 0.0594699 0.138776 -0.0804936 0.0198824 0.108398 0.0518525 0.116549 -0.226388 -0.225805 0.223144 0.183334 -0.099684 -0.202002 -0.291788 0.335854 0.275624 0.139416 0.0981673 -0.0703877 -0.151137 0.181588 -0.212804 0.283794 0.193537 0.151722 0.214692 -0.258483 -0.331529 0.139756 0.06411 -0.000861926 -0.048307 -0.415447 -0.045504 -0.0660813 -0.124823 0.0842071 0.283743 -0.0870639 0.104747 0.332275 -0.229042 0.220216 -0.470554 0.0596386 0.00516041 0.414519 -0.0290144 0.0362246 0.269039 -0.108906 0.0308065 -0.0433462 0.211575 -0.0617657 0.129508 -0.0233448 -0.0421477 -0.153309 0.186001 -0.160871 0.0102927 0.159077 -0.0680298 0.0581475 -0.138025 0.021605 -0.0693595 -0.30771 -0.0517142 0.0972367 -0.0184977 0.0255553 -0.208993 -0.251227 0.258813 -0.253185 0.231857 -0.299989 -0.0984879 -0.0329909 -0.0130286 -0.121519 -0.00719812 -0.114088 0.151991 0.0860625 0.188126 0.193419 0.10717 -0.0676251 0.263779 0.0978691 -0.196419 0.0907666 -0.397764 -0.0447568 -0.00678253 0.0860344 -0.210316 -0.11337 0.196707 -0.294611 0.115334 0.00260529 0.18268 0.0898082 -0.143343 -0.306754 0.263294 -0.0480311 -0.0550813 -0.2133 0.0732477 
51 0.21843 -0.175106 -0.0349248 -0.00844681 0.285828 -0.247781 0.254888 -0.175044 -0.248926 -0.172782 -0.328156 0.0929134 0.183737 -0.313958 0.119009 0.0185939 -0.242724 -0.0183836 -0.446643 0.199712 0.322121 0.0335829 -0.202479 0.149089 -0.127991 0.305081 0.241966 -0.221812 -0.0943852 -0.00684202 -0.285163 0.00123764 0.103186 -0.0463227 -0.200322 0.0685551 0.252892 0.00265499 0.0585488 0.0698176 0.0592561 0.119301 -0.0507288 -0.255354 0.187359 -0.118502 -0.162013 -0.157858 -0.283517 -0.0890969 0.101345 -0.0313948 -0.394435 0.0674505 0.0896188 0.17136 -0.006804 -0.243298 -0.119789 0.164913 -0.0830255 -0.301023 -0.00156637 -0.0395511 0.0640634 -0.079303 0.264083 -0.152655 0.156426 0.0121376 -0.102863 -0.029379 -0.132496 -0.175662 0.0842469 -0.0660571 -0.0687217 -0.0296089 -0.100072 -0.0713457 0.0628649 0.0850498 0.297913 -0.176883 0.200167 -0.29252 -0.501463 -0.345887 -0.110378 -0.089165 0.393207 -0.165291 0.373741 -0.202346 0.154979 -0.0206827 -0.12102 0.186711 0.0976562 0.163161 -0.0541798 0.0803549 0.0530634 0.180535 -0.181482 -0.217061 0.0754284 0.159181 -0.155003 -0.0275503 -0.286456 0.00448397 0.0323769 -0.245396 -0.0163147 -0.0287113 -0.0964127 0.15682 -0.117805 -0.186565 0.210781 -0.0805373 0.196577 -0.0393368 0.0262609 -0.0375499 -0.135897 0.201763 
52 0.11783 -0.0652013 0.232704 0.0950994 -0.0123505 0.147769 -0.071205 -0.0883619 -0.0925232 0.260895 0.11322 0.106157 0.0121372 -0.0789438 0.0688084 -0.302952 0.321793 -0.217713 0.0393635 -0.130513 -0.218629 0.102563 0.0714517 -0.569732 -0.421009 0.0129609 -0.031705 0.0534736 0.305597 -0.0586541 -0.0374472 0.143322 0.0670684 0.103676 -0.195756 0.031603 -0.323366 -0.0576167 0.289678 0.0257987 -0.200824 -0.0947578 0.18547 0.0961206 -0.178207 -0.154238 -0.264508 0.235791 -0.13513 -0.211813 0.0943248 0.341048 -0.22603 0.0280252 -0.0626382 -0.240517 -0.299542 -0.169861 -0.154119 -0.10323 -0.0830491 0.223372 0.115106 -0.373457 -0.269497 0.342821 -0.00155956 -0.0469853 0.0395061 0.117148 0.107658 0.245624 0.0488048 -0.0531581 -0.113005 0.411867 0.0478644 0.0381761 0.333482 0.256575 0.148965 -0.232023 -0.318022 -0.264104 0.0601728 -0.0878926 -0.140999 -0.426029 -0.37162 0.0869771 0.137586 0.123756 -0.00786322 -0.405825 -0.0229609 0.0349902 0.406202 0.412678 -0.0386364 -0.00123157 -0.0681475 0.0535687 0.171955 -0.0678647 -0.206196 -0.149466 -0.310625 0.118277 -0.166798 0.276945 0.20598 -0.0728158 -0.255279 -0.0825887 0.196974 -0.169678 -0.221345 -0.260321 0.00322367 -0.148962 0.0937953 0.108786 0.292732 0.0566303 0.240975 0.226889 0.0579465 -0.029515 
53 0.294923 -0.104012 0.135842 -0.328935 0.10851 0.424659 0.0664125 0.0934789 -0.294356 -0.192179 -0.0173476 0.0630758 -0.0410798 -0.114321 0.135597 0.0986816 -0.0421457 -0.227626 0.134665 -0.0118469 -0.364262 -0.303602 0.0665492 0.309317 0.0147706 -0.0791359 -0.232247 0.151126 -0.210355 0.0345098 -0.148258 -0.236408 -0.225078 -0.151924 -0.13818 0.103976 0.145399 -0.149628 -0.0574896 0.288122 0.210706 -0.170995 -0.0737898 -0.202979 0.0447889 -0.2675 0.160028 0.00751768 0.00194667 -0.0926931 -0.12198 0.139346 0.185965 0.347159 0.239327 -0.00759511 -0.1689 -0.24504 -0.312265 0.214873 0.336435 0.0658116 -0.139564 -0.109581 -0.275146 0.239838 0.296211 -0.342026 -0.0967695 0.0952724 -0.279734 -0.164072 0.183665 -0.284692 0.0123558 -0.126888 0.122429 0.20502 -0.0473661 -0.206827 0.193502 -0.263084 -0.200232 -0.0658711 0.180725 0.11741 -0.11048 -0.20936 0.0189246 -0.404763 0.152875 -0.0848497 0.152218 -0.204567 0.247759 0.0727941 0.0531734 0.0998622 0.227872 -0.117221 -0.223479 0.136439 -0.0680091 0.0912661 -0.212699 0.410671 0.0454597 0.0554903 0.00162566 0.359665 0.0686954 0.253326 0.0921404 0.0909588 0.0898717 -0.0516049 -0.0177414 0.308635 0.103601 -0.104346 0.0268679 0.12681 0.127519 -0.0214975 -0.0399267 -0.262662 -0.0624112 -0.0587183 
54 -0.177358 -0.117054 -0.236587 -0.0566982 -0.0766534 -0.0576374 -0.0506685 -0.0574762 -0.122225 -0.153033 0.283372 0.154764 -0.088342 0.0905706 -0.275839 -0.26353 0.0153056 0.0947486 -0.0570987 -0.0198413 0.0289398 -0.0879167 0.0421997 0.10096 0.00565907 -0.123771 0.160867 0.0765279 -0.209803 0.033864 0.071331 0.132041 0.357342 0.162544 -0.0817059 0.31267 0.146681 -0.0873323 0.295581 -0.0824488 -0.157897 -0.0643757 -0.213174 0.00246031 -0.195188 -0.0958858 0.135542 -0.0392472 0.0677373 0.0109377 -0.0541805 -0.118505 0.259238 -0.0749187 0.100846 0.112016 -0.331827 -0.150788 0.233588 -0.126938 -0.210218 -0.225198 0.338215 0.192068 -0.236277 -0.204377 0.512222 -0.062739 0.135859 0.220795 0.32229 0.117873 -0.328701 0.151836 0.084417 -0.0733578 -0.196135 0.16985 -0.0263606 -0.0363751 0.0784903 -0.156673 0.144609 -0.292446 0.0613572 0.193411 0.321658 0.0310118 -0.0340619 0.228045 0.194624 0.0239815 -0.0641214 0.0113484 0.00207685 -0.260586 0.193664 0.102859 0.117833 -0.192221 0.204591 0.0432984 -0.135019 0.398656 0.0994243 -0.125185 0.0156649 0.0340103 -0.323151 0.166275 0.162872 -0.203756 -0.215407 -0.171524 0.0583715 -0.138943 -0.204751 -0.104597 0.285454 0.0997837 -0.0091558 0.0268356 -0.14264 -0.141958 0.166352 0.225105 0.158246 0.157816 
55 -0.0327141 -0.215776 -0.0384312 0.275001 0.0986651 -0.230697 0.167417 -0.102826 0.0262154 0.309829 0.124465 0.216124 0.0654195 0.0973347 -0.0979159 0.255911 -0.38517 0.199221 -0.255297 0.327727 -0.263127 -0.0539154 0.246281 -0.202172 -0.256788 -0.183061 0.378573 -0.0133072 0.14867 0.155649 -0.159353 0.150068 0.310793 0.0966511 0.127501 -0.0271976 -0.241242 0.00267739 0.120944 0.294597 -0.0528311 -0.159424 0.00664971 -0.37815 0.377312 0.144652 -0.216716 -0.124169 -0.0110136 0.323779 -0.396171 0.0763486 -0.175805 0.0288903 -0.224765 0.00284662 -0.180905 0.125729 -0.0417138 0.151648 -0.229371 0.0323533 0.17478 -0.090256 0.115315 -0.162855 -0.0596329 -0.221116 0.356662 -0.0621816 0.0847983 -0.343119 -0.0674644 0.205023 0.0743117 -0.116958 -0.0236364 0.00870574 0.336367 -0.0687804 -0.317833 0.100883 -0.164164 -0.279452 0.254142 -0.278095 -0.203237 0.137826 -0.244579 0.290833 -0.327692 -0.160127 -0.0348047 -0.271781 0.19851 -0.0220648 0.144116 -0.181207 0.376345 0.145232 -0.227727 -0.167056 -0.0264571 -0.252967 0.029177 -0.287111 0.169955 0.102101 0.207136 -0.391511 0.108644 0.235186 0.0515482 0.0340046 -0.150878 -0.205981 0.275544 0.143732 0.386361 -0.124609 0.398185 -0.0248346 -0.120128 0.0405789 -0.0280744 -0.130528 0.269688 -0.317321 
56 -0.200443 0.153148 0.390328 -0.262435 0.0184424 0.0164064 0.0440735 0.430009 0.218038 -0.200622 0.163144 -0.190201 -0.188971 -0.118608 -0.0300349 -0.173144 -0.350458 0.0878704 -0.165031 -0.0428884 -0.190237 0.00354554 0.117052 -0.133999 0.176504 0.0541205 -0.176754 -0.105579 0.155505 0.0496522 -0.0651629 -0.145751 0.0313162 0.0712521 -0.0963465 -0.273299 -0.109743 0.033368 -0.158301 -0.0506972 0.110099 -0.190154 0.0318933 -0.256218 0.0310914 -0.218725 -0.113827 0.151462 0.301052 0.313813 -0.0482051 -0.271437 -0.209172 0.0505294 0.2334 0.190079 -0.243495 -0.0300308 -0.146361 -0.386679 -0.0842965 -0.170185 -0.0957271 -0.197273 0.195857 0.164049 -0.153186 0.086503 -0.201749 -0.196271 0.0765935 -0.2926 0.0522935 -0.212916 0.192778 -0.390976 -0.0778393 -0.290061 0.0689499 -0.256215 -0.103071 0.00689908 -0.0176212 0.379161 0.0190812 -0.427253 0.265882 -0.150924 0.190653 0.0606912 -0.121337 -0.205736 -0.176706 -0.142691 -0.0810279 -0.00710903 0.0240129 0.29497 0.18953 0.0928319 -0.0261438 0.015978 0.093455 0.266607 0.0574165 0.188021 0.134827 0.0304163 0.0772414 0.296972 0.279785 0.125617 -0.222663 0.0834099 -0.0304996 -0.259526 0.0757103 0.010044 0.0643891 -0.179722 -0.0431786 0.138281 -0.061561 -0.188716 -0.239316 -0.173258 0.253506 -0.266115 
57 0.131235 0.10127 -0.0497435 -0.0154189 0.200519 -0.15563 -0.184038 -0.33271 -0.115095 0.100336 0.206534 0.251319 -0.392042 0.0724124 0.0160901 -0.0212982 -0.228047 0.216395 -0.0304691 0.147473 -0.116486 0.0311066 0.136771 0.0783815 -0.0101319 0.00157814 0.466482 0.0512158 -0.0858381 0.372596 0.0700579 -0.181373 -0.253697 0.113931 -0.24861 0.131482 0.135182 -0.243623 0.268778 0.0102534 0.0268735 0.108397 -0.0670002 0.173541 0.267422 -0.126704 0.100854 0.0237424 -0.0492536 -0.0072444 -0.0217963 -0.138533 0.050006 -0.315878 -0.046566 -0.312033 0.0637184 -0.0106281 -0.0501035 0.0343704 0.069565 -0.238748 0.000991643 0.307864 0.517335 -0.115723 -0.0610262 -0.0613547 -0.221774 0.0590828 0.116083 0.112981 -0.0636197 -0.166257 0.183827 0.0111903 0.347528 -0.246528 0.279564 -0.0114815 -0.0362807 -0.0387228 -0.0226154 0.00501612 0.00101967 -0.245704 -0.317399 0.281838 -0.0190317 -0.142343 -0.429246 0.00739661 -0.197831 -0.0260294 0.00727408 0.0344043 0.365662 0.122193 0.125748 0.0693321 0.145359 0.236275 -0.163503 -0.00989425 0.0635706 0.186336 -0.0769259 0.285852 -0.0884768 -0.175958 -0.0948662 0.221578 0.07221 -0.393623 0.261195 0.26527 -0.0908786 -0.0621115 0.273339 0.277351 0.0801074 -0.12188 -0.0153349 -0.0810344 -0.197272 -0.0498293 0.173309 -0.110919 
58 -0.285529 -0.251685 0.312902 0.0230717 -0.0479733 -0.304969 -0.194398 -0.16748 -0.362773 -0.0603092 0.154641 -0.360808 -0.193301 -0.167161 -0.315532 0.188623 -0.196987 0.158771 0.0326341 -0.157293 0.0212215 -0.0966839 -0.0276037 -0.242339 0.0216206 -0.174005 -0.111986 0.0651772 0.122498 -0.0844948 0.218134 0.0580143 0.0650744 0.446451 -0.372854 0.141356 0.257843 -0.0425685 0.156238 -0.0695189 -0.0214727 0.0595769 0.074337 -0.0781163 0.302456 -0.15669 -0.18771 -0.190061 0.312965 0.0384625 -0.0632927 0.069936 -0.184893 0.316666 0.231318 0.0871889 -0.128371 -0.0321745 0.206427 -0.035667 0.0701734 0.181934 -0.158644 -0.093244 0.1624 -0.00800475 0.0594788 -0.0238291 -0.127151 0.12865 0.0193301 0.227857 0.0951422 0.19514 -0.0853714 0.220249 -0.506819 -0.196484 -0.0468121 -0.272752 0.245063 -0.18291 -0.028954 0.114469 -0.0194659 0.000889246 0.00892816 -0.0954732 -0.0388487 -0.139217 0.0217204 -0.177592 -0.0423778 0.181962 -0.114987 0.0477495 0.367083 -0.318123 -0.113564 -0.342804 -0.0187671 0.240946 0.31325 -0.101288 0.0527326 -0.163015 0.0896559 -0.0407964 0.0160952 0.114003 0.130493 -0.423766 0.428649 -0.131766 -0.0940796 -0.328035 0.132668 0.00390393 0.250363 -0.0420008 -0.257147 -0.371902 -0.0269321 -0.202601 -0.0828947 -0.016309 0.0982204 0.114652 
59 0.0866152 0.330244 0.216289 -0.000892981 0.0246613 0.214727 0.165933 -0.17005 0.236453 0.042193 0.112756 -0.0330973 -0.288014 -0.260218 0.101797 -0.1934 0.0968807 0.0772889 -0.294668 -0.20583 -0.158852 0.193981 0.179206 0.0968334 0.086976 0.1995 0.0584837 0.151667 0.32823 0.0508011 -0.0701202 0.141619 -0.0965603 -0.0802453 -0.413308 -0.276865 -0.0849152 0.341921 -0.087401 -0.189047 -0.0521601 0.25729 0.0728714 -0.00555063 0.157729 -0.0187184 -0.460905 -0.217507 0.165392 -0.24062 0.0283387 -0.0200724 -0.286985 -0.19018 -0.0177911 -0.12742 0.134602 0.0823164 0.00484575 0.0533062 -0.0803461 -0.106944 0.209735 0.161556 -0.0852967 -0.379119 0.070244 -0.168035 0.211393 0.23345 0.318854 -0.122115 0.46662 -0.15315 -0.314035 -0.0455423 0.124735 0.0140461 -0.184481 -0.0796992 0.132105 -0.48557 0.119792 0.0370942 -0.193756 0.0952207 0.0889078 0.0725992 -0.354043 0.110612 0.138422 0.112761 -0.165999 0.0397152 0.00949877 -0.0561134 -0.0257341 -0.0385213 0.0949298 0.148372 0.0311066 0.0821084 -0.0992056 0.0410882 0.251622 0.00905603 -0.272995 -0.176363 -0.231816 -0.0739704 0.397779 0.0823286 0.101094 0.28585 0.233651 -0.0558532 -0.362109 0.119439 -0.0701548 -0.106527 -0.0636435 -0.207 0.211193 -0.0408659 0.126088 -0.215017 0.409122 -0.232069 
60 -0.169353 0.148111 0.0683558 -0.0512496 0.149694 0.0698562 -0.0184506 0.283338 -0.271679 0.0531747 0.0114958 -0.15594 0.278696 -0.0338533 -0.121718 0.0152933 0.0289694 -0.0797656 -0.160433 -0.0895363 0.366984 -0.0273849 -0.121295 0.0725913 -0.0410229 -0.0909511 0.331424 -0.419 0.385345 0.157095 -0.0845355 0.11526 0.230153 0.251171 0.0982288 -0.0658296 0.111341 -0.251834 -0.0942846 -0.140864 -0.00542888 -0.371246 -0.202184 -0.0418487 0.135879 -0.0624325 -0.387487 0.0772354 0.163854 -0.0196151 0.361509 -0.0788811 0.142868 -0.0464443 0.256196 -0.299854 -0.0912794 0.11457 -0.271685 0.28854 -0.20661 0.322849 -0.0292317 -0.290508 0.011382 -0.219883 0.220885 0.0652213 -0.143072 -0.101617 -0.316239 0.286535 0.0452887 -0.0330506 0.176202 -0.18428 0.016503 0.00891384 0.313209 -0.188539 -0.0924633 0.175585 0.27395 0.0588917 -0.242523 0.294848 -0.0364747 -0.177982 -0.00120996 -0.249814 -0.121917 -0.363906 0.0115137 -0.0745468 -0.251218 0.0156495 0.0340695 -0.121459 0.00914494 0.0774806 0.0390864 -0.0565492 0.0747785 0.160297 -0.173471 -0.513018 -0.023393 -0.374098 -0.120041 0.230894 0.0342789 -0.0352256 -0.154789 -0.0702713 0.114752 0.237 -0.315865 -0.0451369 0.212621 0.206254 -0.236618 -0.0688205 -0.350244 0.0601187 0.360421 -0.219738 -0.0427583 0.0482202 
61 0.298876 -0.155839 -0.100493 0.139556 0.172878 0.223825 0.267182 -0.0813211 0.161072 0.0571662 -0.0609444 0.22298 0.256324 -0.0315778 -0.0598557 -0.129537 0.342121 0.294608 0.246066 0.387315 0.287759 0.159192 0.324724 -0.102301 -0.439961 0.0422744 0.0165673 -0.14885 -0.162922 -0.038415 -0.0883984 0.195759 -0.186773 -0.136849 -0.0651506 -0.208981 0.116502 -0.0523522 0.110937 0.157159 -0.229831 0.149049 -0.0988594 0.139979 0.162477 0.0501535 -0.123985 -0.256359 0.0445675 -0.290345 0.000598828 0.0517659 0.0535925 0.3043 -0.129566 -0.0481317 -0.191492 -0.089712 0.227763 -0.124349 -0.136404 0.276456 -0.0216557 0.0977037 -0.314129 -0.00652933 -0.0543593 0.219352 -0.109202 -0.00258549 0.0310755 -0.0277014 -0.079168 0.249893 0.00852667 -0.33396 0.092825 0.253626 0.264992 -0.0877825 0.196716 0.209905 0.0587459 0.374549 -0.0750801 0.261095 0.217233 -0.0880461 -0.0705284 0.273545 -0.0683511 -0.114643 0.188105 -0.189668 -0.0694532 0.0912754 -0.0434953 0.28868 0.362044 0.0215455 -0.371483 0.0290942 -0.106319 0.137564 -0.218512 0.275944 0.283505 0.141825 0.0940831 -0.223686 -0.0835478 0.0415029 0.227608 -0.0182438 0.0480214 0.255385 -0.167517 0.312441 0.117303 0.101443 -0.105305 -0.0976249 0.20101 0.0177475 -0.0814279 0.154071 0.326346 0.292144 
62 -0.194323 0.130944 -0.00612713 0.023095 -0.273374 -0.334613 0.282866 0.0602329 0.322548 0.0631651 0.0924431 0.0474829 0.295718 -0.307439 -0.390643 -0.0107131 0.0205122 0.08443 0.267387 -0.194116 0.0599987 -0.254973 -0.0242804 -0.07782 0.0875485 0.0897227 -0.149454 -0.193464 -0.334734 -0.370717 -0.218917 0.01519 -0.0021056 0.226251 0.393554 0.220311 0.3844 0.0921162 -0.00941629 0.0407315 -0.0959715 0.308859 -0.0991409 0.00022819 0.265164 -0.0772748 -0.0682975 0.00651678 -0.21442 -0.240139 0.196715 0.12933 -0.134931 -0.00626897 0.0212787 0.0598946 0.0646188 0.227201 -0.0783641 0.257366 0.149972 0.134413 -0.00598816 0.246625 -0.0621293 -0.140723 -0.0390339 -0.198579 0.170664 -0.0362752 0.0116152 -0.351325 -0.0680828 0.0160433 0.356393 -0.164337 0.303457 -0.125828 -0.229515 0.501808 0.0498011 0.227009 0.10671 0.036795 0.148301 -0.000239718 0.0702606 -0.0263629 -0.132987 0.127692 -0.144378 -0.0310435 -0.220173 -0.0725312 0.208029 0.123061 0.366044 -0.199705 0.141449 0.0776057 0.35376 0.0589234 0.276262 0.0617751 0.257373 0.0879019 0.202188 -0.00567011 0.479857 -0.340352 0.107847 -0.202653 0.263456 -0.225498 0.164665 -0.222935 0.00515644 0.274947 -0.26186 -0.174444 -0.185275 0.116673 0.105022 -0.160768 0.290611 -0.0155477 -0.0346811 0.200293 
63 0.407135 0.197906 -0.0977842 0.110603 -0.227417 -0.0732 0.220046 -0.309226 -0.233076 -0.0611677 0.238247 0.0792901 -0.188372 0.45307 0.0417463 0.0208198 -0.206075 -0.185958 0.102856 -0.0282798 0.268726 0.135827 0.0278353 0.032304 0.0367333 -0.13789 -0.0617845 0.0610449 0.0130674 -0.191291 -0.166508 -0.0338681 0.186331 -0.269571 0.136762 0.172762 0.08267 0.262639 0.117029 -0.150547 -0.353657 0.00605484 -0.324231 -0.366446 -0.00493804 0.109351 -0.303031 -0.0301014 -0.0286802 0.232837 0.183231 -0.0519177 -0.122674 0.237915 -0.117587 0.12363 -0.0341007 0.157546 0.187928 0.0184428 -0.0952653 -0.132044 -0.129266 0.168084 0.0578134 -0.174314 0.0278275 -0.061102 -0.229861 0.155894 0.351133 -0.259855 0.22112 -0.0746905 -0.196287 0.0536599 0.431049 -0.00113842 0.0668285 -0.151308 -0.239659 0.130626 -0.190693 0.303928 0.206164 -0.00266849 -0.137692 -0.361616 0.434479 -0.13526 -0.00640807 -0.0715596 0.0566912 -0.154237 0.0470138 0.0994921 0.0965808 0.0110589 0.305132 -0.209543 0.169841 0.129369 0.145089 -0.285779 -0.150055 0.0392784 -0.234264 0.0973697 0.00799627 0.152563 0.349816 0.244177 0.00579172 -0.152636 -0.0847556 0.167599 0.0614457 -0.327163 -0.176514 -0.210177 -0.334139 -0.105668 0.15221 -0.0770507 0.30201 0.0323006 -0.0365347 0.421005 
64 -0.106123 0.106375 0.0864056 0.0461057 -0.132841 -0.204107 0.195257 -0.0817596 -0.010732 0.281545 0.0865643 -0.0616989 0.0415543 -0.0487694 -0.165458 -0.127279 0.149164 -0.17141 0.000151993 0.0580257 0.111003 -0.0690612 -0.126317 -0.0307684 -0.352273 -0.120729 -0.268151 -0.0730886 -0.0214213 -0.0838244 -0.0792149 0.248815 0.16241 -0.0512326 -0.200089 -0.089294 -0.257043 -0.114784 0.0969322 -0.0592993 0.243328 -0.10954 0.161 0.155729 0.258216 -0.100869 -0.196641 0.0371141 0.0397013 -0.167745 0.0437234 -0.132991 0.059009 -0.124616 -0.11851 0.0771864 -0.208718 -0.130802 0.0211005 0.0837999 -0.181578 0.00650138 0.0208975 -0.0121609 0.0943521 0.0755625 -0.109641 -0.0829521 0.118866 -0.0740863 -0.17281 0.00698805 -0.0954721 -0.118819 -0.0816674 -0.317166 0.0814386 0.0484575 0.132164 0.277803 0.172346 -0.206996 -0.152024 -0.0990157 -0.0962465 -0.0107481 -0.0216131 -0.0281355 0.198543 -0.259037 0.134411 0.340435 -0.218298 -0.206633 -0.132233 0.138343 0.000856245 0.0859123 0.239273 0.0652623 0.0918643 0.0523298 -0.211428 -0.0911496 -0.0409936 0.0540933 -0.0901477 0.136425 -0.0125845 0.100195 0.0197902 0.161263 -0.0350462 0.151825 0.0884059 -0.229354 -0.145938 0.0935293 0.205259 -0.383754 0.166212 -0.0236363 0.285887 -0.0664131 0.149516 -0.0147527 0.221123 0.0156496 
65 -0.118477 -0.0843298 -0.0364873 0.112653 0.020112 0.081178 -0.119746 0.277266 -0.19049 0.0250922 -0.0919132 -0.121017 0.0290086 -0.167806 -0.0779818 -0.136779 -0.0499755 0.0585466 -0.209443 -0.0469153 -0.0636512 0.132995 0.141721 -0.101205 -0.0862341 -0.0406303 -0.0669163 0.0434248 0.0263882 0.056137 0.22424 0.113756 0.0522904 -0.0806898 0.119144 -0.0695795 0.22983 -0.0252142 -0.0555699 0.0468936 0.0638338 -0.13938 -0.115996 -0.209232 -0.00447576 -0.28121 -0.00055261 0.0762388 0.262371 -0.0644706 -0.081696 -0.420769 -0.246433 0.145251 0.244314 0.344885 -0.155365 -0.25419 0.0283179 0.16804 0.133357 -0.00254751 0.0315548 -0.11088 0.0534674 -0.0584062 0.231156 0.212839 0.0117953 -0.0545965 -0.202038 -0.075127 0.369568 0.0721317 -0.131157 0.284632 -0.152322 0.0445804 0.129323 0.0798366 -0.292715 0.154137 -0.28614 0.0275848 -0.0582309 0.0193401 0.0169192 0.0612865 -0.137569 0.121222 -0.209518 0.397184 -0.0362504 -0.094369 -0.276377 -0.0197807 0.380843 -0.167718 0.309802 0.0390877 0.300132 0.0867463 -0.02627 0.108653 0.0967344 0.0220529 -0.167931 0.348518 -0.12814 -0.0038181 0.165655 0.416775 0.0318246 -0.0697178 0.205928 0.380153 0.116355 -0.208066 -0.191392 0.223536 -0.212505 -0.399865 0.272684 0.219582 0.0801331 -0.00531445 -0.00927957 -0.0331172 
66 0.0317865 0.0621048 0.0141344 0.15556 0.0850479 0.32649 -0.00945995 0.146682 -0.144082 0.0042393 0.0925316 -0.123504 -0.115893 -0.226365 0.0827437 0.0457161 0.11479 0.220971 -0.162073 -0.229234 -0.345015 0.0824993 0.124178 0.138735 0.155667 0.272189 -0.152061 -0.231537 0.0750992 0.097359 -0.106924 0.13092 0.177394 0.0909537 -0.114133 0.207863 0.0377523 0.294897 -0.147993 -0.366202 -0.0717302 -0.0020307 -0.104565 -0.177464 0.067565 0.0215695 0.151136 -0.0709831 -0.190791 -0.244359 0.19064 -0.0598048 0.020856 0.0845898 0.136558 -0.0246484 -0.00493159 -0.145411 0.0683313 0.00604811 -0.278409 0.274528 -0.291342 0.224975 -0.0207145 0.0301014 0.0366928 -0.075245 -0.0580891 0.307507 -0.0821684 -0.04761 -0.0518606 0.20748 0.0872442 -0.040556 -0.0536393 0.0357569 0.142116 -0.0355741 0.140275 0.0510049 0.0835861 0.153306 0.133716 0.105961 -0.262318 -0.194073 0.219021 0.107814 -0.0121737 -0.0850871 0.059011 0.0901079 0.183184 -0.0109454 0.185071 -0.0542913 0.162836 -0.215759 -0.0613901 -0.24159 -0.0335125 -0.116451 -0.060679 -0.0952308 -0.134752 -0.0838314 0.213472 -0.190334 -0.297943 0.105825 -0.151059 0.215422 -0.165303 -0.0955352 -0.0530348 -0.15992 0.0122308 -0.0908165 0.00471855 -0.139132 -0.154178 0.0597644 -0.0370945 0.0317517 0.0797266 -0.260838 
67 -0.190182 0.0330707 -0.0197632 0.0726081 0.0150223 0.138326 -0.0893406 0.0845403 -0.07955 0.355454 -0.0868467 0.232603 -0.116234 -0.0486336 -0.116339 -0.12382 -0.147576 -0.162241 0.238115 0.0677769 -0.334705 -0.118742 -0.151566 -0.256012 -0.333417 0.0239072 0.0199106 -0.119908 -0.278206 -0.219259 -0.057252 -0.0690371 -0.0939941 0.0341591 0.0920637 0.207555 0.190366 -0.110291 0.00278163 0.139437 -0.134253 -0.225344 0.00434939 -0.199223 0.118621 0.15973 0.180126 0.0209794 0.186094 0.26852 0.0928195 0.005911 0.117401 0.0356589 -0.0262328 -0.0803332 0.0158044 0.0582103 0.152431 -0.139017 -0.0456558 -0.267696 0.241834 0.219166 -0.274263 0.000876145 0.138111 0.0179653 0.272781 0.0225166 0.0673616 0.164982 0.146152 -0.0218716 -0.232307 -0.0452852 -0.179396 -0.0349862 -0.034488 0.0606193 -0.137529 0.0973663 -0.227763 0.138626 -0.155094 -0.270429 -0.0950391 0.293289 0.151227 0.184897 0.119546 -0.226125 -0.163217 -0.0626418 -0.159312 -0.0750985 -0.102091 -0.0987785 0.0414429 -0.253237 0.129016 -0.0128522 -0.251659 -0.0285652 0.0966862 0.0285577 -0.109254 0.0384786 0.0394931 0.0983419 0.0617853 -0.0342379 -0.0406836 0.161873 0.417339 0.111004 -0.0420397 -0.0351203 0.0908312 0.135092 -0.211755 -0.100546 0.199858 -0.0355511 0.177273 -0.25477 -0.000181437 -0.0905315 
68 -0.00992222 0.0272556 -0.1333 0.101061 -0.194233 -0.0681149 -0.170434 -0.0678557 0.129907 -0.07316 -0.236675 -0.173297 0.00361303 0.208031 0.0280093 0.0165811 -0.197064 0.00431576 -0.0812275 -0.215751 0.0020697 -0.141702 -0.0623237 8.98647e-05 -0.0704733 -0.196874 -0.0685791 -0.262982 0.194472 0.192271 -0.0714221 0.201641 -0.156802 0.051362 -0.140355 -0.0417653 -0.278697 0.0286744 -0.138352 0.151077 0.403615 -0.249745 0.0435774 0.0662228 0.33634 -0.213841 0.0205854 0.00293606 0.213636 0.0116117 0.10109 0.0273664 0.00821865 -0.261534 -0.0363631 -0.182327 -0.0359039 -0.0166507 -0.119393 -0.210501 -0.221864 -0.11221 0.376434 0.0594574 -0.0752383 -0.194605 -0.13674 -0.0158292 0.0164991 -0.127813 -0.165269 0.258527 -0.0714483 -0.213516 0.204738 0.139516 0.0035521 0.312554 0.225724 0.0907642 -0.00096443 -0.0492044 -0.355902 -0.0508096 0.0169879 -0.0408864 0.06276 -0.277928 0.0154664 0.0124786 -0.116115 0.205801 -0.130181 -0.271645 -0.321238 0.0954976 0.0675238 -0.0319411 -0.250275 -0.0277479 -0.215505 -0.173542 0.152711 -0.16949 -0.0657802 0.0296873 0.163127 0.0182552 0.243677 -0.0215376 0.0265211 -0.164651 0.244056 -0.341958 -0.164967 -0.128125 -0.229948 0.0949073 0.140408 -0.198337 -0.178634 -0.167133 -0.017101 -0.0484575 0.0771891 0.227487 -0.00538554 -0.152377 
69 0.0164608 -0.0413981 -0.136231 0.310044 0.213142 -0.308121 -0.172938 0.265341 -0.190245 0.0575269 0.223693 -0.317068 0.309985 -0.0589717 -0.170607 -0.394558 0.184493 0.337703 0.168072 0.19676 0.055846 -0.0518769 -0.375879 -0.108223 0.0090641 0.0921667 0.138247 -0.0642067 0.0225983 0.209675 0.0487095 -0.173218 -0.134884 0.35659 -0.255506 -0.247254 -0.114946 -0.155806 -0.276765 -0.00905257 -0.0665044 0.0635196 -0.16134 0.0248824 0.241175 0.0759674 -0.215589 -0.0741167 -0.0608021 -0.0888754 -0.129998 -0.118063 -0.132321 -0.00294998 0.0690879 -0.100551 -0.161283 0.0362697 -0.138796 0.272823 0.233858 0.122604 -0.291666 -0.120214 0.161461 -0.0790186 -0.197982 -0.137187 -0.174358 0.00165834 0.206996 0.0498236 0.339945 -0.0914573 0.253516 0.295384 0.0938644 0.127215 -0.343953 -0.0577855 -0.0877127 0.00091826 -0.116248 -0.193351 0.0208503 -0.0767098 -0.272668 0.0562178 0.253303 0.295706 0.0941208 -0.246386 0.109775 0.273953 -0.374115 0.0314515 -0.271271 -0.0842732 0.146586 -0.116995 0.0130549 -0.0794745 -0.30771 -0.0250814 -0.0634488 0.493415 0.0567739 0.0951605 -0.124998 0.295776 -0.0101484 0.0829586 0.0828721 0.0349853 -0.412469 -0.12675 0.0186388 -0.0203781 -0.156741 -0.177182 -0.117296 0.14678 -0.0529262 -0.28614 0.0353113 -0.0373398 0.364634 -0.0119978 
70 0.24776 0.172449 0.041727 -0.195743 -0.111941 -0.105745 0.220337 0.317116 -0.289437 -0.242733 -0.0455967 -0.13941 -0.035329 -0.355927 -0.345688 0.096217 -0.272551 0.0933405 0.23483 -0.0476895 0.191644 0.203842 -0.138217 -0.135927 -0.0302199 0.225351 0.041956 -0.0847386 -0.196205 -0.07231 -0.0869787 0.229519 -0.104863 0.159769 -0.289295 0.0593102 0.0129967 0.323605 0.0632715 -0.257327 -0.190713 -0.0301354 0.313671 0.181347 -0.334267 -0.0385937 -0.19759 -0.0985386 0.182621 0.0585968 0.151018 -0.167169 0.0253163 -0.249421 0.107031 -0.0077121 0.343774 -0.314317 0.176141 -0.283382 -0.173881 0.343533 0.240918 0.119858 -0.0280005 0.221574 -0.2624 -0.00932929 -0.0253001 0.237558 0.160562 -0.139879 -0.199513 0.0683359 -0.106756 -0.0730322 -0.222404 0.145143 -0.0804253 0.069143 -0.00574349 -0.258983 -0.180947 -0.0815589 0.0627851 -0.0365995 -0.141455 -0.0548745 0.217691 -0.154082 -0.256775 0.246633 -0.179694 -0.0652287 -0.11581 -0.0198751 0.189327 0.128445 0.112546 -0.38281 0.10503 0.148052 -0.123697 0.209184 0.0623007 0.014926 0.149646 0.158547 0.110204 -0.131624 0.284874 -0.110341 -0.153686 -0.421252 -0.030762 -0.07419 0.0761911 0.14066 0.0129922 -0.165609 -0.0683292 0.16782 -0.269248 0.0129669 0.176687 -0.34764 0.206335 -0.213578 
71 0.13831 -0.0570118 0.0820611 0.127842 0.228 -0.0716865 -0.257398 -0.00922553 0.0427453 0.137236 -0.238672 -0.104032 -0.172405 0.0549364 0.148202 0.220585 -0.0584075 -0.0269985 -0.0706483 -0.150372 0.0152557 -0.0165631 -0.164194 -0.121984 -0.042792 -0.0060891 0.213531 -0.034122 0.0317362 -0.140341 -0.156746 0.2722 0.245141 -0.0517737 -0.0901648 0.105589 0.363165 -0.32509 0.0195424 0.323733 -0.185497 0.164607 0.154835 0.0824625 0.15441 -0.0430575 0.207535 -0.0470231 -0.132968 -0.288302 0.00309507 -0.0457494 0.0890056 0.169075 0.212935 0.058723 0.242523 0.00417206 0.0762795 -0.15319 0.226966 -0.0184261 -0.210502 0.0051865 -0.0256293 -0.0817077 -0.179723 -0.184751 -0.024925 0.182658 -0.212184 -0.10638 0.247035 -0.116249 -0.0321724 0.0711829 0.00898259 0.301098 -0.023666 0.0381874 0.170806 -0.0428512 0.086303 0.0830759 0.247457 -0.00750981 0.22343 0.189184 -0.194499 -0.132264 0.140428 -0.147708 -0.157618 0.108162 -0.0288048 0.192479 0.068607 -0.0125097 -0.057036 0.155169 0.214368 0.195846 0.103349 0.156775 0.0554467 -0.253445 -0.0112676 0.132802 -0.0698164 -0.227812 -0.150304 -0.0800879 -0.131897 -0.237764 0.105419 -0.212392 0.195999 0.168736 0.0973489 0.0555613 0.00715163 0.0763517 0.253651 -0.0930358 -0.133786 0.031367 -0.237652 -0.378215 
72 -0.276233 -0.219933 -0.289547 -0.114068 -0.00512777 0.100165 0.0186638 0.119589 0.0265689 0.0895294 0.316057 -0.155 -0.191415 -0.147892 0.249157 0.0396379 -0.36045 0.0358883 0.217658 0.334465 0.0695903 0.0337815 0.089108 0.297682 0.0355599 0.186311 -0.0965074 -0.102219 0.162629 -0.221426 -0.0665126 0.233444 0.200738 -0.151837 0.256108 -0.0988987 0.0727721 0.0359582 -0.26194 -0.111132 0.229759 -0.168082 -0.100873 0.278148 -0.268988 -0.107994 -0.0787076 0.0749165 0.0179263 -0.478763 -0.0357706 0.176588 0.17152 0.103263 0.301707 -0.0814999 -0.0042195 0.259875 0.192336 0.0966278 -0.119837 -0.0647286 0.247954 0.181679 -0.242107 0.253551 -0.0269398 -0.354939 -0.035895 -0.0280122 0.0935755 -0.20217 0.18523 0.304472 -0.192402 -0.102281 0.0505419 -0.188128 0.342269 0.293442 -0.00713327 -0.0514577 0.133508 0.166138 -0.302373 -0.0184992 0.250097 -0.108279 -0.291049 0.0966165 -0.267288 -0.0272354 -0.0409399 0.227198 0.199067 -0.266201 0.233357 -0.260311 0.0819597 0.176787 0.251355 0.0813582 0.111057 0.265979 -0.141816 0.215461 0.254598 0.349783 -0.245636 0.350933 -0.102311 -0.050842 0.291905 0.219308 -0.121938 -0.0611608 -0.204194 0.0567103 -0.0110293 0.0160732 -0.0803936 -0.316394 0.172841 -0.374456 -0.195814 -0.0939913 0.378569 0.136642 
73 -0.00218487 -0.0201087 -0.0344153 0.0612816 0.0697674 -0.239777 -0.0512966 -0.301616 0.0254581 0.289966 0.248983 0.082244 -0.0835788 -0.20053 -0.142236 -0.19528 -0.0802624 -0.114201 0.0855596 -0.03965 0.198304 -0.140858 -0.0869414 -0.272619 -0.229578 -0.168574 -0.0908837 -0.176914 0.17229 0.0691461 -0.0792352 0.203091 -0.15039 0.0459583 0.0541141 0.169647 -0.375904 -0.0717737 -0.14267 0.108127 0.377643 0.0184757 0.197105 0.100486 0.0697687 -0.0264483 0.0265078 0.0113288 -0.178555 -0.326737 0.0966198 0.00558042 -0.117608 -0.124254 -0.235288 0.166493 -0.198167 0.0406357 0.0481696 -0.12008 -0.0799827 0.370939 -0.212658 0.167002 0.235828 -0.155885 0.0427663 0.00339304 0.234591 0.106291 0.04219 0.189165 0.0517316 -0.246295 -0.10914 -0.0250581 0.0862335 -0.0943513 -0.0165894 -0.0400364 0.0450261 -0.0874719 -0.358246 0.0267772 -0.0641362 -0.110744 0.0949986 0.125086 0.0766969 -0.371928 0.177329 0.223961 -0.289132 -0.154065 -0.0262421 0.307713 0.11768 -0.107481 0.370875 -0.11701 -0.188345 -0.0873838 -0.122479 0.22658 0.164725 0.0533513 0.0946918 0.332688 0.0288303 0.137514 -0.0478356 0.135765 -0.332904 0.00256393 0.0970501 0.0612732 -0.139227 0.0657123 0.222389 -0.013275 0.193883 -0.0617163 0.184491 0.200754 0.189394 0.257508 0.174289 -0.0614699 
74 -0.175812 0.201449 0.284974 -0.0340732 0.0543125 -0.305669 -0.101243 0.077392 0.261693 0.13236 0.0341515 0.0794836 -0.00606183 0.0439983 -0.0489028 -0.357155 -0.267648 -0.246835 0.029477 -0.105498 -0.00980488 0.108329 -0.0731686 -0.361614 -0.348215 0.180528 -0.322617 0.283597 -0.224849 0.359053 -0.564759 0.12926 0.315223 0.113851 -0.170338 -0.121331 0.185435 -0.0662989 0.182587 0.0202046 0.0396129 0.208156 0.048432 -0.317656 -0.0262279 0.0481447 -0.0900798 0.199524 -0.111343 -0.30705 -0.143713 -0.0585911 0.12244 -0.0284282 0.168665 0.113896 -0.00748536 0.107644 0.0678588 -0.412359 0.107078 -0.0638408 0.213499 -0.0364414 0.000577139 0.0662066 0.0347374 -0.254363 0.130689 -0.256585 0.330773 -0.394767 0.268151 -0.200496 -0.136941 0.430255 -0.278075 0.141889 0.0768788 -0.147932 -0.00570809 -0.0705867 0.0396884 -0.183687 -0.119621 -0.260018 -0.25748 -0.149326 -0.0926375 -0.0558624 -0.141736 -0.129518 -0.011832 -0.22399 -0.156336 0.0776334 -0.119925 0.233018 0.217534 0.0617976 -0.270062 -0.0660555 0.118026 -0.0134135 -0.24172 -0.245239 -0.218025 -0.16768 -0.0669812 -0.0546587 0.0676248 -0.144334 0.0497051 -0.247222 0.0384507 0.232763 -0.124654 0.212639 0.298928 0.180545 -0.169904 -0.256849 -0.27864 -0.104147 -0.00550929 0.0207778 0.00445191 -0.127231 
75 -0.21395 0.0765313 -0.0753239 -0.125745 -0.199301 -0.226987 0.116641 -0.0520229 -0.179571 0.183814 -0.0802223 -0.186649 0.0488492 0.012776 0.336827 -0.25803 0.056903 -0.00450975 0.222458 -0.21882 0.207293 0.135623 0.221974 0.548148 0.160536 0.0973315 -0.066259 0.172948 -0.219223 -0.0236733 0.425473 -0.0710538 0.0691416 -0.0357406 0.098399 0.0653375 -0.0759606 -0.298671 -0.0768986 0.432775 0.0669969 0.382836 0.360592 -0.192567 0.0237931 0.0563385 -0.30093 -0.0179387 -0.0124543 -0.00115643 -0.137331 -0.0475812 0.128405 -0.270616 -0.183293 0.0787111 0.0142531 0.0977774 -0.327965 -0.255522 -0.203511 -0.260301 -0.0761807 -0.191135 -0.0431466 -0.112228 -0.141779 -0.0271623 -0.300251 -0.0162673 0.0495269 -0.102272 -0.248673 0.531691 -0.273791 -0.0422142 -0.056032 0.0293558 -0.309235 -0.122542 0.0449929 -0.183724 -0.27869 0.0236928 -0.266941 -0.256689 -0.287944 -0.1574 -0.0338473 -0.27649 -0.0370576 0.0311006 -0.0076772 -0.277674 0.0727569 0.255097 -0.218533 0.173495 -0.0608748 0.145019 -0.177488 0.095787 0.0547773 0.214621 0.0416919 0.251162 0.0603302 -0.276973 0.0756759 0.0105175 0.028213 -0.0701872 -0.277011 0.106515 0.0640066 -0.156653 -0.162215 -0.048612 -0.055062 0.378716 -0.135429 -0.0496641 0.0997108 -0.0312251 0.0158969 -0.209924 -0.0932548 0.197833 
76 -0.291887 -0.158767 -0.165212 -0.328476 -0.0764583 0.0486752 0.307095 0.193764 0.041415 -0.0448217 0.0582301 -0.0206399 0.0650668 0.0512989 0.108252 -0.151656 -0.237933 0.159318 0.0758638 -0.297507 0.00188308 0.0777946 0.191509 0.134813 0.129101 0.0263327 0.112102 0.0889304 0.00363662 0.091054 0.00398007 0.288211 0.0341567 -0.118001 -0.0573738 0.256461 -0.196363 0.142021 -0.0696907 -0.0926112 -0.109282 0.320793 -0.00820686 -0.104107 -0.093378 0.14652 -0.00793946 -0.155134 0.194611 0.142266 -0.175113 0.0554776 0.279925 -0.231435 -0.200757 -0.132267 -0.267678 -0.320666 -0.336088 0.0541742 0.00535224 0.187109 -0.128071 -0.178575 0.0747902 0.148973 0.240785 0.0790364 -0.221883 0.0558296 0.102763 0.0835479 -0.420223 0.33064 0.0183594 -0.00515979 0.0215053 -0.00557675 -0.272898 -0.195839 0.154846 0.0307887 -0.17715 -0.127422 -0.0674411 -0.164765 -0.0933478 0.133327 -0.114444 -0.13372 -0.0277475 -0.155217 -0.0354629 -0.201279 -0.154648 -0.0575627 0.0352868 -0.136672 0.207801 0.0592885 0.127345 -0.00610732 0.0387909 0.187673 -0.194488 0.270499 0.00902103 0.0797629 -0.0424866 -0.175648 -0.301264 -0.159371 0.0558311 -0.213643 0.211528 -0.169305 0.0290927 0.0671225 0.11438 0.440808 -0.383019 -0.399939 0.418269 0.0254758 0.16398 -0.142137 0.0398893 -0.243888 
77 0.117375 -0.208558 -0.0946913 0.0459438 -0.0747877 -0.281173 0.195604 0.31428 -0.0280541 0.195839 0.158076 0.125358 -0.270906 -0.041638 0.27193 -0.148649 0.0319614 0.35158 0.25342 -0.169638 -0.0845241 -0.353486 -0.0275217 -0.00510283 0.12972 -0.0991761 0.179075 0.338727 0.250793 -0.204595 0.0422875 -0.285402 0.0812294 0.196869 -0.0463445 -0.290468 -0.0875707 -0.0120511 -0.473004 -0.0970115 -0.0331954 0.0532001 -0.0818711 -0.0173867 0.17238 -0.161392 0.0561932 0.0617512 0.442699 0.143683 0.267524 0.0237161 0.0159572 0.0118605 0.223615 -0.133276 0.0731434 0.1865 -0.173291 -0.22937 0.114528 -0.0974174 0.135399 0.0593275 0.0642212 0.101651 0.144211 -0.0285002 -0.12141 0.404622 0.0222159 0.0538148 -0.168352 0.115892 0.248337 -0.12065 0.10556 0.0666744 0.156873 -0.21191 -0.363616 0.0235907 -0.226909 0.136816 0.0396734 0.131691 -0.0232181 -0.0023755 -0.080285 0.0882246 -0.0918871 -0.131865 -0.144672 -0.0199063 0.258934 0.0507206 0.0226718 -0.0381586 0.129351 0.0807362 -0.219683 0.189537 -0.0328498 -0.078154 -0.0813492 -0.203252 -0.0125322 0.194505 0.152113 -0.0577258 0.387326 -0.000724365 -0.0294634 -0.203928 0.247709 0.371069 -0.075701 0.433594 -0.223022 0.0417968 0.108474 0.301007 0.00544718 0.0931627 -0.289376 -0.00257649 -0.136557 -0.135869 
78 -0.146907 0.0402378 0.101438 -0.123674 -0.298711 -0.0192265 0.0692534 -0.0291032 -0.0786366 0.0273963 0.0719459 0.0354553 0.217465 -0.168586 0.0887555 0.0878875 -0.0709536 -0.159653 -0.190652 -0.00198415 0.0466869 -0.0601197 -0.303635 -0.0264306 0.166261 -0.00365575 0.0400857 0.00431265 0.15488 -0.239567 -0.159391 -0.203184 0.0234533 0.0720074 -0.0499916 0.0851156 -0.104853 0.0877977 -0.0762731 -0.0413666 0.0782608 -0.0718156 0.200269 0.286254 -0.114379 -0.267036 0.00619761 -0.165173 -0.161084 -0.0246757 0.0705586 -0.27927 0.0828243 0.00182466 0.165373 0.0913681 0.158622 0.0578286 0.357605 -0.202633 0.341035 -0.0172499 0.155482 0.242363 0.135126 0.175451 -0.0150339 0.073357 -0.180671 0.0431916 -0.0687722 0.138153 -0.212605 -0.103213 0.206486 -0.22951 0.164164 -0.339326 0.165201 -0.130793 0.230201 0.21919 -0.0924543 0.102341 0.0177718 0.0913556 -0.22877 -0.131251 -0.000972028 0.253179 0.137563 -0.0020132 -0.209059 -0.304945 0.0338947 -0.454314 -0.117719 0.0607398 0.178914 -0.192384 -0.00991998 0.254634 -0.00366947 -0.0526783 0.216642 -0.237773 0.214072 0.0100156 -0.141534 -0.00860374 0.0343891 0.0538897 -0.379675 0.0231046 0.0546634 -0.166665 0.076398 -0.0377544 0.369658 0.109196 0.00584921 -0.0472031 0.146563 0.134793 -0.0573624 0.025835 -0.018496 0.280205 
79 0.000882132 0.144148 -0.106109 -0.068655 0.0805865 0.00602317 0.000884423 -0.129786 -0.115066 0.0448725 -0.0854514 0.0843947 0.11614 -0.0771391 0.147374 0.0515939 -0.154977 0.173272 -0.184338 0.164559 -0.1432 -0.127693 0.164506 0.269373 0.126369 -0.0301284 0.0106528 0.168586 0.0181007 0.234595 -0.235079 0.589437 -0.109026 0.201553 0.253763 0.219383 -0.362107 -0.22418 0.221001 0.0416697 0.123528 0.0245672 0.134768 -0.0128264 0.24862 0.199641 -0.0598283 0.227426 0.303784 0.116739 0.0357698 0.0496564 -0.280019 -0.199684 0.145718 0.457324 0.0394042 -0.142484 -0.16382 0.23994 -0.151042 -0.0150639 0.045656 -0.0168572 -0.308199 -0.207856 -0.161765 0.0153971 -0.21575 0.242712 0.106439 -0.189579 0.1931 -0.129299 0.11975 -0.23276 0.0126213 -0.0127013 0.0923802 -0.190213 -0.143333 0.110715 0.199312 0.0160467 0.234928 -0.162106 -0.0742216 0.0703542 0.0913305 0.00266958 -0.268116 0.0691533 -0.098169 0.398825 -0.246429 -0.293777 0.40193 -0.215166 -0.288677 -0.300754 -0.557163 -0.206369 0.0728296 0.303037 -0.091779 -0.112054 -0.352123 0.244391 -0.115329 -0.19196 0.121866 0.2135 -0.0981708 0.145856 -0.166723 -0.0115093 -0.129703 0.190715 0.0603018 0.209687 0.241346 0.243561 -0.244176 -0.0378571 0.0951082 0.0584833 0.0948424 -0.0299915 
