2708 128
1 -0.181939 -0.0421505 -0.452313 0.305691 0.0731657 -0.220547 -0.534063 -0.259635 0.0292444 -0.530708 -0.162949 -0.193524 -0.386295 -0.0031668 -0.0245248 -0.393227 0.00640316 -0.101173 -0.294222 -0.249692 -0.125588 -0.274666 -0.382742 -0.128474 -0.23335 -0.486901 -0.764022 -0.0371491 -0.19976 -0.428366 -0.337765 -0.464723 0.0445542 0.0694137 0.482202 0.189408 0.108273 -0.274588 0.0205641 -0.447844 -0.18735 0.0495235 -0.215061 -0.239859 -0.484783 -0.316087 0.0577672 0.0248747 -0.29665 -0.206508 -0.457197 -0.352468 0.205563 -0.192501 -0.362908 -0.521303 0.0704106 0.0648529 -0.00065644 -0.04938 -0.122757 -0.481977 -0.0654828 -0.2071 -0.201318 0.27573 -0.325228 -0.253141 0.0773161 -0.41993 -0.0838227 -0.163153 0.142401 -0.117799 -0.0126868 -0.133162 -0.491635 -0.447308 -0.0600287 -0.511417 -0.103647 -0.222292 0.0481939 -0.0752411 0.107361 -0.354938 -0.164544 -0.363585 -0.0820395 -0.343137 -0.436693 -0.289627 -0.182329 0.30018 -0.306872 0.286321 -0.211677 0.377976 -0.0504213 0.0741655 -0.425004 0.102965 -0.547196 0.0823991 -0.147086 -0.595112 -0.0434374 -0.15413 -0.304517 -0.140037 -0.393268 -0.0803233 -0.290353 0.0255592 -0.101287 -0.242255 -0.269113 -0.305972 -0.386627 -0.0188727 0.139641 -0.387181 -0.101052 -0.260476 -0.287013 -0.311477 -0.512886 -0.495869 
2 -0.28176 -0.295416 -0.236097 -0.602755 -0.147256 -0.509262 -0.128511 -0.178919 -0.276976 -0.12673 -0.364975 0.0711404 -0.266089 -0.309396 -0.381137 -0.352906 -0.0923566 -0.519472 -0.192778 -0.122751 -0.0591118 -0.405582 -0.180686 -0.0500441 -0.085179 0.168784 -0.237831 -0.465297 -0.320584 -0.0211855 -0.491437 -0.279631 -0.307504 -0.318709 -0.291532 -0.405287 -0.16784 -0.168478 0.119944 0.0179781 -0.101873 -0.609045 -0.437955 -0.171729 -0.307803 -0.193842 -0.324405 -0.303712 -0.36626 -0.000217772 0.0856673 -0.15682 -0.49599 -0.0411271 -0.439616 -0.13127 -0.247087 -0.368908 -0.0345753 -0.0283187 -0.0595679 -0.345326 -0.370016 -0.176599 -0.19737 -0.199067 -0.0363662 -0.20256 -0.438622 -0.161442 -0.312748 -0.200196 -0.368228 0.0216466 -0.41438 -0.528945 -0.0210917 0.140921 -0.386626 -0.0868839 -0.135808 -0.229136 -0.0325541 -0.488748 -0.315921 -0.192637 -0.0121322 -0.218821 -0.317159 0.0600662 0.0640627 -0.207806 -0.376837 -0.416372 -0.127161 -0.476967 -0.197634 -0.166774 -0.0126051 -0.253285 -0.17663 -0.418612 -0.024707 -0.198243 -0.461998 0.0731338 -0.195198 -0.111091 -0.246566 -0.147444 -0.133244 -0.238901 -0.200444 -0.17344 -0.149953 -0.222423 -0.0591895 -0.205599 -0.193483 -0.27277 -0.29295 -0.131094 -0.121879 0.0974934 0.0571171 0.129186 -0.0928849 -0.176413 
3 -0.0900756 -0.450353 -0.196551 -0.28527 0.332067 -0.521103 0.356443 -0.165396 -0.228682 -0.433464 -0.0316951 0.0204033 0.201247 -0.627871 -0.0570113 -0.115352 -0.307877 -0.0121887 -0.272969 0.115345 -0.00358243 -0.31544 0.0890978 -0.549267 -0.305626 -0.549249 -0.356508 0.154829 -0.535912 -0.426316 0.575442 -0.11137 0.08165 -0.125248 -0.0258257 0.148441 -0.446541 -0.083347 -0.625439 0.121098 0.286821 -0.636326 -0.106387 -0.263433 0.0808696 0.454751 0.110885 0.340513 -0.40861 -0.462664 -0.579834 -0.216161 -0.135534 -0.290554 -0.208346 -0.0378146 -0.623879 -0.128787 -0.748693 -0.206241 -0.0331342 -0.43511 -0.0779254 -0.253342 -0.281013 0.0772299 -0.355285 -0.875268 -0.368854 -0.340405 -0.261001 0.0731239 -0.441195 -0.161809 0.760688 0.15055 0.192158 -0.081772 -0.514029 -0.163041 -0.31179 -0.12111 -0.0947179 -0.174325 0.0870923 0.224674 -0.486826 -0.202655 -0.384926 -0.195645 -0.345723 -0.203259 -0.201571 0.114601 -0.503123 -0.752161 -0.232166 0.0201535 0.124189 -0.144859 0.282832 -0.0854205 0.00614766 -0.0335853 -0.0282534 -0.180283 0.0272685 0.0373432 0.112501 -0.224427 -0.370579 -0.359055 -0.151363 -0.296898 -0.0523021 -0.122664 -0.670215 0.212837 0.0431907 -0.00364197 0.016954 -0.412215 -0.373062 -0.337241 -0.727293 -0.258463 0.152517 0.173241 
4 -0.443461 -0.073164 -0.247166 -0.721494 -0.311728 -0.398277 -0.177004 -0.224927 -0.40987 -0.312866 -0.46908 -0.208465 -0.315626 -0.401194 -0.28755 -0.298942 -0.213367 -0.323122 -0.309883 -0.182721 -0.244769 -0.422274 -0.0480659 -0.0416752 -0.125534 0.0204747 -0.270067 -0.429332 -0.189968 -0.0463594 -0.465329 -0.397323 -0.462446 -0.476485 -0.309062 -0.423915 -0.323813 -0.209512 0.00735611 -0.100545 -0.25556 -0.495602 -0.287565 -0.205863 -0.230574 -0.290001 -0.241286 -0.404799 -0.353643 0.00926612 -0.229736 -0.241041 -0.427611 -0.144561 -0.243149 -0.112501 -0.337178 -0.668424 -0.329079 -0.194606 -0.0451192 -0.297575 -0.461052 -0.348766 -0.172409 -0.301111 -0.269474 -0.202151 -0.557097 -0.184076 -0.276304 -0.284984 -0.414896 0.0906442 -0.439689 -0.454007 -0.258121 -0.0294859 -0.461814 -0.179597 -0.232382 -0.218108 -0.208987 -0.465131 -0.419306 -0.30466 -0.129062 -0.194809 -0.29533 -0.170444 -0.156771 -0.195658 -0.352329 -0.411185 -0.12079 -0.661249 -0.260656 -0.260557 -0.0886531 -0.348231 -0.256536 -0.367565 -0.156725 -0.142905 -0.453672 0.0327471 -0.367453 -0.21983 -0.383308 -0.0280944 -0.203912 -0.555984 -0.281173 -0.20401 -0.254905 -0.405743 0.0121815 -0.29935 -0.0451349 -0.37386 -0.413236 -0.0942663 -0.279355 -0.129037 -0.175035 -0.186197 -0.23248 -0.293473 
5 -0.224027 -0.48866 0.230992 -0.0705977 0.00607731 -0.0968276 -0.226239 -0.104446 -0.0963962 0.464105 -0.212892 -0.136166 -0.160631 -0.448047 -0.201796 -0.491544 -0.183442 -0.333633 -0.160274 -0.298559 -0.127626 -0.514518 -0.137325 -0.183439 -0.206756 -0.10491 -0.286244 -0.395334 -0.162847 -0.118755 -0.313301 -0.068837 -0.100734 -0.377927 -0.212634 -0.332991 -0.133667 0.0610351 0.0940133 0.0497245 -0.249882 -0.673783 -0.507278 -0.233557 -0.2568 -0.299502 -0.336131 -0.077828 -0.214342 -0.305274 0.343411 -0.312609 -0.477859 -0.404887 -0.477177 -0.625619 -0.397473 -0.0750932 0.120042 -0.0553303 -0.233338 -0.117528 -0.215603 -0.177187 -0.657272 0.631524 -0.2136 -0.0785855 -0.387729 0.375838 -0.179168 -0.165698 -0.0759985 -0.211644 -0.603391 -0.157681 -0.0824492 -0.118949 0.249253 -0.339869 0.063594 -0.348744 -0.262055 -0.217892 0.00988563 0.15924 0.106298 -0.375155 -0.3176 -0.191437 -0.115561 -0.232745 -0.530417 -0.72529 -0.124387 0.328051 -0.265972 -0.0982217 -0.383222 0.288228 -0.134354 -0.0773316 0.107287 -0.179641 -0.403295 -0.550188 -0.253598 -0.173156 -0.384271 -0.163293 0.0427471 0.225757 -0.172962 -0.33206 -0.183215 -0.416386 -0.479732 -0.450593 -0.348419 0.00711834 -0.306944 -0.45383 0.151114 0.214707 0.391935 -0.0989307 -0.291418 -0.269677 
6 -0.0883265 -0.433541 -0.275044 -0.138773 -0.438605 -0.314778 -0.202525 -0.28317 -0.218958 -0.46104 -0.224296 -0.209148 -0.232657 -0.234161 -0.368623 -0.155545 -0.500949 -0.41137 -0.272142 -0.532865 -0.502883 -0.275742 -0.404169 -0.577059 -0.338964 -0.557466 -0.374421 -0.179326 -0.196976 -0.602962 -0.129266 -0.283707 -0.31122 -0.38843 -0.377583 -0.377936 -0.447944 -0.0639641 -0.733381 -0.550632 -0.276202 -0.464866 -0.0440459 -0.250002 -0.0500899 -0.0063694 -0.476302 -0.12455 -0.256191 -0.140955 -0.318394 -0.498456 0.0843269 -0.48573 0.08167 -0.230064 -0.228156 -0.151602 -0.349255 -0.519845 -0.285221 -0.334364 -0.0648891 -0.313312 -0.135414 -0.882802 -0.381672 -0.48237 -0.369984 -0.459002 -0.362624 -0.260725 -0.404794 -0.546198 -0.0907748 0.0966668 -0.324858 -0.266374 -0.236039 -0.195211 -0.466701 -0.418616 -0.517984 -0.0459806 -0.244219 -0.126378 -0.543285 -0.318726 -0.365252 -0.545007 -0.579876 -0.191909 0.0350141 -0.144774 -0.286369 -0.586672 -0.345931 -0.707828 -0.4024 -0.493411 -0.11274 -0.24286 -0.32201 -0.754608 -0.0190704 -0.402157 -0.2994 -0.182462 -0.328732 -0.243157 -0.492689 -0.355072 -0.308277 -0.253806 -0.484269 -0.0718113 -0.239659 0.00513593 -0.383697 -0.383981 -0.669139 -0.229339 -0.357135 -0.307486 -0.557522 -0.27468 0.0883263 -0.245043 
7 -0.0486456 -0.242548 -0.132152 -0.325481 -0.310615 -0.0813997 -0.3453 -0.226888 -0.142188 0.0762018 -0.0321559 -0.32828 -0.326446 -0.342347 -0.161133 -0.197661 -0.424904 -0.342834 -0.0394857 -0.338256 0.101346 -0.295516 -0.237276 -0.357897 -0.235709 -0.206773 -0.192098 -0.101805 -0.313037 -0.284934 -0.224019 -0.150468 -0.250502 -0.166162 -0.421087 -0.17281 -0.332558 -0.16913 -0.245259 -0.314763 -0.0336837 0.0517761 -0.641287 -0.275249 -0.440567 -0.0470118 -0.181522 -0.535207 -0.0834712 0.00614694 -0.238293 -0.163401 -0.168192 -0.226214 -0.109382 -0.010454 -0.340927 -0.237821 -0.234274 0.151913 -0.0590008 -0.133606 -0.275553 0.0172711 -0.220941 -0.207292 -0.139516 -0.218091 -0.154263 -0.183961 -0.337744 -0.225334 -0.00136329 -0.355182 -0.200351 -0.233794 -0.487114 -0.260217 -0.397358 -0.0827808 -0.286649 -0.256495 -0.229844 -0.375295 0.0839195 -0.0562018 -0.282278 -0.0372551 -0.132802 -0.301618 -0.378162 -0.145378 -0.234822 -0.331036 -0.12711 -0.0807412 -0.415428 -0.288284 -0.18652 -0.320971 -0.289353 -0.228705 0.0240114 -0.383117 -0.148893 -0.133117 -0.159268 -0.126049 -0.214675 -0.0716416 -0.0831729 -0.00492295 -0.118421 -0.401776 -0.239321 0.0027535 -0.325663 -0.225212 -0.355045 -0.208903 -0.285776 -0.1703 0.0287533 -0.211581 -0.112271 -0.205096 -0.340909 -0.153031 
8 -0.0942463 -0.208663 -0.175727 -0.182818 -0.418167 -0.220512 -0.099862 -0.230659 -0.311441 -0.23077 -0.229483 -0.159825 -0.160872 -0.332048 -0.152018 0.0693755 -0.468425 -0.229831 -0.176941 -0.296068 -0.420587 -0.0818274 -0.293507 -0.28569 -0.208791 -0.436772 -0.207197 -0.173605 -0.152969 -0.4021 -0.0370514 -0.180383 -0.266833 -0.342836 -0.331086 -0.251969 -0.364428 -0.05075 -0.580326 -0.29713 -0.189657 -0.275637 -0.101217 -0.180699 0.0376863 -0.113138 -0.227887 -0.11504 -0.116506 -0.175675 -0.356879 -0.152614 -0.0298633 -0.468887 0.147396 -0.0448472 -0.297989 -0.252327 -0.383005 -0.433987 -0.274171 -0.113394 -0.105696 -0.235203 -0.247915 -0.585232 -0.242757 -0.274766 -0.228284 -0.286414 -0.173923 -0.113809 -0.327922 -0.396473 -0.210889 0.00629351 -0.167202 -0.269106 -0.169179 -0.125402 -0.457588 -0.304496 -0.429596 -0.0762171 -0.342547 -0.0360604 -0.389051 -0.176918 -0.236944 -0.341833 -0.432905 -0.163035 0.03384 -0.073961 -0.262285 -0.522941 -0.150552 -0.497375 -0.311107 -0.426605 -0.130616 -0.197521 -0.30527 -0.424118 -0.0720519 -0.206589 -0.220738 -0.332281 -0.197476 -0.175302 -0.28535 -0.361153 -0.343589 -0.326862 -0.358641 -0.117303 -0.0540348 -0.0855646 -0.149536 -0.220977 -0.41053 -0.149043 -0.364103 -0.271096 -0.491828 -0.317878 0.0338153 -0.259196 
9 -0.170465 -0.058683 0.00900752 -0.480379 -0.341431 0.0255537 -0.227943 -0.376994 -0.414029 -0.0983446 -0.15677 -0.454191 -0.24046 -0.416866 -0.129363 -0.00780409 -0.421143 -0.185694 -0.162806 -0.424575 -0.325797 -0.200414 0.0497632 -0.172743 -0.333198 -0.257982 -0.0814578 -0.29118 -0.0494557 -0.18005 -0.109452 -0.14993 -0.416771 -0.327045 -0.567914 -0.286245 -0.478842 -0.0545149 -0.305912 -0.179544 -0.29873 -0.0465377 -0.161058 -0.269841 -0.117177 -0.0827623 -0.244205 -0.568606 -0.100758 -0.17759 -0.376323 0.002212 -0.136424 -0.220422 -0.0110805 -0.0865016 -0.478954 -0.337039 -0.4189 -0.210705 -0.240542 -0.018458 -0.267696 -0.144324 -0.270434 -0.356331 -0.245844 -0.221202 -0.317611 -0.243553 -0.204443 -0.25057 -0.118494 -0.388823 -0.339953 -0.145313 -0.387212 -0.153156 -0.278923 0.0458777 -0.500032 -0.212586 -0.238705 -0.348731 -0.286945 -0.100293 -0.328988 -0.0835925 -0.156626 -0.3316 -0.384502 -0.0992178 -0.26282 -0.230671 -0.147063 -0.426928 -0.144904 -0.338104 -0.246566 -0.373252 -0.275614 -0.213012 -0.294618 -0.21013 -0.152058 -0.175256 -0.260971 -0.326959 -0.143108 -0.124168 -0.112954 -0.271793 -0.316157 -0.39768 -0.370715 -0.283421 -0.148361 -0.196526 -0.137839 -0.301311 -0.225421 -0.138369 -0.335177 -0.435468 -0.265795 -0.246428 -0.204585 -0.179888 
10 -0.208463 -0.205472 -0.439271 0.120798 -0.115601 -0.191137 -0.536055 -0.231103 -0.0240484 -0.408841 -0.0926828 -0.271038 -0.389228 -0.0792726 -0.0862213 -0.449243 -0.161687 -0.169343 -0.305203 -0.32612 -0.0417399 -0.280981 -0.388447 -0.248422 -0.172146 -0.413888 -0.518429 -0.10607 -0.318298 -0.356938 -0.214509 -0.351236 -0.0465113 -0.0425328 0.0334791 0.00257657 -0.0210323 -0.316147 -0.112732 -0.371897 -0.269001 0.104679 -0.492113 -0.298745 -0.57488 -0.214352 -0.0876214 -0.235578 -0.240417 -0.18799 -0.367078 -0.408739 0.103803 -0.126266 -0.415988 -0.337379 0.114584 -0.0258145 -0.168819 0.0869927 -0.233593 -0.487557 -0.222597 -0.166396 -0.111024 0.103026 -0.237085 -0.248947 0.109908 -0.267658 -0.121473 -0.172546 0.139041 -0.370034 -0.13126 -0.312268 -0.547307 -0.452419 -0.21223 -0.556992 -0.0823314 -0.142279 -0.164203 -0.147418 0.0533896 -0.28387 -0.256557 -0.397214 -0.154308 -0.425961 -0.400606 -0.288426 -0.189062 -0.0656807 -0.161935 0.13942 -0.339989 0.0234741 -0.163328 -0.0400746 -0.378571 -0.0510792 -0.314279 -0.113779 -0.138095 -0.457168 -0.144046 -0.0328212 -0.197192 -0.244009 -0.293796 -0.0659896 -0.0570045 -0.18814 -0.123157 -0.141845 -0.43605 -0.316593 -0.451816 -0.128634 0.11987 -0.423538 0.070515 -0.31788 -0.214878 -0.451839 -0.505872 -0.292875 
11 -0.573484 -0.0644545 -0.328326 -0.722663 -0.375836 -0.517913 -0.00413952 -0.254225 -0.457615 -0.340214 -0.506295 -0.0795633 -0.222504 -0.339144 -0.429316 -0.26357 -0.228902 -0.323774 -0.387099 -0.112623 -0.448105 -0.313767 -0.0598201 0.0220765 -0.0347381 -0.0730916 -0.255846 -0.517849 -0.0709324 -0.129181 -0.37862 -0.340052 -0.430858 -0.461226 -0.168185 -0.395924 -0.391143 -0.101995 -0.132238 -0.134012 -0.308738 -0.530671 -0.0691868 -0.259859 -0.0950441 -0.4443 -0.347802 -0.113947 -0.368853 -0.173876 -0.295345 -0.2242 -0.454337 -0.0868918 -0.298637 -0.0676429 -0.242662 -0.692868 -0.217169 -0.365071 -0.0709959 -0.215665 -0.312848 -0.336574 -0.127503 -0.44271 -0.19519 -0.232082 -0.42501 -0.255769 -0.194387 -0.267133 -0.56008 0.0364253 -0.393847 -0.4067 0.0298657 -0.0237519 -0.242417 -0.24553 -0.207538 -0.119203 -0.32123 -0.324416 -0.651732 -0.332407 -0.124936 -0.31188 -0.261984 -0.106387 -0.169306 -0.285488 -0.335093 -0.35982 -0.248081 -0.889117 -0.102 -0.343889 -0.178464 -0.428561 -0.222857 -0.368984 -0.426457 -0.108047 -0.398258 -0.0531374 -0.310275 -0.300162 -0.367403 -0.0552121 -0.265165 -0.638209 -0.463299 -0.212296 -0.297006 -0.332254 0.163931 -0.252632 -0.0545269 -0.326151 -0.375166 -0.18884 -0.468862 -0.0629127 -0.294872 -0.139902 -0.179162 -0.213105 
12 -0.471541 -0.246573 -0.336454 -0.705252 -0.130092 -0.644479 -0.099423 -0.262242 -0.300679 -0.339356 -0.501186 -0.0028707 -0.373903 -0.247973 -0.461345 -0.502953 0.0681534 -0.429497 -0.297757 0.0262841 -0.172106 -0.382021 -0.176073 -0.0520293 -0.0873138 0.192356 -0.305607 -0.488167 -0.345641 0.00210248 -0.594048 -0.405306 -0.331448 -0.322547 -0.322667 -0.497641 -0.190793 -0.330831 0.241457 -0.0307273 -0.178953 -0.728757 -0.454298 -0.154539 -0.462498 -0.354416 -0.314498 -0.313166 -0.503078 -0.0271806 0.0128048 -0.246936 -0.550862 0.0435135 -0.544368 -0.280549 -0.155998 -0.525785 -0.13623 -0.100941 -0.0305966 -0.415088 -0.480726 -0.317273 -0.147755 -0.313645 -0.105987 -0.330877 -0.359543 -0.299005 -0.376809 -0.278162 -0.507049 0.0817319 -0.517972 -0.64477 -0.0188322 0.0624579 -0.568648 -0.116718 -0.0861736 -0.213367 -0.0246836 -0.535546 -0.373624 -0.251675 -0.0411889 -0.215196 -0.289593 0.0318724 0.110262 -0.341662 -0.473543 -0.303613 -0.191802 -0.475866 -0.200532 -0.0978319 -0.0680641 -0.368331 -0.223099 -0.436027 -0.11914 -0.174483 -0.498862 0.0107471 -0.311777 -0.154092 -0.424143 -0.180397 -0.236708 -0.393998 -0.147651 -0.112266 -0.249524 -0.18999 -0.0237351 -0.298592 -0.303352 -0.368911 -0.373169 -0.298828 -0.255197 -0.0876292 0.0799745 0.176045 -0.183473 -0.233815 
13 -0.267119 -0.0893895 -0.473583 0.244625 -0.0938646 -0.291433 -0.529413 -0.238536 -0.123 -0.553853 -0.201196 -0.280474 -0.477129 -0.0205743 -0.0778422 -0.493812 -0.0610065 -0.158374 -0.492796 -0.217495 -0.18018 -0.238715 -0.348966 -0.198388 -0.0983196 -0.47213 -0.632211 -0.102096 -0.350663 -0.448049 -0.205031 -0.450319 -0.00683699 0.0204926 0.244738 0.00548089 0.13951 -0.436667 -0.079408 -0.371303 -0.411724 0.0459255 -0.385388 -0.189437 -0.657862 -0.239074 -0.119946 -0.215811 -0.433479 -0.212972 -0.433551 -0.433311 0.09246 -0.0857585 -0.535582 -0.4977 0.227206 0.0374717 -0.15326 0.156412 -0.334757 -0.678839 -0.233756 -0.196311 -0.183681 0.211216 -0.310168 -0.245827 0.132421 -0.294372 -0.12943 -0.102509 0.228991 -0.35641 -0.245091 -0.458509 -0.588904 -0.460405 -0.121733 -0.675142 -0.0583325 -0.104307 -0.194588 -0.0768343 0.0280974 -0.357122 -0.195268 -0.587684 -0.28489 -0.582842 -0.369842 -0.48516 -0.218046 0.0630646 -0.135233 0.184754 -0.299928 0.167253 -0.147039 -0.00499544 -0.451119 -0.0713705 -0.346321 0.0995177 -0.108082 -0.495688 -0.163056 -0.111714 -0.13263 -0.224827 -0.368394 -0.0982963 -0.0749811 -0.166593 -0.0451711 -0.196084 -0.473707 -0.397114 -0.431957 -0.202502 0.289867 -0.552801 0.000799552 -0.30351 -0.256127 -0.491026 -0.544643 -0.3549 
14 -0.456785 0.00458847 -0.228583 -0.733394 -0.336148 -0.302428 -0.212489 -0.233008 -0.441618 -0.34196 -0.462272 -0.301579 -0.316505 -0.44023 -0.200614 -0.238087 -0.249018 -0.257666 -0.318455 -0.230318 -0.249268 -0.455762 -0.00105705 -0.0419499 -0.159276 -0.0207129 -0.274335 -0.387774 -0.163118 -0.0425045 -0.452329 -0.435499 -0.4922 -0.539585 -0.33644 -0.430242 -0.357968 -0.20592 -0.0109889 -0.118242 -0.314221 -0.403201 -0.258722 -0.221958 -0.211323 -0.267199 -0.156806 -0.510761 -0.316971 0.069467 -0.312143 -0.270313 -0.382829 -0.209329 -0.144542 -0.104076 -0.395996 -0.73288 -0.42265 -0.210623 -0.0296188 -0.293471 -0.497798 -0.393869 -0.163462 -0.30177 -0.362534 -0.162215 -0.623145 -0.138156 -0.266942 -0.308409 -0.385338 0.123722 -0.445708 -0.401877 -0.392854 -0.0658118 -0.488206 -0.211883 -0.280614 -0.23832 -0.269322 -0.464634 -0.41419 -0.325303 -0.157966 -0.176773 -0.314387 -0.248274 -0.250562 -0.16778 -0.332082 -0.457479 -0.0820497 -0.680057 -0.321225 -0.282968 -0.0761851 -0.339244 -0.303493 -0.335315 -0.140571 -0.119649 -0.460987 0.0508987 -0.42385 -0.234271 -0.399781 0.0127746 -0.187946 -0.650195 -0.281505 -0.226293 -0.259888 -0.499098 0.00709931 -0.335483 0.0520511 -0.381049 -0.452791 -0.0333904 -0.283818 -0.195406 -0.237623 -0.332097 -0.26208 -0.357796 
15 -0.132952 -0.199404 -0.185266 -0.563115 -0.264912 -0.183714 -0.50502 -0.17448 -0.120082 0.0363455 0.021842 -0.360414 -0.336789 -0.50296 -0.0624408 -0.202189 -0.526831 -0.302084 0.0209474 -0.250045 0.0934107 -0.31652 -0.241225 -0.266145 -0.283472 -0.124314 -0.212745 -0.09586 -0.295939 -0.170689 -0.258181 -0.087805 -0.317182 -0.167591 -0.397652 -0.102039 -0.406313 -0.109053 -0.151038 -0.277342 0.0075044 0.0624861 -0.573786 -0.345693 -0.336981 -0.0618012 -0.0384763 -0.694975 -0.145878 0.159529 -0.343814 -0.198407 -0.315719 -0.229823 -0.201768 -0.0889819 -0.294096 -0.277921 -0.265173 0.135549 0.0102789 -0.162377 -0.324344 -0.00216016 -0.280912 -0.153691 -0.178847 -0.179426 -0.284242 -0.145108 -0.335202 -0.285409 -0.0976341 -0.173771 -0.274367 -0.351881 -0.741127 -0.239898 -0.456301 -0.167023 -0.233457 -0.221101 -0.288125 -0.367595 0.0550314 -0.0714781 -0.196138 -0.045932 -0.126103 -0.400143 -0.26914 -0.0607082 -0.220731 -0.390292 -0.028576 -0.188452 -0.429845 -0.24156 -0.163389 -0.158324 -0.325964 -0.268354 0.0549856 -0.291169 -0.264895 -0.119393 -0.129106 -0.269916 -0.323197 -0.0580644 -0.107561 -0.147789 -0.138694 -0.248976 -0.359184 -0.123275 -0.219709 -0.232151 -0.209016 -0.339767 -0.431211 -0.011863 0.0578286 -0.27933 -0.166955 -0.085868 -0.313764 -0.175533 
16 -0.193026 -0.0930143 -0.054151 -0.173947 -0.453031 -0.164538 -0.0568781 -0.265994 -0.260578 -0.0857366 -0.107725 -0.213381 -0.209359 -0.398462 -0.0580035 0.14151 -0.453491 -0.191883 -0.126059 -0.298133 -0.398084 -0.146686 -0.24724 -0.193898 -0.100556 -0.364903 -0.0329092 -0.123204 -0.153549 -0.372432 -0.0457218 -0.225946 -0.285871 -0.286044 -0.315748 -0.193574 -0.292128 -0.00799326 -0.475706 -0.140086 -0.202288 -0.271542 -0.0602148 -0.150302 0.0293767 -0.0328046 -0.190927 -0.132067 -0.128601 -0.184078 -0.36879 0.0272442 -0.0429983 -0.449395 0.0797793 0.0662315 -0.251774 -0.335399 -0.259267 -0.461765 -0.321327 -0.0132061 -0.0850142 -0.143214 -0.294354 -0.566445 -0.152476 -0.234108 -0.30992 -0.258007 -0.129962 -0.0265123 -0.330637 -0.429072 -0.162366 0.100769 -0.174064 -0.185092 -0.126476 -0.0770873 -0.504992 -0.306794 -0.369179 -0.113098 -0.487797 -0.00843756 -0.34306 -0.181043 -0.0752407 -0.374341 -0.449284 -0.112162 -0.0241116 -0.140432 -0.217424 -0.608829 0.0195211 -0.493736 -0.275523 -0.52055 -0.0815716 -0.194422 -0.289814 -0.251491 -0.0679407 -0.0960977 -0.211596 -0.396892 -0.249923 -0.167515 -0.216593 -0.302789 -0.291473 -0.440634 -0.283509 -0.0227899 0.0190206 -0.0961494 -0.154737 -0.274846 -0.351349 -0.0979896 -0.349304 -0.246944 -0.552265 -0.332259 0.148477 -0.232573 
17 -0.644613 0.0973345 -0.225151 -0.771954 -0.279086 -0.241298 -0.253166 -0.266693 -0.394055 -0.427437 -0.472821 -0.461561 -0.346467 -0.415171 -0.246067 -0.266783 -0.147949 -0.108053 -0.405419 -0.12623 -0.292542 -0.475147 0.133319 0.0129015 -0.143632 -0.0161988 -0.330692 -0.365059 -0.213648 -0.0381894 -0.532646 -0.538878 -0.432253 -0.581867 -0.33451 -0.498966 -0.319065 -0.212811 0.107246 -0.17424 -0.386403 -0.378445 -0.227992 -0.199216 -0.213607 -0.316947 -0.0677344 -0.548547 -0.29114 0.131374 -0.286247 -0.350967 -0.451708 -0.201317 -0.130009 -0.186491 -0.385466 -0.862721 -0.418313 -0.248372 -0.063071 -0.362665 -0.572436 -0.513732 -0.0740725 -0.331438 -0.526974 -0.114879 -0.657548 -0.12497 -0.225716 -0.40933 -0.326309 0.27683 -0.4253 -0.408264 -0.510382 -0.108936 -0.55825 -0.324986 -0.275526 -0.215187 -0.245568 -0.460149 -0.393642 -0.449812 -0.12072 -0.175425 -0.370574 -0.350061 -0.2253 -0.16765 -0.399673 -0.534477 -0.0402103 -0.577586 -0.462327 -0.15555 -0.068118 -0.279941 -0.377404 -0.348377 -0.125909 -0.133455 -0.512565 0.0764893 -0.518705 -0.316635 -0.504932 -0.0323311 -0.153459 -0.816608 -0.297759 -0.170817 -0.185487 -0.632481 0.0441966 -0.433923 0.147035 -0.511876 -0.470599 -0.0152348 -0.377506 -0.245589 -0.298333 -0.452266 -0.316164 -0.414768 
18 -0.465111 -0.142347 -0.270169 -0.648576 -0.283366 -0.469959 -0.0681436 -0.288721 -0.423011 -0.276836 -0.487231 -0.0693169 -0.238309 -0.318089 -0.40555 -0.257434 -0.18224 -0.329774 -0.301304 -0.0790912 -0.337525 -0.304415 -0.0642431 -0.0773987 -0.0710288 0.0246023 -0.229376 -0.490273 -0.148707 -0.100576 -0.379889 -0.299737 -0.384086 -0.386873 -0.274066 -0.404126 -0.379987 -0.14694 -0.0510613 -0.0811477 -0.236342 -0.561803 -0.201353 -0.209237 -0.210266 -0.366463 -0.363713 -0.197765 -0.343602 -0.151818 -0.192442 -0.158298 -0.442343 -0.0723469 -0.320096 -0.137011 -0.275134 -0.515183 -0.261949 -0.239666 -0.10588 -0.217149 -0.296415 -0.269781 -0.161012 -0.364455 -0.121894 -0.259548 -0.360832 -0.245986 -0.252845 -0.236461 -0.464842 -0.0264146 -0.421364 -0.438162 0.0395433 0.0244193 -0.284482 -0.154521 -0.194544 -0.14367 -0.175312 -0.345002 -0.521896 -0.254468 -0.122362 -0.233973 -0.273299 -0.0471808 -0.100285 -0.280321 -0.343502 -0.331201 -0.197646 -0.68635 -0.142086 -0.26315 -0.160318 -0.363823 -0.186086 -0.399593 -0.299704 -0.159318 -0.369873 -0.0295257 -0.297557 -0.243948 -0.296019 -0.126061 -0.222524 -0.441939 -0.367789 -0.198934 -0.259737 -0.243006 0.0591777 -0.228654 -0.0985291 -0.274226 -0.3806 -0.262123 -0.370378 -0.046912 -0.132503 -0.00725793 -0.145553 -0.181309 
19 -0.440276 -0.0534052 -0.343378 -0.545453 -0.25745 -0.0997161 -0.07941 -0.215378 -0.137901 -0.488033 -0.164545 -0.167207 -0.263325 -0.35421 0.285447 0.119275 -0.403655 0.107869 -0.235676 -0.474313 -0.369286 -0.282245 -0.0185197 -0.181704 -0.237308 -0.156705 -0.240525 -0.0789221 -0.0527541 -0.103421 -0.0240956 -0.143852 -0.284784 -0.579789 -0.447072 -0.0449843 -0.605625 -0.0572163 -0.173668 -0.187713 -0.372669 -0.0995595 -0.110629 -0.314282 -0.0461981 -0.178509 -0.0350107 -0.573096 -0.0452023 0.0707477 -0.637717 -0.144079 -0.1246 -0.416705 -0.239137 -0.398032 -0.566321 -0.359909 -0.538793 -0.496753 -0.0151219 -0.139717 -0.421582 -0.590869 -0.19495 -0.480695 -0.39218 -0.180754 -0.401827 -0.170587 -0.0159109 -0.240591 -0.459407 -0.0231696 -0.083282 0.0654666 -0.53112 -0.413506 -0.285264 -0.293588 -0.220331 -0.280716 -0.324161 -0.177485 -0.411175 -0.427331 -0.133875 -0.237556 -0.496332 0.00572745 -0.198475 -0.244223 -0.124409 -0.358716 -0.317016 -0.387909 -0.514622 -0.395507 -0.0907677 0.0756117 -0.442622 -0.0858259 -0.318107 -0.067146 -0.237978 -0.218216 -0.31542 -0.155916 -0.17146 -0.125135 -0.65452 -0.584968 -0.144512 -0.313634 -0.370301 -0.612098 -0.0121407 -0.408631 0.144349 0.00710612 -0.356555 0.0355828 -0.281244 -0.408556 -0.0615731 -0.558111 -0.208392 -0.348134 
20 -0.2279 -0.11411 -0.544841 0.228038 -0.022633 -0.130908 -0.482072 -0.206466 0.312156 -0.502944 0.0833514 -0.145381 -0.342716 -0.0940916 -0.0841289 -0.381315 -0.136204 0.0877289 -0.186792 -0.386229 0.0510063 -0.322891 -0.4278 -0.0834196 -0.204879 -0.377922 -0.587068 -0.175043 -0.302051 -0.256238 -0.155683 -0.311755 -0.118796 -0.0588529 0.100331 -0.0447187 -0.00767802 -0.211479 0.0334638 -0.370407 -0.254602 0.177925 -0.274977 -0.325326 -0.429616 -0.236709 -0.140036 -0.0745112 -0.151678 -0.236853 -0.424576 -0.376128 0.235979 -0.0423753 -0.456417 -0.268138 0.164135 0.0274583 -0.00334431 -0.13121 0.00299464 -0.321043 -0.181939 -0.215149 0.0692018 0.0879741 -0.300103 -0.376312 0.239129 -0.392137 0.172338 -0.239084 -0.00286861 -0.384668 0.178302 -0.00221024 -0.540326 -0.492374 -0.239615 -0.613471 0.052889 -0.190996 -0.160325 0.0328896 -0.046459 -0.328486 -0.277766 -0.219247 -0.103592 -0.285752 -0.291584 -0.182816 -0.0942372 -0.106164 -0.326373 0.197853 -0.269017 -0.0877303 -0.256329 0.0533338 -0.385226 0.119644 -0.396977 -0.124415 -0.18676 -0.533333 -0.158305 0.00103675 -0.200014 -0.346743 -0.426652 -0.122758 -0.00120272 -0.110382 -0.0345381 -0.231782 -0.388121 -0.235651 -0.505601 -0.0628231 0.235244 -0.214105 0.0207132 -0.38571 -0.146485 -0.538637 -0.476268 -0.108127 
21 -0.332822 -0.521821 -0.358509 -0.474841 -0.296216 0.605423 -0.475119 -0.597786 -0.322843 -0.280566 0.184737 -0.600869 0.0579222 -0.139726 -0.0709752 -0.255058 -0.776789 0.000422587 0.0470074 -0.430823 -0.0990227 0.250973 -0.00477941 -0.222889 -0.732759 0.00747876 0.21005 -0.706941 -0.0762197 -0.253664 -0.121424 -0.590051 -0.263254 -0.406328 -0.411027 -0.496969 -0.619327 -0.554349 -0.920024 0.0567139 -0.721139 -0.138874 0.159902 -0.627044 -0.733332 -0.576941 -0.484951 -0.389303 -0.0765937 -0.949706 -0.307388 0.423577 0.0596485 0.212582 -0.213894 -0.490437 -0.339205 -0.134238 0.0857452 -0.019499 -0.147345 -0.234357 0.239466 0.580871 -0.503906 0.0848381 -0.0503866 -0.295739 -0.0912264 -0.58005 -0.275608 -0.801974 -0.245436 -0.323801 -0.511027 0.0580848 -0.179098 -0.426184 0.164982 0.139495 -0.270242 -0.272044 -0.0523982 -0.197891 -0.367892 -0.289924 -0.236432 -0.185738 0.0884335 -0.094297 -0.668669 -0.639823 -0.327608 -0.00272163 -0.420905 -0.822626 -0.000733145 -0.492938 0.0422548 -0.12016 -0.178767 -0.422827 -0.604579 0.215401 -0.147901 -0.195245 -0.0667793 -0.175128 -0.19731 -0.0687288 0.0218372 -0.720657 -0.201038 -0.19665 -0.270755 -0.276589 -0.225489 -0.231682 0.0552416 -0.244964 -0.162846 -0.319789 -0.618349 -0.181965 -0.403486 -0.369649 -0.0941529 -0.172331 
22 -0.287372 -0.493575 0.189284 -0.0170524 -0.105361 -0.118562 -0.282207 -0.115995 -0.0983152 0.589614 -0.36456 -0.17459 -0.0289037 -0.425409 -0.40578 -0.489375 -0.151632 -0.254001 -0.0956953 -0.342865 -0.128863 -0.567215 -0.145528 -0.25688 -0.241439 -0.189683 -0.23858 -0.258251 -0.187891 -0.133341 -0.346646 -0.0895884 -0.0311451 -0.208763 -0.364837 -0.386448 -0.277842 0.0577243 -0.0214192 -0.0558559 -0.35164 -0.684914 -0.462608 -0.225209 -0.261894 -0.271559 -0.267838 -0.238344 -0.347019 -0.341261 0.17636 -0.256092 -0.483171 -0.553387 -0.462156 -0.665892 -0.677522 -0.051236 0.0970324 -0.0476496 -0.238384 -0.127461 -0.320565 -0.233059 -0.556912 0.311018 -0.175301 -0.0680807 -0.524436 0.138855 -0.430143 -0.254628 -0.179524 -0.252502 -0.436856 -0.159096 0.0842696 -0.230591 0.208679 -0.241283 -0.00840405 -0.301167 -0.392259 -0.33594 0.0325101 -0.0256589 0.00622011 -0.235677 -0.39399 -0.1999 -0.140536 -0.200961 -0.62312 -0.784463 -0.195667 0.353493 -0.252567 -0.191144 -0.43035 0.12154 -0.116047 -0.291143 0.0425444 -0.141444 -0.368094 -0.537611 -0.361966 -0.205678 -0.385191 -0.295376 -0.00530854 0.180986 -0.0617215 -0.349126 -0.275452 -0.323663 -0.331661 -0.336276 -0.444301 0.0293246 -0.45061 -0.490101 0.195353 0.179866 0.364005 -0.160188 -0.325387 -0.265093 
23 -0.396043 -0.211421 -0.0877876 -0.554317 -0.263351 -0.276535 -0.0866383 -0.397841 -0.429571 -0.0985384 -0.39688 -0.109109 -0.1186 -0.299682 -0.399208 -0.151932 -0.219349 -0.26721 -0.166274 -0.0839816 -0.36037 -0.21617 -0.0241304 -0.14425 -0.168418 0.0341686 -0.0738876 -0.457424 -0.0507887 -0.123523 -0.211391 -0.193316 -0.316484 -0.286513 -0.38729 -0.348332 -0.571911 -0.149324 -0.16224 0.0032121 -0.26861 -0.478453 -0.0891475 -0.26389 -0.258643 -0.378854 -0.428406 -0.228504 -0.20389 -0.278102 -0.125808 -0.0118927 -0.427671 -0.0354299 -0.340827 -0.193133 -0.414951 -0.258897 -0.183897 -0.150149 -0.154956 -0.126735 -0.24344 -0.119629 -0.177548 -0.364573 -0.0152956 -0.309411 -0.245263 -0.272313 -0.249741 -0.298222 -0.359813 -0.21375 -0.406829 -0.385748 0.166502 0.062075 -0.133885 0.0248698 -0.163691 -0.0553125 -0.0577457 -0.336423 -0.413483 -0.222771 -0.121855 -0.177024 -0.168745 0.00649676 -0.182438 -0.343726 -0.360628 -0.389865 -0.286213 -0.484441 -0.147609 -0.253299 -0.181092 -0.292792 -0.128844 -0.405322 -0.373001 -0.200559 -0.256895 -0.129662 -0.183596 -0.226595 -0.136981 -0.167778 -0.235388 -0.249194 -0.27835 -0.207701 -0.287533 -0.0980887 0.000435722 -0.248289 -0.189176 -0.165429 -0.294969 -0.293627 -0.454002 -0.0442254 0.0105618 0.0320958 -0.0871064 -0.102992 
24 -0.660582 0.0965236 -0.235039 -0.803978 -0.28494 -0.258776 -0.223305 -0.283034 -0.388131 -0.430489 -0.528511 -0.447164 -0.331574 -0.392804 -0.270003 -0.260291 -0.107372 -0.0958204 -0.415156 -0.0988489 -0.325114 -0.454872 0.128585 -0.00717587 -0.125708 -0.0061268 -0.335412 -0.387541 -0.233463 -0.052343 -0.543598 -0.551828 -0.421471 -0.590638 -0.333544 -0.528068 -0.328003 -0.240925 0.123369 -0.189124 -0.364868 -0.388841 -0.217177 -0.190089 -0.228622 -0.340769 -0.0724512 -0.544328 -0.292128 0.138717 -0.290667 -0.367326 -0.456446 -0.191577 -0.116674 -0.215093 -0.415181 -0.878178 -0.417725 -0.245711 -0.0735962 -0.369968 -0.586801 -0.550361 -0.0469999 -0.367772 -0.515738 -0.121892 -0.635485 -0.13741 -0.238156 -0.423385 -0.336181 0.279218 -0.435279 -0.429211 -0.490847 -0.097747 -0.565916 -0.330135 -0.264768 -0.20899 -0.251328 -0.456422 -0.407373 -0.456553 -0.130331 -0.183858 -0.398368 -0.299242 -0.216064 -0.200586 -0.403477 -0.557593 -0.0464064 -0.565872 -0.475384 -0.137682 -0.0765416 -0.292291 -0.388517 -0.369581 -0.14804 -0.162383 -0.516382 0.0952899 -0.532453 -0.305221 -0.510536 -0.0493775 -0.177995 -0.828064 -0.295996 -0.158942 -0.179484 -0.610326 0.0671772 -0.439787 0.151578 -0.511435 -0.49764 -0.0637821 -0.390249 -0.228364 -0.264615 -0.455329 -0.320798 -0.426638 
25 -0.229928 -0.16662 -0.480441 0.170758 -0.0962428 -0.171739 -0.510734 -0.256779 0.0195262 -0.480178 -0.115487 -0.291156 -0.31782 -0.0892927 -0.0877104 -0.498999 -0.113964 -0.135055 -0.300299 -0.350094 -0.0242133 -0.300385 -0.384776 -0.236987 -0.254991 -0.431746 -0.585585 -0.119015 -0.331839 -0.363371 -0.17213 -0.376323 -0.0824891 -0.0532476 0.105577 -0.00435807 0.0135588 -0.252377 -0.121871 -0.407258 -0.259938 0.0897055 -0.438529 -0.261764 -0.527182 -0.239092 -0.0536641 -0.159044 -0.255295 -0.248547 -0.352755 -0.459049 0.119266 -0.183717 -0.442226 -0.43598 0.108677 -0.0114031 -0.144924 0.0563371 -0.180572 -0.506368 -0.184424 -0.23554 -0.0980738 0.133614 -0.353954 -0.280313 0.109727 -0.283025 -0.0573436 -0.178477 0.146524 -0.337842 -0.120591 -0.299094 -0.514292 -0.480291 -0.156159 -0.55941 -0.0121146 -0.170222 -0.182177 -0.0616636 0.0488514 -0.208831 -0.224198 -0.360004 -0.213112 -0.438218 -0.360799 -0.27986 -0.208843 -0.0463384 -0.246038 0.198394 -0.328646 0.0425497 -0.198231 0.00750177 -0.336934 -0.0497091 -0.350068 -0.0816088 -0.150686 -0.532786 -0.101649 -0.0971215 -0.283612 -0.245322 -0.343463 -0.0782537 -0.0793213 -0.158099 -0.110092 -0.16284 -0.428876 -0.303823 -0.402001 -0.0851863 0.0919383 -0.398521 0.0352498 -0.318574 -0.252487 -0.463782 -0.481096 -0.33966 
26 -0.562936 0.0505553 -0.192587 -0.735986 -0.263436 -0.293222 -0.203293 -0.239038 -0.341255 -0.395679 -0.557561 -0.389112 -0.320895 -0.36663 -0.302174 -0.331853 -0.0102108 -0.111266 -0.371651 -0.074763 -0.247398 -0.439843 0.0839076 0.031474 -0.110081 0.0953802 -0.347061 -0.410567 -0.285108 0.0112588 -0.583999 -0.545482 -0.394207 -0.508008 -0.317581 -0.542191 -0.237014 -0.297725 0.137151 -0.125322 -0.297266 -0.509976 -0.270952 -0.14347 -0.238499 -0.29511 -0.0863785 -0.490706 -0.345838 0.0977262 -0.191933 -0.344475 -0.460765 -0.175552 -0.148353 -0.214104 -0.322629 -0.787011 -0.338102 -0.235362 -0.109552 -0.397859 -0.575044 -0.496454 -0.090018 -0.344515 -0.428351 -0.131323 -0.610011 -0.172596 -0.280367 -0.389985 -0.357418 0.289582 -0.488855 -0.456061 -0.427417 -0.0614289 -0.581023 -0.260936 -0.247727 -0.233713 -0.18668 -0.486675 -0.359896 -0.381189 -0.169287 -0.161623 -0.310061 -0.252143 -0.140075 -0.234971 -0.430479 -0.518569 -0.0539627 -0.496843 -0.426816 -0.128327 -0.10362 -0.330412 -0.340021 -0.393203 -0.0669724 -0.170479 -0.516727 0.114559 -0.469178 -0.29019 -0.512518 -0.0703038 -0.180811 -0.713696 -0.216467 -0.100042 -0.189893 -0.55412 0.0488434 -0.365817 0.0459149 -0.524585 -0.485592 -0.0677477 -0.32581 -0.19526 -0.178845 -0.349838 -0.315702 -0.413433 
27 -0.441921 -0.381219 -0.117149 -0.723818 -0.109167 -0.48228 -0.12502 -0.336142 -0.423558 -0.271451 -0.454637 0.010123 -0.613089 -0.217816 -0.412876 -0.597259 0.115715 -0.425144 -0.353261 0.209454 -0.238372 -0.176144 -0.263938 -0.30791 -0.0383396 0.0182295 -0.260604 -0.501381 -0.326549 -0.0723776 -0.541062 -0.416232 -0.230565 -0.487413 -0.508861 -0.578126 -0.418783 -0.276733 -0.00964691 -0.108338 -0.402846 -0.837862 -0.681622 -0.127104 -0.46694 -0.179599 -0.388632 -0.293594 -0.607078 -0.0519368 -0.128307 -0.146361 -0.599573 -0.110909 -0.661969 -0.485497 -0.226764 -0.297371 -0.292842 -0.407493 0.0182289 -0.296389 -0.406966 -0.393855 -0.0261389 -0.364592 -0.0941314 -0.374776 -0.172762 -0.238989 -0.494619 -0.33813 -0.544575 -0.114372 -0.71737 -0.679936 0.149156 0.0102765 -0.345417 -0.227377 -0.244747 -0.109139 -0.111227 -0.485914 -0.413257 -0.196961 0.0687086 -0.157927 -0.504546 0.0384578 0.0742582 -0.351056 -0.52309 -0.244279 -0.190221 -0.33812 -0.181206 0.0666443 -0.16918 -0.405084 -0.332007 -0.383749 -0.0452132 -0.250124 -0.277995 -0.0423511 -0.194408 -0.158659 -0.291038 -0.238768 -0.24709 -0.225142 -0.162688 -0.240066 -0.183222 -0.100334 -0.162419 -0.34866 -0.328929 -0.170061 -0.417566 -0.647455 -0.408055 -0.272133 0.154092 0.120541 0.0345108 -0.298548 
28 -0.0684574 -0.243748 -0.229254 -0.162407 -0.432557 -0.225376 -0.130906 -0.254417 -0.354833 -0.305463 -0.344693 -0.109763 -0.0715234 -0.368737 -0.202304 0.0500525 -0.491118 -0.263366 -0.13935 -0.257164 -0.460073 -0.0542179 -0.327214 -0.339641 -0.256053 -0.493964 -0.300091 -0.201877 -0.210232 -0.441429 -0.0316326 -0.16111 -0.227013 -0.333271 -0.28675 -0.240923 -0.383886 -0.073503 -0.608742 -0.363418 -0.122235 -0.264684 -0.181737 -0.171447 0.0340497 -0.16938 -0.214145 -0.0967106 -0.112976 -0.221169 -0.417024 -0.202649 -0.0284513 -0.539887 0.180862 -0.0939021 -0.313296 -0.24021 -0.41551 -0.36101 -0.24152 -0.153394 -0.110922 -0.272934 -0.250105 -0.527691 -0.243821 -0.309749 -0.163734 -0.303191 -0.1523 -0.141961 -0.337031 -0.429818 -0.262732 -0.0777102 -0.150224 -0.276522 -0.170308 -0.188187 -0.427913 -0.337918 -0.444916 -0.0657164 -0.285289 0.00714413 -0.357941 -0.146291 -0.264462 -0.341315 -0.469501 -0.173708 0.0485258 -0.0540468 -0.273808 -0.505012 -0.208605 -0.429264 -0.330648 -0.40614 -0.136826 -0.239012 -0.331051 -0.507027 -0.0576853 -0.259048 -0.205819 -0.336574 -0.230783 -0.186734 -0.30579 -0.331909 -0.384358 -0.307569 -0.367079 -0.0743965 -0.0535436 -0.0920087 -0.140555 -0.157101 -0.476738 -0.203759 -0.352281 -0.264427 -0.457158 -0.310364 -0.00786886 -0.329233 
29 -0.406802 -0.133589 -0.246424 -0.557665 -0.351124 -0.43926 -0.0209474 -0.278069 -0.428729 -0.272898 -0.457682 -0.0545169 -0.195724 -0.317078 -0.369918 -0.173569 -0.263405 -0.30455 -0.287217 -0.0914155 -0.415723 -0.238367 -0.127225 -0.102521 -0.0615735 -0.0787272 -0.204821 -0.420552 -0.111893 -0.171898 -0.273204 -0.250297 -0.349116 -0.37524 -0.251078 -0.35323 -0.408794 -0.101844 -0.212063 -0.111887 -0.223985 -0.529357 -0.114661 -0.195539 -0.115061 -0.348896 -0.340048 -0.106381 -0.302855 -0.18359 -0.242655 -0.133207 -0.353927 -0.160343 -0.218894 -0.077724 -0.27467 -0.493161 -0.270699 -0.328136 -0.154081 -0.169475 -0.23674 -0.255763 -0.1709 -0.455022 -0.118878 -0.272297 -0.347529 -0.263532 -0.21336 -0.186784 -0.494854 -0.125568 -0.36438 -0.329356 0.0646493 -0.0351295 -0.235044 -0.130094 -0.246033 -0.155956 -0.241651 -0.26388 -0.540288 -0.212231 -0.158232 -0.21874 -0.23722 -0.0909246 -0.180517 -0.264995 -0.246765 -0.267059 -0.247614 -0.742178 -0.0964733 -0.351584 -0.198457 -0.420332 -0.135428 -0.368437 -0.358026 -0.211139 -0.300493 -0.0632625 -0.25273 -0.269524 -0.279254 -0.112863 -0.264639 -0.443252 -0.372115 -0.215561 -0.283033 -0.190254 0.0959692 -0.183476 -0.117282 -0.242972 -0.381558 -0.226038 -0.404966 -0.0740147 -0.253174 -0.079746 -0.0611326 -0.183508 
30 0.0194943 -0.319441 -0.225166 -0.146136 -0.290366 -0.273858 -0.0650742 -0.133866 -0.0239823 -0.225135 0.00692692 -0.127527 -0.321881 -0.158694 -0.216511 -0.058962 -0.333991 -0.242513 -0.106715 -0.251404 -0.208082 -0.109769 -0.40085 -0.349211 -0.196633 -0.299292 -0.134795 -0.12237 -0.207397 -0.350755 -0.118293 -0.169424 -0.199969 -0.186126 -0.223574 -0.138483 -0.279484 -0.17152 -0.578478 -0.379881 -0.0627359 -0.147469 -0.156901 -0.250734 -0.03609 -0.127257 -0.23683 0.025727 -0.0276682 -0.198858 -0.240674 -0.196121 -0.117121 -0.287405 -0.0236073 -0.0920275 -0.20896 -0.167588 -0.0922672 -0.361031 -0.235043 -0.165471 -0.149848 -0.10815 -0.149028 -0.560334 -0.259792 -0.177511 -0.123315 -0.311349 -0.244484 -0.211094 -0.316692 -0.321014 0.0255973 -0.00843745 -0.174483 -0.306319 -0.168169 -0.189556 -0.341608 -0.246282 -0.395949 -0.0770544 -0.247582 -0.210669 -0.344077 -0.237075 -0.170941 -0.254098 -0.250261 -0.213641 0.0388515 -0.053888 -0.395871 -0.258518 -0.303635 -0.500126 -0.276073 -0.284661 -0.219907 -0.197522 -0.157609 -0.488455 -0.0325693 -0.183641 -0.196543 -0.14559 -0.186519 -0.143285 -0.356249 -0.268078 -0.250352 -0.184956 -0.292906 -0.10628 -0.283693 -0.150499 -0.198446 -0.241222 -0.230349 -0.00954997 -0.222764 -0.278812 -0.312692 -0.246191 -0.138805 -0.0648868 
31 -0.475821 0.224213 0.0477486 0.112615 -0.277648 -0.0747409 -0.336802 -0.459461 -0.619027 -0.107955 -0.54583 -0.188292 -0.0154096 -0.630705 -0.251511 0.0971403 0.00202512 -0.0550236 -0.150388 -0.29785 -0.432049 -0.112163 -0.269277 0.0225697 -0.469416 -0.361648 0.163038 -0.310279 -0.169592 -0.305779 -0.359006 -0.0121568 -0.711165 0.254283 -0.579608 -0.181522 -0.137581 -0.590068 -0.324044 -0.0402767 -0.204234 -0.230745 0.178731 -0.297005 -0.169181 -0.0423802 -0.110645 -0.170911 -0.346169 -1.00937 -0.423277 -0.219484 -0.551633 -0.335613 -0.322617 -0.308532 -0.00960487 -0.115736 -0.534179 -0.226768 -0.429347 0.267124 0.349578 -0.515554 -0.469657 -0.0124579 -0.021883 0.069204 0.0441641 0.0430966 -0.624261 -0.265612 -0.573772 -0.497181 -0.455587 -0.169038 -0.05876 -0.41575 0.221105 -0.0952473 -0.447996 -0.300489 -0.113949 -0.133045 -0.492133 -0.409228 -0.352495 -0.198967 0.207172 -0.422691 -0.230106 -0.238581 -0.16598 0.0881252 0.138233 -0.557166 0.277841 0.0334925 -0.73581 -0.433939 -0.181759 -0.0549865 -0.430442 -0.0832881 -0.390641 -0.00749907 -0.5762 -0.500122 0.0789651 -0.803217 0.018173 0.136446 -0.641204 -0.397083 -0.683837 -0.201127 -0.226058 -0.166109 -0.052778 -0.598402 -0.20615 -0.444684 -0.311957 -0.344921 -0.730447 0.258078 -0.126729 -0.251003 
32 -0.497408 -0.347176 -0.130688 -0.586152 -0.26508 -0.546038 0.0651875 -0.375748 -0.460574 -0.171811 -0.609493 0.0409491 -0.183912 -0.233475 -0.541935 -0.291506 -0.120722 -0.371124 -0.231942 0.128028 -0.446789 -0.264569 -0.206402 -0.164529 -0.00700379 0.123693 -0.227112 -0.419134 -0.247127 -0.119401 -0.326849 -0.0780371 -0.169667 -0.227291 -0.336799 -0.342862 -0.518725 -0.109657 0.00615437 -0.0536444 -0.173289 -0.771065 -0.317241 -0.115523 -0.293589 -0.493954 -0.385202 -0.100651 -0.405778 -0.180734 -0.0290635 -0.121505 -0.620869 -0.141742 -0.515965 -0.348627 -0.424396 -0.320447 -0.154967 -0.160067 -0.199663 -0.254453 -0.380755 -0.299843 -0.178189 -0.382801 0.0137262 -0.347278 -0.36186 -0.26505 -0.334337 -0.21784 -0.552828 -0.201792 -0.424554 -0.51813 0.250564 -0.0185894 -0.284336 -0.00498634 -0.0302043 -0.0921965 -0.12965 -0.362461 -0.436051 -0.24471 0.0995724 -0.16314 -0.360443 0.13204 0.0269229 -0.425193 -0.445537 -0.428783 -0.401138 -0.428345 -0.244298 -0.251748 -0.238446 -0.32136 -0.0869465 -0.552559 -0.381434 -0.330274 -0.413696 -0.105031 -0.145588 -0.197085 -0.309677 -0.220284 -0.42339 -0.115745 -0.189178 -0.106805 -0.248037 -0.0321307 0.00181152 -0.272657 -0.325357 -0.160763 -0.41396 -0.415562 -0.407525 -0.0164355 0.0914448 0.137982 -0.0890939 -0.156228 
33 -0.088614 -0.218879 -0.268518 0.0255096 -0.171862 -0.157006 -0.435757 -0.156251 -0.00463744 -0.194879 0.0373077 -0.251059 -0.388707 -0.0817228 -0.0653517 -0.381946 -0.212841 -0.261983 -0.111616 -0.258199 0.140718 -0.250089 -0.285963 -0.264458 -0.108679 -0.267468 -0.348216 -0.0901464 -0.314878 -0.311934 -0.225369 -0.227454 -0.0532747 -0.0420595 -0.0565461 -0.0616091 -0.0634787 -0.343247 -0.0610356 -0.312334 -0.143222 0.14401 -0.565551 -0.196449 -0.555976 -0.0923069 -0.148932 -0.3357 -0.2031 -0.0743732 -0.2047 -0.247558 0.0475608 -0.0825972 -0.312236 -0.139344 0.00455282 -0.0401288 -0.0797607 0.24923 -0.0951071 -0.338977 -0.251976 0.025776 -0.134905 0.0555701 -0.148731 -0.191664 0.0839984 -0.161794 -0.125541 -0.139195 0.153104 -0.322032 -0.0593178 -0.247101 -0.483682 -0.311756 -0.291498 -0.408266 -0.0993607 -0.136508 -0.10508 -0.177709 0.116692 -0.18187 -0.218298 -0.22801 -0.100042 -0.375826 -0.371239 -0.283536 -0.198888 -0.155691 -0.0596423 0.178454 -0.348461 -0.0221131 -0.116699 -0.146775 -0.346878 -0.0216546 -0.0866268 -0.15085 -0.0708389 -0.249195 -0.132496 -0.0315087 -0.11225 -0.163169 -0.151403 0.00306623 -0.0179423 -0.280735 -0.104464 0.0343609 -0.402216 -0.257359 -0.439364 -0.159235 0.0637681 -0.30761 0.135416 -0.195031 -0.0903443 -0.304661 -0.371649 -0.170393 
34 -0.494282 -0.22466 -0.233617 -0.575576 -0.2662 -0.482709 0.0637947 -0.352242 -0.389857 -0.188967 -0.504829 0.0381503 -0.173325 -0.20759 -0.440454 -0.201323 -0.13148 -0.308666 -0.226973 0.0248314 -0.354612 -0.264205 -0.112866 -0.136036 0.0180954 0.0747224 -0.235941 -0.384495 -0.153435 -0.143832 -0.320556 -0.138067 -0.201965 -0.305297 -0.296922 -0.356314 -0.454349 -0.0483683 0.0315333 -0.0909686 -0.186363 -0.563912 -0.274847 -0.147766 -0.241972 -0.405695 -0.373446 -0.131697 -0.306031 -0.127163 -0.125579 -0.130274 -0.451668 -0.124981 -0.367306 -0.199282 -0.351487 -0.348254 -0.234214 -0.14062 -0.0829127 -0.203205 -0.317106 -0.306987 -0.111567 -0.378486 -0.0430102 -0.270604 -0.251607 -0.221939 -0.248946 -0.190082 -0.422161 -0.141537 -0.350951 -0.404112 0.182104 -0.00228277 -0.243095 -0.10654 -0.0641462 -0.0998171 -0.135098 -0.318868 -0.437979 -0.230247 -0.0145748 -0.177377 -0.364443 0.0928151 -0.0380732 -0.351645 -0.370477 -0.377058 -0.282616 -0.482422 -0.222567 -0.218424 -0.195054 -0.311204 -0.098336 -0.434722 -0.353815 -0.272122 -0.333787 -0.0776665 -0.183219 -0.189058 -0.245755 -0.16428 -0.298197 -0.229482 -0.261549 -0.156523 -0.216315 -0.0645373 0.0544802 -0.22705 -0.185051 -0.135041 -0.401825 -0.404104 -0.367443 0.0393324 0.0631067 0.050771 -0.107367 -0.142544 
35 -0.662952 0.119411 -0.211893 -0.774372 -0.266297 -0.223372 -0.283501 -0.254258 -0.397594 -0.433012 -0.44635 -0.496172 -0.36117 -0.436816 -0.2341 -0.282753 -0.162717 -0.0968228 -0.412801 -0.130688 -0.270189 -0.498563 0.15842 0.0406078 -0.147289 -0.0168052 -0.336652 -0.350544 -0.202074 -0.0161353 -0.547524 -0.548278 -0.440669 -0.589054 -0.329581 -0.495578 -0.303965 -0.197833 0.129049 -0.164742 -0.406449 -0.376936 -0.231823 -0.199289 -0.201843 -0.313768 -0.0518601 -0.558412 -0.289641 0.144494 -0.280458 -0.352862 -0.45735 -0.205202 -0.126345 -0.164401 -0.365239 -0.891185 -0.420683 -0.251997 -0.0462519 -0.370811 -0.573696 -0.505927 -0.0720057 -0.305027 -0.556108 -0.0984927 -0.696302 -0.105039 -0.213773 -0.414177 -0.320214 0.3119 -0.422605 -0.406091 -0.535755 -0.113273 -0.572922 -0.333547 -0.28664 -0.213283 -0.238155 -0.466746 -0.387064 -0.464381 -0.106006 -0.158548 -0.355638 -0.403613 -0.22655 -0.139425 -0.409115 -0.537388 -0.0216289 -0.595577 -0.463095 -0.153119 -0.0516775 -0.271783 -0.380683 -0.333845 -0.103975 -0.110443 -0.522545 0.0809684 -0.531799 -0.331489 -0.51463 -0.0166486 -0.119881 -0.847682 -0.298997 -0.171294 -0.175258 -0.667757 0.0390026 -0.446485 0.164512 -0.528812 -0.462465 0.0310038 -0.372118 -0.260775 -0.327851 -0.467862 -0.320206 -0.416742 
36 -0.0209618 -0.42851 -0.0755188 0.0546912 -0.364998 -0.228448 -0.488928 -0.108103 -0.214453 -0.568378 -0.322635 -0.162845 0.0131195 -0.458399 -0.162123 -0.00325009 -0.621297 -0.482644 -0.00425528 -0.0656899 -0.524971 -0.127522 -0.287033 -0.537123 -0.418461 -0.741486 -0.281466 -0.463229 -0.497667 -0.472106 0.031519 0.0121546 -0.145583 -0.186763 0.0102076 0.101316 -0.454381 0.00774703 -0.588919 -0.521377 0.0391874 -0.00845642 -0.523327 -0.149328 -0.0572442 -0.170491 -0.186659 -0.166776 -0.0303014 -0.541427 -0.631309 -0.216337 -0.177894 -0.56889 0.0555773 -0.410664 -0.486986 -0.097033 0.0467424 -0.161968 -0.197083 -0.435343 -0.0830492 -0.381424 -0.293805 -0.385245 -0.402215 -0.118392 -0.35589 -0.379299 -0.282393 -0.291774 -0.374745 -0.460093 -0.395393 -0.258053 -0.498427 -0.335855 -0.137854 -0.514625 -0.316331 -0.318539 -0.701587 -0.0393811 -0.214736 -0.101502 -0.201442 -0.206428 -0.22986 -0.330421 -0.476244 -0.119613 -0.0210847 -0.0552064 -0.547323 -0.202838 -0.59357 -0.214575 -0.403763 -0.0845442 -0.438623 -0.489456 -0.457284 -0.577882 0.0468945 -0.472555 -0.0310068 -0.673206 -0.492085 -0.254506 -0.377567 -0.361884 -0.434761 -0.289252 -0.281881 -0.138013 -0.411937 -0.20548 -0.0656274 -0.00227967 -0.44253 -0.116868 -0.150449 -0.461232 -0.437842 -0.393245 -0.266157 -0.0786243 
37 -0.483769 -0.246257 -0.24491 -0.656393 -0.340831 -0.649951 0.168674 -0.331033 -0.382524 -0.303847 -0.524679 0.098815 -0.277394 -0.20078 -0.540618 -0.239651 -0.107936 -0.354409 -0.31352 0.1788 -0.444071 -0.143482 -0.193774 -0.12785 0.06803 0.118856 -0.228566 -0.478407 -0.101533 -0.128375 -0.370111 -0.144838 -0.227053 -0.32775 -0.223892 -0.365843 -0.423866 -0.134344 -0.0742867 -0.181211 -0.199843 -0.621176 -0.214244 -0.122996 -0.198928 -0.468074 -0.389139 -0.00181344 -0.37124 -0.0938312 -0.144453 -0.145063 -0.445398 -0.0502189 -0.354368 -0.147307 -0.226298 -0.506081 -0.194183 -0.267723 -0.0640449 -0.268494 -0.317813 -0.34069 -0.0836332 -0.531822 -0.0319022 -0.261393 -0.305793 -0.273183 -0.28693 -0.226167 -0.624402 -0.162548 -0.376569 -0.475354 0.185519 0.0398343 -0.29614 -0.108341 -0.105981 -0.101784 -0.241727 -0.284859 -0.582616 -0.258001 -0.00258552 -0.17643 -0.317861 0.059072 -0.00746559 -0.396185 -0.30479 -0.201942 -0.311023 -0.689297 -0.194437 -0.32394 -0.190415 -0.43374 -0.155649 -0.447711 -0.410305 -0.347918 -0.35515 -0.0104554 -0.193044 -0.103527 -0.287687 -0.0824711 -0.355393 -0.45887 -0.30657 -0.0547293 -0.19004 -0.034945 0.0398071 -0.204222 -0.19533 -0.188514 -0.413854 -0.309239 -0.409887 -0.0374339 -0.0980129 0.0522366 -0.00993318 -0.0891 
38 -0.448247 0.251049 0.0655191 0.0705163 -0.25269 -0.154996 -0.254316 -0.496016 -0.636509 -0.132798 -0.441667 -0.332414 0.0289379 -0.401999 -0.408142 -0.048132 0.108744 0.137441 -5.71787e-05 -0.695005 -0.452335 -0.225184 -0.615021 -0.147105 -0.334953 -0.317749 0.148525 -0.140864 -0.430781 -0.0521547 -0.800793 -0.115617 -0.592841 0.120832 -0.756441 -0.315702 0.132513 -0.485454 -0.2261 0.0810207 -0.183578 -0.14227 -0.000888196 -0.196125 -0.477535 -0.0934488 -0.103379 -0.174865 -0.3547 -1.05575 -0.198349 -0.0174008 -0.602792 -0.616754 -0.435318 -0.3418 -0.260753 -0.0425516 -0.387637 -0.515746 -0.608966 0.341903 0.250775 -0.875849 -0.479956 -0.0919387 0.182765 0.321606 -0.389235 -0.109185 -0.584685 -0.162405 -0.551436 -0.733717 -0.219877 0.234606 -0.301558 -0.330938 0.31601 0.0954492 -0.523315 -0.393899 0.07485 -0.187377 -0.469612 -0.320232 -0.272264 -0.367867 0.117337 -0.318959 -0.0101753 -0.303245 -0.215022 -0.0586595 0.0974479 -0.245392 0.349565 0.328481 -0.822712 -0.740531 0.070075 -0.0313745 -0.302316 0.162037 -0.751288 -0.175277 -0.167678 -0.588667 0.204871 -0.893415 -0.0291155 0.301281 -0.444518 -0.553017 -0.116772 -0.334097 -0.266895 -0.072367 -0.0320121 -0.686537 -0.236603 -0.510497 -0.428184 -0.367768 -0.955271 0.000991528 -0.0331484 -0.149867 
39 -0.0532342 -0.396078 -0.259293 -0.124334 -0.415715 -0.304589 -0.156087 -0.234832 -0.209443 -0.393099 -0.200209 -0.173907 -0.22018 -0.223241 -0.310848 -0.0979007 -0.466449 -0.368283 -0.249485 -0.461722 -0.44603 -0.214965 -0.393848 -0.50263 -0.297384 -0.510797 -0.323635 -0.152931 -0.180569 -0.547972 -0.103396 -0.240091 -0.283539 -0.36085 -0.344367 -0.33977 -0.404149 -0.0631904 -0.708213 -0.496665 -0.229725 -0.402879 -0.0509463 -0.231712 -0.0101771 -0.0319789 -0.408393 -0.0850515 -0.208418 -0.137902 -0.295873 -0.426322 0.0591635 -0.464368 0.112968 -0.178486 -0.231773 -0.154034 -0.339825 -0.496739 -0.269149 -0.280666 -0.0652973 -0.279227 -0.141877 -0.804577 -0.357443 -0.409814 -0.315189 -0.410305 -0.325523 -0.210178 -0.382046 -0.480162 -0.0943595 0.0851181 -0.263561 -0.274972 -0.213173 -0.1672 -0.447639 -0.377129 -0.49691 -0.0339817 -0.239458 -0.113534 -0.501168 -0.280687 -0.342547 -0.477067 -0.507751 -0.182413 0.0571681 -0.102445 -0.290876 -0.53833 -0.304793 -0.662278 -0.365144 -0.444298 -0.114808 -0.221737 -0.290209 -0.689457 -0.0181015 -0.342115 -0.267516 -0.190559 -0.273389 -0.220542 -0.442675 -0.357476 -0.299052 -0.239726 -0.438886 -0.0732202 -0.217225 -0.00782163 -0.323624 -0.331092 -0.584741 -0.186023 -0.336031 -0.28833 -0.526731 -0.276486 0.0699012 -0.22219 
40 -0.317833 0.0295282 -0.0934257 -0.49069 -0.365205 -0.100144 -0.191618 -0.303454 -0.426137 -0.260616 -0.277011 -0.393952 -0.233114 -0.441094 -0.0851583 0.00517172 -0.391634 -0.119301 -0.243669 -0.296845 -0.401551 -0.244495 -0.00977352 -0.118325 -0.21682 -0.243609 -0.149731 -0.27627 -0.0849891 -0.179067 -0.176333 -0.290348 -0.408612 -0.448884 -0.422783 -0.3366 -0.403788 -0.0839787 -0.292307 -0.165923 -0.355507 -0.236171 -0.0806812 -0.2354 -0.0391656 -0.138966 -0.14806 -0.425848 -0.178218 -0.0786311 -0.387915 -0.11006 -0.169929 -0.332488 0.0214445 -0.0634907 -0.401519 -0.504854 -0.444802 -0.371473 -0.229876 -0.118444 -0.295082 -0.291051 -0.23268 -0.443207 -0.32601 -0.189616 -0.451285 -0.182756 -0.159642 -0.235155 -0.290811 -0.184238 -0.347512 -0.111338 -0.381386 -0.178356 -0.290553 -0.126407 -0.451466 -0.260908 -0.326428 -0.281854 -0.431896 -0.166546 -0.295124 -0.165462 -0.19202 -0.35362 -0.408207 -0.128091 -0.175103 -0.288055 -0.112005 -0.605259 -0.179965 -0.365627 -0.214196 -0.406722 -0.234316 -0.204952 -0.275289 -0.167901 -0.237295 -0.0832337 -0.32864 -0.368392 -0.269888 -0.0978251 -0.180207 -0.515869 -0.349586 -0.338204 -0.326195 -0.385451 0.00896294 -0.221371 0.0189908 -0.331862 -0.380618 -0.0611915 -0.415152 -0.347387 -0.42444 -0.394754 -0.0899643 -0.306242 
41 -0.270947 -0.359776 -0.431307 -0.692435 -0.193846 -0.568257 -0.247973 -0.11984 -0.190884 -0.197385 -0.288488 -0.0399138 -0.344184 -0.325457 -0.352712 -0.379768 -0.250816 -0.430797 -0.124151 -0.207114 -0.00700579 -0.406706 -0.265873 -0.0756609 -0.11795 0.040273 -0.229785 -0.332264 -0.324197 -0.116509 -0.43512 -0.216429 -0.345012 -0.211917 -0.282424 -0.268913 -0.303124 -0.16675 0.00826768 -0.197893 -0.0153773 -0.494819 -0.469129 -0.298741 -0.324141 -0.199827 -0.331379 -0.288773 -0.361509 -0.0306245 -0.0830511 -0.247411 -0.560181 -0.0711343 -0.435207 -0.119116 -0.216728 -0.353879 -0.153237 -0.0723581 -0.0474324 -0.226416 -0.389867 -0.16732 -0.229812 -0.27692 -0.0163774 -0.299145 -0.30395 -0.246885 -0.341465 -0.278344 -0.364955 0.0362305 -0.316839 -0.488468 -0.197308 -0.028861 -0.448072 -0.132826 -0.129906 -0.181353 -0.0899076 -0.440913 -0.235597 -0.18171 -0.144312 -0.193276 -0.228464 -0.0530093 0.064498 -0.241268 -0.322308 -0.366089 -0.157977 -0.418401 -0.232685 -0.216945 -0.0714324 -0.249232 -0.157542 -0.34972 -0.0264425 -0.23222 -0.371063 -0.0500873 -0.160018 -0.211774 -0.394138 -0.134499 -0.25537 -0.213862 -0.206657 -0.175892 -0.349487 -0.246656 -0.0970502 -0.194129 -0.214757 -0.32761 -0.419162 -0.121136 -0.103888 -0.0794054 0.0403689 0.141529 -0.240899 -0.161091 
42 -0.0326611 -0.273434 -0.198499 -0.102092 -0.398399 -0.266138 -0.0539257 -0.150914 -0.243969 -0.207274 -0.168253 -0.0687978 -0.18532 -0.234194 -0.133123 0.0740764 -0.44032 -0.243621 -0.163308 -0.284942 -0.378721 -0.0383087 -0.306873 -0.290841 -0.158156 -0.460237 -0.199719 -0.0907006 -0.138675 -0.434726 0.00970564 -0.171213 -0.220295 -0.315049 -0.281818 -0.203091 -0.32782 -0.021689 -0.61419 -0.293313 -0.148633 -0.277371 -0.0720549 -0.140342 0.0668676 -0.0697812 -0.218459 -0.0114478 -0.0541756 -0.140972 -0.273038 -0.179825 0.00767977 -0.44435 0.135529 -0.031876 -0.248091 -0.170969 -0.317132 -0.431337 -0.218198 -0.136542 -0.0419008 -0.199252 -0.203399 -0.653527 -0.232504 -0.26987 -0.174819 -0.291877 -0.169662 -0.0607391 -0.320262 -0.343971 -0.078146 0.0535785 -0.103559 -0.262763 -0.124268 -0.118261 -0.393474 -0.265162 -0.418481 -0.000240128 -0.267865 -0.0436426 -0.357059 -0.195311 -0.257675 -0.286034 -0.366864 -0.168147 0.0791381 0.00337422 -0.283289 -0.47813 -0.168304 -0.516345 -0.275375 -0.352457 -0.0784685 -0.141454 -0.224221 -0.452049 -0.0429755 -0.211621 -0.191871 -0.281854 -0.135615 -0.154604 -0.317206 -0.326776 -0.296856 -0.306647 -0.338351 -0.0418058 -0.0528917 -0.0584507 -0.170736 -0.190071 -0.355532 -0.125182 -0.362965 -0.204742 -0.519712 -0.278576 0.0743084 -0.220128 
43 -0.387908 -0.234818 -0.306274 -0.675909 -0.353562 -0.558283 9.22849e-05 -0.21167 -0.283036 -0.187948 -0.452099 -0.0259409 -0.218391 -0.28451 -0.469668 -0.311334 -0.0766138 -0.394707 -0.267742 -0.212653 -0.352262 -0.318396 -0.157078 -0.0587683 -0.132337 0.0321243 -0.283641 -0.492071 -0.332645 -0.148458 -0.368499 -0.304932 -0.392563 -0.292625 -0.202848 -0.377745 -0.270052 -0.279656 -0.0475892 -0.112167 -0.115324 -0.573736 -0.284678 -0.231944 -0.285375 -0.382249 -0.348655 -0.212512 -0.428874 -0.122704 -0.153063 -0.241483 -0.557749 -0.0937012 -0.414035 -0.27623 -0.266703 -0.465872 -0.0728037 -0.241245 -0.0638491 -0.289715 -0.438056 -0.289997 -0.18815 -0.414656 -0.189838 -0.291824 -0.40945 -0.380679 -0.257725 -0.254026 -0.443395 0.0714883 -0.384363 -0.510924 -0.0248781 -0.173012 -0.313694 -0.198937 -0.163076 -0.236066 -0.223387 -0.41609 -0.339654 -0.337428 -0.134521 -0.346209 -0.289153 0.0249122 0.0431949 -0.371034 -0.322935 -0.432239 -0.359759 -0.407176 -0.240911 -0.197664 -0.163449 -0.370815 -0.300006 -0.4241 -0.218513 -0.219403 -0.40363 -0.117496 -0.310333 -0.193926 -0.328351 -0.113681 -0.382807 -0.361102 -0.227654 -0.232967 -0.303865 -0.206708 0.0696576 -0.253198 -0.26939 -0.43214 -0.268271 -0.225363 -0.329631 -0.129608 -0.0929108 0.01595 -0.348032 -0.193816 
44 0.0292073 -0.230242 -0.323669 -0.0884911 -0.274802 0.10134 -0.541223 -0.129485 -0.249779 0.314017 -0.0500209 -0.378418 -0.393716 -0.130618 -0.207156 -0.184219 -0.460629 -0.265138 -0.13846 -0.450964 0.150222 -0.253212 -0.369027 -0.472516 -0.20298 -0.335065 -0.327803 -0.2207 -0.344496 -0.259777 -0.277298 -0.370702 -0.31489 -0.0756063 -0.428356 -0.243176 -0.395379 -0.206145 -0.47975 -0.388941 0.0126355 -0.0703914 -0.558227 -0.162664 -0.776212 -0.204951 -0.3165 -0.480851 -0.317784 -0.0306045 -0.251274 0.0126928 -0.232675 -0.183311 -0.0593632 -0.174087 -0.548667 -0.271942 -0.275352 0.115883 -0.00764921 -0.104481 -0.171385 0.0172855 -0.138269 -0.358647 -0.18734 -0.231209 -0.0968261 -0.364081 -0.433693 -0.432974 -0.0892338 -0.512116 -0.374728 -0.326231 -0.344369 -0.419606 -0.424688 -0.23026 -0.297518 -0.422823 -0.19149 -0.480305 0.190005 -0.0959486 -0.305167 0.00649807 -0.107375 -0.407712 -0.517214 -0.117001 -0.18743 -0.417565 0.046502 0.00996026 -0.636253 -0.339083 -0.330624 -0.291294 -0.612722 -0.148079 0.0444285 -0.428505 -0.137242 -0.159486 -0.187423 -0.247106 -0.350994 -0.230836 0.00865196 0.1418 -0.267053 -0.638844 -0.137112 0.036883 -0.505718 -0.263448 -0.428748 -0.306657 -0.242252 -0.324129 0.0540047 -0.22099 -0.140687 -0.31304 -0.45102 -0.454102 
45 0.0130967 -0.419093 -0.327712 -0.124409 -0.21333 -0.249574 -0.0158186 -0.198033 -0.188847 -0.428827 -0.124808 -0.156154 -0.187301 -0.21214 -0.25395 -0.111398 -0.382022 -0.278116 -0.178061 -0.31726 -0.315339 -0.142425 -0.398003 -0.399154 -0.302662 -0.458549 -0.269113 -0.0505686 -0.197983 -0.438759 0.0361599 -0.160135 -0.164664 -0.31362 -0.160581 -0.179953 -0.313277 -0.0900657 -0.766067 -0.378834 -0.105753 -0.293809 -0.0618232 -0.290821 0.16405 -0.189909 -0.152919 0.20641 -0.144836 -0.26959 -0.30122 -0.333703 -0.0518163 -0.446394 -0.00308222 -0.178647 -0.331729 -0.17161 -0.376395 -0.418957 -0.231533 -0.273889 -0.0850853 -0.162629 -0.170411 -0.57408 -0.462454 -0.307726 -0.151977 -0.358141 -0.138813 -0.19549 -0.363244 -0.226448 -0.00694938 0.0138596 -0.00411899 -0.298329 -0.121436 -0.154963 -0.391758 -0.297509 -0.31162 -0.0671271 -0.15022 -0.0956651 -0.399908 -0.171666 -0.279189 -0.299057 -0.287434 -0.215113 0.0663052 -0.0486326 -0.429482 -0.426934 -0.252291 -0.485194 -0.247273 -0.214212 -0.0056679 -0.182511 -0.150023 -0.496235 -0.00786742 -0.289865 -0.0704697 -0.124809 -0.192895 -0.120082 -0.427472 -0.415183 -0.390283 -0.242986 -0.344702 -0.141303 -0.221726 -0.10092 -0.148662 -0.174813 -0.365476 -0.0237211 -0.394498 -0.284046 -0.524251 -0.295887 -0.0132889 -0.183198 
46 -0.486215 -0.229285 -0.245887 -0.600637 -0.292168 -0.529573 0.0706519 -0.35884 -0.398361 -0.242032 -0.515939 0.031971 -0.215616 -0.214668 -0.463263 -0.224029 -0.122428 -0.322444 -0.263038 0.0685685 -0.384076 -0.221604 -0.13995 -0.132477 0.0237885 0.0835469 -0.24088 -0.419733 -0.141729 -0.136829 -0.343906 -0.164131 -0.221543 -0.320927 -0.283395 -0.359881 -0.434445 -0.0930287 -0.00073275 -0.110504 -0.196972 -0.581017 -0.269358 -0.145911 -0.254988 -0.417722 -0.37411 -0.108144 -0.329699 -0.110555 -0.144285 -0.145805 -0.441525 -0.0979646 -0.356286 -0.176937 -0.310968 -0.416321 -0.229042 -0.16223 -0.0828105 -0.224967 -0.305025 -0.319957 -0.116645 -0.413851 -0.0502598 -0.28158 -0.273574 -0.241726 -0.262029 -0.200474 -0.475138 -0.160788 -0.377666 -0.443763 0.157149 0.0196094 -0.284577 -0.115021 -0.0965302 -0.1123 -0.156605 -0.315143 -0.478957 -0.225799 -0.023915 -0.172531 -0.345005 0.0548047 -0.0439856 -0.354746 -0.353356 -0.311499 -0.271348 -0.555407 -0.222527 -0.245688 -0.191188 -0.347168 -0.133271 -0.42873 -0.360036 -0.300889 -0.349245 -0.0487368 -0.193717 -0.157053 -0.271758 -0.143974 -0.298788 -0.315161 -0.269151 -0.122048 -0.207065 -0.0641804 0.0517255 -0.239543 -0.196956 -0.166072 -0.401866 -0.378875 -0.375673 -0.0017725 -0.00901704 0.046694 -0.0706027 -0.147109 
47 -0.154916 -0.466767 -0.0289184 -0.201883 -0.363911 -0.235329 -0.292635 -0.161479 -0.338889 -0.336204 -0.274441 -0.232843 -0.135612 -0.427109 -0.415387 -0.106347 -0.484941 -0.450968 -0.0318053 -0.0771693 -0.175384 -0.189486 -0.431273 -0.542176 -0.393345 -0.446424 -0.207127 -0.212228 -0.627391 -0.325849 -0.184862 -0.104301 -0.11576 -0.0859388 -0.232022 -0.0286499 -0.505511 -0.171734 -0.603081 -0.442117 0.0280663 -0.122496 -0.432221 -0.349627 -0.168445 -0.122246 -0.206688 -0.129235 -0.076451 -0.290381 -0.363873 -0.165698 -0.340539 -0.422083 -0.135257 -0.459554 -0.572228 -0.103065 0.124173 -0.199443 -0.322412 -0.332036 -0.177363 -0.182918 -0.422753 -0.404982 -0.353905 -0.247709 -0.428468 -0.310874 -0.380085 -0.3286 -0.337241 -0.438244 -0.234675 -0.35394 -0.402572 -0.288888 -0.295397 -0.100321 -0.3927 -0.351483 -0.583109 -0.0694399 -0.158957 -0.135369 -0.0778768 -0.111863 -0.171293 -0.222706 -0.475775 -0.162819 -0.0718008 -0.205896 -0.517728 -0.27064 -0.469111 -0.317372 -0.55112 -0.0443442 -0.347936 -0.571457 -0.32326 -0.566515 -0.111116 -0.289604 -0.195136 -0.374923 -0.412286 -0.273099 -0.459304 -0.113312 -0.244348 -0.269482 -0.255503 -0.0265228 -0.375609 -0.419963 -0.1655 -0.14965 -0.460307 -0.0350775 -0.225029 -0.394112 -0.353306 -0.241853 -0.361687 -0.0829985 
48 -0.195552 -0.190305 -0.381935 0.297177 -0.0761598 -0.135045 -0.574721 -0.22245 0.123559 -0.458577 0.0657454 -0.258042 -0.46884 -0.0856395 -0.0163272 -0.467498 -0.133442 -0.0992592 -0.184938 -0.302931 0.0721227 -0.320162 -0.385785 -0.183026 -0.121647 -0.406264 -0.522957 -0.117196 -0.347946 -0.288598 -0.220046 -0.297813 -0.0586355 0.0435295 0.134149 0.0380918 -0.00087724 -0.341319 0.0681592 -0.329715 -0.252922 0.246467 -0.538794 -0.270744 -0.631633 -0.243447 -0.100183 -0.244853 -0.178919 -0.166379 -0.313933 -0.352195 0.281466 -0.0303969 -0.468796 -0.218228 0.214459 0.00525055 -0.0880703 0.195124 -0.10859 -0.467657 -0.264086 -0.0697027 0.0615189 0.244711 -0.205156 -0.274611 0.238778 -0.230949 0.067472 -0.134583 0.245044 -0.342964 0.0970352 -0.248107 -0.592805 -0.393222 -0.259133 -0.655239 0.0258494 -0.116679 -0.0844953 -0.0906729 0.132022 -0.378659 -0.273983 -0.311361 -0.105935 -0.394586 -0.379962 -0.293129 -0.203171 -0.054861 -0.110574 0.258378 -0.288112 0.11708 -0.155282 0.0589318 -0.423845 0.0686887 -0.349929 -0.0164473 -0.0913587 -0.428757 -0.0496448 0.0235628 -0.104329 -0.384571 -0.290708 0.0527351 0.0695552 -0.191746 -0.0471777 -0.0521135 -0.435513 -0.34292 -0.511505 -0.0802466 0.315305 -0.439981 0.117393 -0.317346 -0.0891755 -0.51093 -0.484414 -0.112144 
49 -0.301116 -0.466624 0.0900083 0.187002 -0.011894 -0.194701 -0.225303 -0.143126 -0.163384 0.450543 -0.415186 0.140258 0.0203768 -0.56868 -0.317515 -0.614613 -0.0248665 -0.286717 -0.170784 -0.375325 -0.224599 -0.644865 -0.0776486 -0.304918 -0.370638 -0.107634 -0.224133 -0.316867 -0.0562782 -0.156309 -0.349519 -0.158521 -0.0180793 -0.18277 -0.280262 -0.441069 -0.186079 0.271206 -0.0106165 0.394318 -0.224436 -0.818843 -0.176824 -0.217585 -0.209019 -0.367397 -0.302057 -0.215938 -0.364045 -0.55052 0.356124 -0.415225 -0.486374 -0.669976 -0.728582 -0.645058 -0.774051 0.0353304 0.207469 -0.291151 -0.164047 -0.140409 -0.183391 -0.410505 -0.665109 0.39925 -0.301282 -0.0451536 -0.619013 0.283623 -0.289393 -0.129082 -0.215834 -0.116433 -0.574451 0.00540712 0.333772 -0.318989 0.218405 -0.273331 0.0512457 -0.445512 -0.393242 -0.310625 -0.0916841 0.0879788 0.00844043 -0.273268 -0.463734 -0.193448 0.000999079 -0.0769415 -0.618115 -0.88037 -0.194943 0.393622 -0.143258 -0.0558515 -0.512751 0.196116 -0.128613 -0.417877 -0.00298956 -0.11262 -0.40196 -0.625443 -0.367785 -0.227498 -0.369532 -0.329024 -0.112233 0.303039 -0.177425 -0.257452 -0.277435 -0.411178 -0.392199 -0.497032 -0.221013 0.151052 -0.456579 -0.553261 0.143063 0.325013 0.492568 -0.0947979 -0.178171 -0.34151 
50 -0.312879 -0.509019 0.25426 0.0360578 -0.0504121 -0.117337 -0.245597 -0.088876 -0.0930277 0.573308 -0.362785 -0.0675287 -0.0461147 -0.476692 -0.37417 -0.491752 -0.114272 -0.279978 -0.14235 -0.314125 -0.14029 -0.573486 -0.112745 -0.23769 -0.215938 -0.138099 -0.255392 -0.3475 -0.103366 -0.09386 -0.311555 -0.0818824 -0.0241529 -0.257403 -0.309838 -0.354549 -0.197367 0.124949 0.0479009 0.125517 -0.312598 -0.772639 -0.448582 -0.215746 -0.2376 -0.306042 -0.341624 -0.188303 -0.300479 -0.364906 0.303505 -0.31222 -0.538128 -0.518927 -0.498892 -0.658978 -0.641831 -0.0460138 0.151267 -0.0606689 -0.247834 -0.0973647 -0.235854 -0.251291 -0.661958 0.446742 -0.174401 -0.0618444 -0.495066 0.274178 -0.349816 -0.209065 -0.168787 -0.242167 -0.524792 -0.0937599 0.113832 -0.201824 0.30398 -0.280512 0.0772939 -0.353715 -0.37265 -0.308474 -0.000842012 0.0854464 0.0442028 -0.268599 -0.419085 -0.186682 -0.11138 -0.215769 -0.621152 -0.789443 -0.157543 0.40732 -0.242034 -0.155867 -0.447386 0.269597 -0.155787 -0.200827 0.0857452 -0.148254 -0.394267 -0.538825 -0.355949 -0.201869 -0.375358 -0.279405 0.0126191 0.248764 -0.130448 -0.300385 -0.202011 -0.365935 -0.429288 -0.38363 -0.367631 0.0873769 -0.406137 -0.532489 0.184331 0.253183 0.451176 -0.120161 -0.299872 -0.29825 
51 -0.283587 -0.118676 -0.482514 0.247255 -0.0902597 -0.292683 -0.549571 -0.263405 -0.150944 -0.571275 -0.225051 -0.310973 -0.481144 -0.0134114 -0.064772 -0.500535 -0.0701134 -0.148871 -0.480594 -0.185931 -0.175239 -0.219068 -0.348619 -0.221027 -0.112924 -0.487396 -0.610348 -0.114831 -0.38533 -0.431072 -0.169557 -0.452599 -0.0503521 0.00166167 0.209431 0.0479228 0.141119 -0.462837 -0.0780774 -0.392662 -0.407406 0.0667529 -0.434691 -0.192685 -0.737065 -0.247159 -0.124108 -0.256609 -0.458567 -0.203947 -0.423969 -0.435984 0.0889871 -0.0818061 -0.544776 -0.486445 0.239326 0.0241005 -0.166972 0.229249 -0.387977 -0.722574 -0.250968 -0.182392 -0.160763 0.220396 -0.278802 -0.236016 0.173479 -0.265582 -0.147064 -0.112919 0.265882 -0.379944 -0.232508 -0.476179 -0.596158 -0.446105 -0.138031 -0.702191 -0.0802086 -0.0553198 -0.197952 -0.0875222 0.0444682 -0.371468 -0.211058 -0.612094 -0.281989 -0.57322 -0.401385 -0.510789 -0.251473 0.0584662 -0.117125 0.187871 -0.288437 0.173826 -0.12875 0.00171334 -0.454722 -0.0872875 -0.327365 0.115067 -0.0946719 -0.525169 -0.175418 -0.106232 -0.0957314 -0.236796 -0.37116 -0.0576514 -0.0576442 -0.203178 -0.0378158 -0.154554 -0.508504 -0.384916 -0.443723 -0.199263 0.337017 -0.542901 0.0221068 -0.325778 -0.259327 -0.533785 -0.550094 -0.29952 
52 -0.318956 -0.468667 0.0585871 0.110033 -0.0468065 -0.207786 -0.238965 -0.178567 -0.199302 0.3732 -0.427622 0.0707009 -0.0291783 -0.534115 -0.323155 -0.5963 -0.0549188 -0.310327 -0.162305 -0.353636 -0.227003 -0.616286 -0.121101 -0.293311 -0.352391 -0.111005 -0.239224 -0.336003 -0.112964 -0.166533 -0.3558 -0.158115 -0.0441165 -0.201579 -0.297825 -0.441604 -0.224484 0.193933 -0.028529 0.290657 -0.239253 -0.791861 -0.227267 -0.229561 -0.224446 -0.371527 -0.313718 -0.223482 -0.372363 -0.515992 0.2972 -0.407904 -0.505962 -0.632312 -0.695124 -0.625381 -0.724804 0.00783199 0.164041 -0.266709 -0.196232 -0.164446 -0.225314 -0.38727 -0.614608 0.320084 -0.278326 -0.0770679 -0.58466 0.203504 -0.305585 -0.161459 -0.235695 -0.143291 -0.544038 -0.0661619 0.262854 -0.304951 0.161369 -0.275962 0.0244081 -0.405691 -0.375485 -0.327202 -0.0952952 0.0344408 -0.006835 -0.265636 -0.463517 -0.189665 -0.0213966 -0.129219 -0.617181 -0.852746 -0.235499 0.336902 -0.169508 -0.0863702 -0.489056 0.140541 -0.135295 -0.41657 -0.0291005 -0.15308 -0.406098 -0.588513 -0.340479 -0.254435 -0.385934 -0.328979 -0.141001 0.257698 -0.183021 -0.27528 -0.292794 -0.387149 -0.365044 -0.470133 -0.268339 0.110197 -0.455171 -0.545954 0.0853416 0.264937 0.430917 -0.119246 -0.205814 -0.338785 
53 -0.307351 -0.00827965 -0.182621 -0.6522 -0.37982 -0.215721 -0.24618 -0.228383 -0.427772 -0.244661 -0.440102 -0.306068 -0.28847 -0.466955 -0.134228 -0.170005 -0.320736 -0.314768 -0.24994 -0.267701 -0.144611 -0.438693 -0.0642505 -0.133397 -0.180824 -0.0664307 -0.265911 -0.325906 -0.214035 -0.113904 -0.424631 -0.415354 -0.491268 -0.514249 -0.365387 -0.419552 -0.34182 -0.24006 -0.0701567 -0.16104 -0.230722 -0.301304 -0.387577 -0.19745 -0.275101 -0.187103 -0.12016 -0.586946 -0.270168 0.131034 -0.339288 -0.265439 -0.274482 -0.280497 0.0353869 -0.000844794 -0.411504 -0.689164 -0.493654 -0.0819022 0.00130404 -0.255194 -0.476412 -0.32214 -0.165265 -0.270038 -0.325012 -0.151971 -0.590514 -0.0898031 -0.321049 -0.263199 -0.291116 0.00798553 -0.457278 -0.363616 -0.467173 -0.091525 -0.523903 -0.156946 -0.323407 -0.285081 -0.307114 -0.468156 -0.295373 -0.206814 -0.225827 -0.0978767 -0.294318 -0.305221 -0.364294 -0.127829 -0.265509 -0.443494 -0.015728 -0.633819 -0.356274 -0.323666 -0.0737077 -0.411232 -0.291442 -0.335932 -0.0657346 -0.210465 -0.398569 0.105697 -0.434406 -0.169505 -0.35958 0.0651883 -0.107137 -0.565379 -0.225906 -0.270393 -0.233885 -0.387621 -0.0485189 -0.294586 0.00927601 -0.32708 -0.50094 -0.0495948 -0.156247 -0.173391 -0.230509 -0.399822 -0.24772 -0.379865 
54 -0.108368 -0.14107 -0.552273 -0.345912 -0.255232 -0.546078 -0.67508 -0.33944 -0.593843 -0.138554 0.329802 0.127029 -0.695047 -0.00390772 -1.05352 -0.538191 -0.408664 -0.283858 -0.0296512 -0.675651 0.112907 -0.404512 -0.175735 0.130744 -0.37214 -0.311994 0.620443 0.124239 -0.81906 -0.0642644 0.299678 -0.00873582 0.231498 0.235203 -0.536831 0.533741 0.157697 -0.612198 0.692687 -0.0749241 -0.0721629 -0.292769 -0.538109 -0.321614 -0.67953 -0.615146 0.214827 -0.71153 -0.334708 -0.0550522 0.00312978 -0.512909 -0.037614 -0.301053 -0.208496 0.228405 -0.668447 -0.578716 0.0648186 -0.542537 -0.767993 -0.245387 0.607076 0.057607 -0.814064 -0.669156 1.09804 -0.299153 -0.0464695 0.379226 0.273769 -0.210986 -0.73957 0.183559 0.525106 -0.395244 -0.610821 -0.0420119 -0.536564 -0.214304 0.32589 -0.104436 0.417909 -0.905291 -0.00465004 -0.0615164 0.361462 -0.179559 -0.0919359 -0.228223 -0.17165 -0.208892 -0.108725 -0.194094 -0.380899 -0.966571 0.224325 -0.0453992 -0.0662986 -0.599096 -0.359746 0.139204 -0.133749 0.591819 0.204192 -0.396249 0.337509 -0.451246 -0.641832 0.215834 -0.146502 -0.514994 -0.485351 -0.499895 -0.289964 -0.689066 -0.668448 -0.536027 0.348998 -0.301041 -0.369018 0.151768 -0.572344 -0.538524 0.101939 0.155581 0.20956 0.359739 
55 -0.229424 -0.172319 -0.488536 0.221679 -0.0656673 -0.178888 -0.614011 -0.188219 0.142799 -0.504083 0.0414953 -0.265373 -0.449327 0.010212 -0.000449109 -0.537603 -0.166597 -0.126263 -0.247982 -0.293274 0.156148 -0.253352 -0.406588 -0.271914 -0.190152 -0.372535 -0.598154 -0.161391 -0.411797 -0.311625 -0.238853 -0.326891 -0.0177598 -0.034504 0.111901 -0.0509748 0.028543 -0.386067 0.0646737 -0.390414 -0.283423 0.193017 -0.471182 -0.274112 -0.65966 -0.204238 -0.139319 -0.255712 -0.261087 -0.237279 -0.32271 -0.380193 0.193738 -0.0621144 -0.531389 -0.302865 0.157091 0.00189579 -0.024797 0.129481 -0.147859 -0.512715 -0.183351 -0.160904 -0.107343 0.171549 -0.253449 -0.348731 0.198857 -0.308952 0.0752942 -0.176524 0.185807 -0.412643 0.0446437 -0.182482 -0.619426 -0.448537 -0.301079 -0.69 -0.0530181 -0.141495 -0.175091 -0.0462976 0.0348405 -0.330463 -0.235986 -0.337423 -0.147213 -0.420047 -0.433234 -0.331493 -0.260997 -0.09695 -0.142203 0.246907 -0.342297 0.0851154 -0.185014 -0.0659758 -0.452708 0.0755409 -0.342297 -0.059537 -0.164727 -0.530565 -0.195869 -0.0479524 -0.142284 -0.344626 -0.286633 -0.0616026 -0.0269598 -0.17067 -0.0497459 -0.0867744 -0.520843 -0.269657 -0.587427 -0.150212 0.297415 -0.413241 0.0976277 -0.381439 -0.167548 -0.490383 -0.441054 -0.22285 
56 -0.645667 0.123536 -0.205399 -0.760143 -0.28425 -0.211611 -0.264349 -0.26233 -0.394329 -0.446918 -0.479201 -0.495365 -0.355379 -0.42542 -0.226827 -0.271387 -0.128675 -0.0749595 -0.410776 -0.132771 -0.285366 -0.491516 0.151991 0.0259858 -0.148047 -0.00202893 -0.338218 -0.362511 -0.219938 -0.0113947 -0.550036 -0.568379 -0.439526 -0.60148 -0.348366 -0.514101 -0.318318 -0.224705 0.10756 -0.169268 -0.407984 -0.382732 -0.220907 -0.191535 -0.205026 -0.298784 -0.0350859 -0.584058 -0.289141 0.138181 -0.289495 -0.361559 -0.446367 -0.217635 -0.112784 -0.189915 -0.387899 -0.87744 -0.435683 -0.265062 -0.0769966 -0.377988 -0.587575 -0.533326 -0.0817231 -0.328951 -0.560491 -0.101049 -0.686829 -0.117786 -0.228661 -0.423436 -0.320104 0.298042 -0.441068 -0.395048 -0.566708 -0.114181 -0.5796 -0.340199 -0.292664 -0.234973 -0.244995 -0.469778 -0.38621 -0.458075 -0.140261 -0.171628 -0.360328 -0.369762 -0.238246 -0.17109 -0.405277 -0.544604 -0.02815 -0.569034 -0.482366 -0.158746 -0.0775564 -0.274358 -0.388504 -0.343115 -0.101739 -0.129008 -0.526563 0.0867204 -0.53295 -0.329417 -0.519856 -0.0333488 -0.153567 -0.835306 -0.2843 -0.161033 -0.186251 -0.674657 0.0333432 -0.439887 0.171305 -0.526945 -0.479686 0.00408223 -0.380318 -0.260816 -0.310476 -0.49321 -0.323449 -0.441619 
57 -0.21892 -0.135363 -0.446442 0.240314 -0.0707492 -0.180109 -0.541037 -0.218585 0.107835 -0.485921 -0.00145452 -0.251314 -0.432979 -0.050197 -0.0306755 -0.46815 -0.123233 -0.0960283 -0.272035 -0.303423 0.0256694 -0.287891 -0.394662 -0.205119 -0.164641 -0.398417 -0.570886 -0.126867 -0.351557 -0.31862 -0.217714 -0.342665 -0.0564286 0.00771825 0.153024 0.0032025 0.0242813 -0.334455 0.00715538 -0.367498 -0.278535 0.163318 -0.434468 -0.27256 -0.595748 -0.235158 -0.0967806 -0.198232 -0.238689 -0.208586 -0.351295 -0.385825 0.209387 -0.0728046 -0.476286 -0.324302 0.18486 0.00278706 -0.076777 0.0983251 -0.154682 -0.502968 -0.206682 -0.157163 -0.0456434 0.177565 -0.258956 -0.293304 0.184564 -0.290082 0.0157722 -0.160591 0.171323 -0.355143 0.0209495 -0.234633 -0.58143 -0.439862 -0.232488 -0.643717 -0.017551 -0.141641 -0.146833 -0.0582581 0.0515633 -0.334739 -0.250434 -0.371344 -0.156374 -0.422383 -0.377449 -0.318673 -0.201333 -0.0248978 -0.177732 0.215353 -0.303943 0.0853864 -0.173753 0.00117224 -0.428476 0.0267902 -0.362239 -0.0214583 -0.119737 -0.486292 -0.119052 -0.0386823 -0.162648 -0.331243 -0.338819 -0.0394259 -0.00938512 -0.157443 -0.0589795 -0.118457 -0.44693 -0.318239 -0.485492 -0.116548 0.262807 -0.429901 0.0627905 -0.338569 -0.1654 -0.488262 -0.476829 -0.216826 
58 -0.309918 0.0223809 -0.0752603 -0.51008 -0.372651 -0.0881258 -0.196739 -0.320767 -0.438619 -0.253946 -0.274766 -0.413706 -0.237644 -0.452776 -0.0922359 0.00998447 -0.410486 -0.134212 -0.245815 -0.323692 -0.410844 -0.242692 0.00421752 -0.122867 -0.242381 -0.248524 -0.143782 -0.295303 -0.0681054 -0.175697 -0.173488 -0.279268 -0.429165 -0.455181 -0.451158 -0.342863 -0.429341 -0.0773396 -0.303008 -0.169477 -0.367342 -0.223893 -0.0820538 -0.239672 -0.0367288 -0.140359 -0.17 -0.453193 -0.176051 -0.0896366 -0.400244 -0.0961636 -0.166598 -0.322184 0.023088 -0.065637 -0.424636 -0.504116 -0.457083 -0.367832 -0.234671 -0.11384 -0.303891 -0.288011 -0.239403 -0.444206 -0.330495 -0.192848 -0.455004 -0.192163 -0.168978 -0.241968 -0.27872 -0.210076 -0.364235 -0.117086 -0.383987 -0.171528 -0.295977 -0.101154 -0.471823 -0.257183 -0.332501 -0.305287 -0.438755 -0.163239 -0.306473 -0.160787 -0.19685 -0.360417 -0.415772 -0.123389 -0.191055 -0.283808 -0.117523 -0.613947 -0.176853 -0.379801 -0.22422 -0.411069 -0.241119 -0.211363 -0.294662 -0.17376 -0.231068 -0.0943708 -0.327687 -0.375661 -0.259513 -0.0967864 -0.173584 -0.513729 -0.357434 -0.34879 -0.343353 -0.391561 -0.0106183 -0.217088 0.00654454 -0.337478 -0.372688 -0.0668354 -0.423551 -0.369022 -0.414149 -0.387166 -0.104039 -0.298258 
59 -0.0534426 -0.00480216 0.201539 -0.480954 -0.330004 0.252582 -0.142366 -0.413328 -0.406153 -0.0603584 -0.0117458 -0.565869 -0.288869 -0.384256 -0.0730151 0.0763056 -0.491042 -0.133895 -0.107247 -0.438565 -0.37795 -0.19131 0.242615 -0.14622 -0.349091 -0.246596 -0.0113658 -0.27224 0.0109482 -0.166064 0.0939053 -0.00431896 -0.348087 -0.280738 -0.706119 -0.224298 -0.487216 0.13759 -0.332026 -0.172817 -0.364658 0.0768155 -0.128714 -0.183628 -0.0192809 0.0309582 -0.221529 -0.757691 -0.00832964 -0.144427 -0.340342 0.195725 -0.00209508 -0.1881 -0.00420949 -0.102028 -0.573879 -0.264446 -0.41205 -0.190075 -0.258794 0.0343064 -0.256253 -0.107998 -0.275032 -0.325069 -0.250355 -0.192496 -0.265148 -0.228293 -0.113086 -0.206964 0.0762853 -0.510708 -0.332755 -0.101537 -0.449297 -0.0878837 -0.322173 0.201032 -0.547578 -0.226895 -0.192218 -0.412335 -0.220667 -0.0481391 -0.334817 -0.0225817 -0.193311 -0.333599 -0.337569 -0.0397343 -0.26332 -0.165747 -0.10275 -0.391205 -0.0815415 -0.309308 -0.217059 -0.219229 -0.19966 -0.144125 -0.317767 -0.241557 -0.0689469 -0.214837 -0.133096 -0.338135 0.0198679 -0.0965805 -0.0275942 -0.128336 -0.256697 -0.43937 -0.350252 -0.262277 -0.231676 -0.161044 -0.162755 -0.260583 -0.0930031 -0.106087 -0.398421 -0.56697 -0.157593 -0.237949 -0.181693 -0.090276 
60 -0.304984 -0.487948 0.10334 -0.139376 -0.12036 -0.209558 -0.157735 -0.149688 -0.204366 0.271367 -0.362622 -0.0743964 -0.120811 -0.395262 -0.336803 -0.418727 -0.0903405 -0.355141 -0.108741 -0.155224 -0.11769 -0.441579 -0.165169 -0.137385 -0.142619 -0.0349551 -0.225469 -0.370128 -0.153676 -0.0875722 -0.345764 -0.0632543 -0.0441621 -0.257397 -0.295684 -0.32505 -0.199809 -0.00810533 0.0930573 0.0521946 -0.213355 -0.742383 -0.459375 -0.178873 -0.260437 -0.285642 -0.421206 -0.169541 -0.241206 -0.248421 0.292074 -0.262024 -0.572874 -0.360131 -0.522557 -0.47825 -0.491104 -0.0402364 0.094468 -0.0194521 -0.205726 -0.147026 -0.281408 -0.220395 -0.487808 0.202765 -0.0855579 -0.125021 -0.390919 0.104579 -0.299413 -0.202282 -0.180152 -0.196895 -0.448466 -0.270416 0.095952 -0.0680669 0.106081 -0.188967 0.0631032 -0.234206 -0.126695 -0.336286 -0.068747 -0.0310021 0.0553836 -0.222819 -0.391629 -0.0742972 -0.00178164 -0.26295 -0.53529 -0.703555 -0.209507 0.235027 -0.219426 -0.151119 -0.302898 0.160069 -0.130937 -0.239619 0.0479546 -0.24915 -0.381259 -0.354297 -0.233444 -0.218128 -0.291987 -0.232604 -0.0799117 0.222284 -0.164907 -0.244408 -0.165565 -0.224391 -0.276077 -0.348724 -0.341689 0.00154265 -0.367498 -0.447521 -0.0122777 0.204672 0.394177 -0.0231035 -0.242159 -0.239562 
61 -0.379677 -0.280486 -0.153276 -0.562312 -0.272033 -0.451815 -0.0199364 -0.237051 -0.269516 -0.105271 -0.402108 -0.00691971 -0.163341 -0.170748 -0.496583 -0.288898 -0.0639097 -0.31646 -0.156448 -0.066739 -0.347996 -0.254674 -0.211093 -0.0893841 -0.133051 0.0214083 -0.178699 -0.381574 -0.266409 -0.186422 -0.309462 -0.182041 -0.214909 -0.176798 -0.26249 -0.330072 -0.408634 -0.224274 -0.179186 -0.0743048 -0.087105 -0.557795 -0.182386 -0.203454 -0.255578 -0.375633 -0.358264 -0.112683 -0.348223 -0.209261 -0.0866392 -0.125056 -0.521369 -0.12137 -0.407687 -0.307079 -0.364019 -0.258323 0.0217167 -0.249124 -0.15572 -0.214575 -0.435752 -0.172524 -0.143825 -0.503936 -0.0488855 -0.347913 -0.296772 -0.396848 -0.316661 -0.30111 -0.487474 -0.0874313 -0.322188 -0.447546 0.16954 -0.0950177 -0.293923 -0.00527607 -0.152223 -0.0812184 -0.158054 -0.352456 -0.288361 -0.320025 -0.0872273 -0.21269 -0.235652 0.0651558 -0.00304237 -0.386176 -0.349056 -0.43652 -0.480196 -0.288027 -0.222944 -0.210568 -0.211622 -0.422903 -0.173356 -0.490963 -0.275578 -0.281772 -0.32976 -0.10775 -0.14285 -0.183602 -0.292606 -0.191179 -0.428105 -0.187736 -0.139909 -0.171674 -0.299592 -0.0660122 0.0198217 -0.206669 -0.365904 -0.296695 -0.278974 -0.249172 -0.362639 -0.110892 0.0609336 0.0594146 -0.248985 -0.0819495 
62 0.0110776 -0.362036 -0.256685 -0.114983 -0.345143 -0.294213 -0.142123 -0.142382 -0.0875468 -0.119862 -0.0519228 -0.14539 -0.284597 -0.24026 -0.195095 -0.112069 -0.375021 -0.322968 -0.158813 -0.324694 -0.169276 -0.176155 -0.365117 -0.386536 -0.21345 -0.303409 -0.185233 -0.130493 -0.220192 -0.381071 -0.16768 -0.155373 -0.189473 -0.214588 -0.292901 -0.216721 -0.266652 -0.179499 -0.53725 -0.364619 -0.0971702 -0.159419 -0.292489 -0.261618 -0.155204 -0.103894 -0.313913 -0.145174 -0.0964683 -0.15344 -0.163244 -0.231157 -0.0850985 -0.317352 0.0427802 -0.0270546 -0.246988 -0.157323 -0.170121 -0.282442 -0.184283 -0.155443 -0.116694 -0.137118 -0.165152 -0.528711 -0.255395 -0.258262 -0.167081 -0.294693 -0.289117 -0.130585 -0.240128 -0.331108 -0.114599 -0.0742225 -0.216781 -0.280594 -0.235706 -0.131039 -0.333161 -0.295175 -0.393138 -0.0992652 -0.0899223 -0.11926 -0.370984 -0.179204 -0.212827 -0.294998 -0.387297 -0.164416 0.010914 -0.115478 -0.339882 -0.216673 -0.332485 -0.50401 -0.24352 -0.341006 -0.181858 -0.208014 -0.111752 -0.54675 -0.0660907 -0.195273 -0.152738 -0.197158 -0.155101 -0.180701 -0.314382 -0.229054 -0.201189 -0.267579 -0.321843 -0.0349108 -0.355224 -0.108935 -0.278714 -0.241331 -0.309922 -0.0853032 -0.171483 -0.222324 -0.276701 -0.301949 -0.138112 -0.103976 
63 -0.073647 -0.242299 -0.229899 -0.166005 -0.25959 -0.153353 -0.322128 -0.180565 -0.0666361 -0.0748055 -0.0410192 -0.247523 -0.310811 -0.201931 -0.154245 -0.271434 -0.293258 -0.301297 -0.0786178 -0.29152 0.0626893 -0.267715 -0.265847 -0.287627 -0.172808 -0.236236 -0.270278 -0.133805 -0.296678 -0.298674 -0.217605 -0.191887 -0.162102 -0.13631 -0.240396 -0.158079 -0.210114 -0.224987 -0.178444 -0.303917 -0.0757917 0.0244495 -0.538157 -0.237016 -0.423077 -0.0926523 -0.204888 -0.361742 -0.141713 -0.0672316 -0.211608 -0.213168 -0.0872286 -0.18153 -0.190888 -0.0788636 -0.18577 -0.162242 -0.150948 0.101706 -0.0935857 -0.218107 -0.256233 -0.0245618 -0.173901 -0.146541 -0.151177 -0.236492 -0.0628993 -0.202674 -0.222132 -0.184991 -0.00828854 -0.314812 -0.133677 -0.21878 -0.385323 -0.262681 -0.320342 -0.222969 -0.203976 -0.217174 -0.183257 -0.260064 0.039535 -0.123512 -0.254393 -0.135554 -0.136851 -0.293406 -0.336061 -0.219895 -0.199539 -0.240221 -0.135715 -0.00498178 -0.351576 -0.192496 -0.163821 -0.253798 -0.286746 -0.138968 -0.0556694 -0.299742 -0.119785 -0.192011 -0.144527 -0.0885376 -0.175489 -0.129504 -0.155211 -0.0369612 -0.0994371 -0.320585 -0.185486 0.00741292 -0.315221 -0.206079 -0.38037 -0.186168 -0.146417 -0.214895 0.0237485 -0.184528 -0.109698 -0.238744 -0.329923 -0.1646 
64 -0.310672 -0.486927 -0.0091679 0.0473981 -0.084855 -0.19832 -0.188194 -0.239851 -0.29129 0.202093 -0.440243 0.00327579 0.00250181 -0.444785 -0.371752 -0.542367 -0.072626 -0.349394 -0.164683 -0.237024 -0.228656 -0.571524 -0.244956 -0.246166 -0.316149 -0.1363 -0.2066 -0.283046 -0.184028 -0.149683 -0.424974 -0.107998 -0.0165332 -0.177194 -0.253785 -0.428614 -0.311367 0.132308 -0.0574351 0.144034 -0.175178 -0.73744 -0.232197 -0.151603 -0.161598 -0.341059 -0.255444 -0.145255 -0.342219 -0.489573 0.2178 -0.324561 -0.525013 -0.667484 -0.689229 -0.58557 -0.745396 0.0646975 0.15473 -0.308814 -0.218189 -0.181388 -0.337003 -0.308081 -0.421724 0.0847714 -0.19858 -0.0936896 -0.523107 0.0195352 -0.329497 -0.176501 -0.310749 -0.152336 -0.490515 -0.190588 0.328204 -0.257445 0.0444342 -0.163715 -0.0410609 -0.290562 -0.271259 -0.285716 -0.0598429 -0.132087 0.0258413 -0.152189 -0.431494 -0.0755018 0.0890163 -0.143302 -0.62299 -0.847763 -0.369173 0.226371 -0.0983026 -0.10715 -0.378125 0.049487 -0.0146322 -0.533249 -0.0889544 -0.199695 -0.36565 -0.475473 -0.240168 -0.343319 -0.347845 -0.364676 -0.239614 0.217854 -0.146665 -0.280171 -0.337363 -0.255643 -0.170522 -0.392886 -0.271517 0.0542055 -0.498876 -0.49098 -0.0102865 0.208266 0.344915 -0.0701521 -0.15541 -0.262107 
65 -0.171732 -0.351033 -0.0147662 -0.150279 -0.165899 -0.127888 -0.305178 -0.107894 -0.103172 0.216649 -0.164571 -0.161306 -0.212934 -0.342005 -0.239809 -0.3403 -0.255486 -0.329668 -0.0985177 -0.284763 0.0609112 -0.398636 -0.229763 -0.260064 -0.180574 -0.145237 -0.248857 -0.209931 -0.248717 -0.178323 -0.248376 -0.117286 -0.135081 -0.168976 -0.266471 -0.18118 -0.199751 -0.0557743 -0.0687137 -0.10522 -0.0765356 -0.301642 -0.607514 -0.239499 -0.391182 -0.151516 -0.275694 -0.312624 -0.168851 -0.121369 0.0188334 -0.255906 -0.355463 -0.280287 -0.291181 -0.258751 -0.356509 -0.12711 -0.0142133 0.117861 -0.125951 -0.139088 -0.227793 -0.0671345 -0.395589 0.124993 -0.0989486 -0.173662 -0.222376 0.00843313 -0.305787 -0.189329 -0.0448908 -0.273319 -0.326051 -0.206187 -0.238264 -0.20982 -0.0996455 -0.183157 -0.0605602 -0.278452 -0.222856 -0.324943 0.0815942 0.0273868 -0.117629 -0.136852 -0.23972 -0.211487 -0.215655 -0.197248 -0.369191 -0.483702 -0.144261 0.155993 -0.312914 -0.166506 -0.253164 -0.0213454 -0.231721 -0.177049 0.0759879 -0.262406 -0.253296 -0.275533 -0.19013 -0.152062 -0.29423 -0.148362 -0.0640897 0.171244 -0.109283 -0.312373 -0.167637 -0.106612 -0.368023 -0.273486 -0.352724 -0.0613207 -0.279921 -0.327884 0.105157 0.00204753 0.157459 -0.122305 -0.361196 -0.220359 
66 0.20051 0.218562 -0.186971 0.333817 -0.0143962 0.924928 0.0139726 -0.127605 -0.895631 -0.108241 0.0943354 -0.51106 -0.325809 -1.11722 0.117956 -0.184568 0.505375 0.594313 -0.758614 -0.684162 -1.06635 -0.249564 -0.0585728 0.292693 0.490872 0.592982 -0.850978 -0.972293 -0.10267 0.197362 -0.338939 0.190569 0.511496 -0.211545 -0.55519 0.476105 -0.343218 0.717956 -0.677335 -1.20829 -0.352766 -0.212437 -0.286588 -0.533204 0.0945433 -0.190412 0.547696 -0.375248 -0.509852 -1.23399 0.262764 -0.254366 -0.12424 0.295752 0.405814 -0.546468 -0.132911 -0.411358 -0.167587 -0.151938 -1.18859 0.838472 -1.03737 0.640005 -0.399436 -0.161493 0.184313 -0.552151 -0.358969 0.844412 -0.383355 -0.393951 -0.342797 0.646942 0.337365 -0.328506 -0.565994 -0.0269696 0.621352 -0.704982 0.165227 -0.0245187 0.47147 0.461285 0.63941 -0.097735 -1.05117 -0.517794 0.80828 0.176423 -0.297614 -0.282219 0.0243052 0.144449 0.620675 -0.323464 0.190853 -0.152485 0.388602 -1.19073 -0.333539 -0.912512 -0.211384 -0.698853 -0.232554 -0.78957 -0.650758 -0.371441 0.499194 -1.05461 -1.09325 -0.250566 -0.70202 0.688233 -0.8643 -0.0358541 -0.325075 -0.59973 -0.13016 -0.529179 -0.162628 -0.341308 -0.55321 -0.092195 -0.211151 0.0998135 0.00229459 -0.936786 
67 -0.729229 -0.0379418 0.0217341 -0.00375865 -0.224413 0.245958 -0.596726 0.0679179 -0.27648 0.656461 -0.599574 0.30584 -0.437755 -0.209356 -0.434832 -0.561503 -0.661294 -0.515633 0.429296 0.231801 -0.842835 -0.637679 -0.646913 -1.17099 -1.2214 -0.121549 0.0884842 -0.287716 -0.928775 -0.892732 -0.387397 -0.261669 -0.629159 -0.169592 -0.0707721 0.435387 0.275278 -0.379224 -0.397579 0.193431 -0.616521 -0.904529 -0.395594 -0.855584 0.378571 0.557403 -0.0245733 -0.0967863 0.238351 0.70135 0.434924 -0.405338 0.254562 -0.0149592 -0.185662 -0.664169 -0.0403108 0.096852 0.432472 -0.679986 -0.608257 -0.952726 0.354413 0.153879 -0.92746 -0.51226 -0.208501 -0.359049 0.400189 -0.41276 0.0293718 -0.0153075 0.0717401 -0.075077 -0.576301 -0.562431 -0.415432 -0.30055 -0.356413 0.122161 -0.502464 0.178789 -1.18071 -0.0537164 -0.74057 -1.07364 -0.418793 0.614534 0.418065 0.216875 0.234784 -0.980223 -0.547976 -0.314019 -0.52664 -0.073833 -0.630603 -0.541952 -0.340955 -1.13038 0.334407 -0.0172767 -0.851033 -0.49661 0.102248 -0.031756 -0.653546 -0.0113457 -0.140641 0.279337 0.207249 -0.447643 -0.33225 0.511362 0.897082 0.21256 -0.364955 -0.426422 -0.0721904 0.253332 -1.21351 -0.742384 0.662182 -0.365696 0.339594 -0.765284 -0.24625 -0.0974169 
68 -0.00653002 -0.186473 -0.407955 -0.159782 -0.0414696 -0.0319818 -0.207184 -0.303629 -0.184346 -0.4921 -0.0714102 -0.272223 -0.111984 -0.0846191 -0.450468 -0.174564 -0.326945 -0.132041 -0.149052 -0.419936 -0.293972 -0.220679 -0.33717 -0.244221 -0.458567 -0.273617 -0.178459 -0.264967 0.0167475 -0.195521 -0.0312607 -0.171878 -0.414767 -0.245449 -0.0128888 -0.200798 -0.417039 -0.243307 -0.768862 -0.234299 -0.164438 -0.183601 0.220864 -0.450664 0.210949 -0.425286 -0.194132 0.400473 -0.107667 -0.526465 -0.352042 -0.202052 -0.0956592 -0.218192 -0.144714 -0.231914 -0.228915 -0.157704 -0.248524 -0.352095 -0.231524 -0.227083 -0.0205969 0.0167996 -0.0644156 -0.380618 -0.463666 -0.223096 0.0480973 -0.458564 0.00737552 -0.388231 -0.359672 -0.086215 -0.129938 -0.0258829 0.215087 -0.201284 0.105335 -0.147874 -0.32794 -0.123486 -0.122489 -0.146471 -0.261102 -0.219091 -0.414939 -0.172988 0.00231019 -0.293432 -0.236599 -0.221362 0.0742082 -0.146996 -0.538447 -0.376311 -0.132528 -0.464064 -0.246275 -0.0838878 -0.0221595 -0.166527 -0.252617 -0.249878 0.0557052 -0.333251 0.00531533 -0.0792812 -0.262268 0.0226586 -0.330552 -0.492576 -0.447908 -0.0923028 -0.411255 -0.299505 -0.197437 -0.110799 0.0375716 -0.192686 -0.227838 0.173355 -0.458893 -0.288509 -0.38768 -0.196879 -0.168491 -0.125172 
69 0.024093 -0.32094 -0.167662 -0.109331 -0.307232 -0.256915 -0.0541558 -0.149783 0.00553473 -0.181165 0.0802791 -0.161766 -0.353486 -0.17693 -0.200931 0.00138148 -0.364546 -0.253641 -0.108456 -0.262726 -0.219979 -0.126134 -0.434805 -0.359006 -0.186782 -0.332838 -0.0966354 -0.0797425 -0.198178 -0.375631 -0.111865 -0.168572 -0.20028 -0.190434 -0.247067 -0.133496 -0.263696 -0.149277 -0.610448 -0.352098 -0.0650652 -0.153726 -0.117494 -0.227464 0.00410723 -0.0912236 -0.224154 0.0450649 -0.0196457 -0.221914 -0.257777 -0.151469 -0.108309 -0.308407 0.00205538 -0.0820777 -0.200972 -0.170513 -0.0652561 -0.423929 -0.283873 -0.136583 -0.145905 -0.109064 -0.156947 -0.590404 -0.24702 -0.155085 -0.160469 -0.347809 -0.229262 -0.18198 -0.32067 -0.353673 0.0401861 0.0673168 -0.18309 -0.281728 -0.156932 -0.197159 -0.405849 -0.243196 -0.405231 -0.0585802 -0.305272 -0.223065 -0.361201 -0.231814 -0.151277 -0.285835 -0.276062 -0.190641 0.0408161 -0.0438295 -0.411907 -0.307127 -0.253162 -0.544481 -0.279618 -0.320818 -0.203152 -0.187718 -0.190671 -0.488091 -0.0285917 -0.164287 -0.189315 -0.17828 -0.207395 -0.173073 -0.353702 -0.265026 -0.237823 -0.217155 -0.291439 -0.087885 -0.309781 -0.136458 -0.215419 -0.261471 -0.226445 0.00594919 -0.238149 -0.298186 -0.35477 -0.279974 -0.0808876 -0.0769757 
70 -0.0753045 -0.0691518 -0.140583 -0.158766 -0.360912 -0.139545 -0.100489 -0.22984 -0.277025 -0.187864 -0.101107 -0.233601 -0.202474 -0.328083 -0.109324 0.0652358 -0.402861 -0.109456 -0.123156 -0.236889 -0.370293 -0.0836428 -0.265072 -0.225712 -0.163977 -0.351044 -0.0693872 -0.161573 -0.125432 -0.330403 -0.0395937 -0.208155 -0.275672 -0.248461 -0.290311 -0.205468 -0.294279 -0.1154 -0.567571 -0.238098 -0.19714 -0.198967 -0.00910618 -0.275867 0.0331363 -0.0665882 -0.171147 -0.0696754 -0.0799243 -0.252194 -0.310242 -0.0614914 -0.0422009 -0.391254 0.0722417 0.0256019 -0.22681 -0.234934 -0.236187 -0.45605 -0.330858 -0.0160451 -0.0445933 -0.103964 -0.235836 -0.535026 -0.176989 -0.226056 -0.210004 -0.247327 -0.126985 -0.149704 -0.32017 -0.390993 -0.143211 0.059974 -0.216358 -0.26567 -0.0780505 -0.132929 -0.463132 -0.28343 -0.35285 -0.0222876 -0.382976 -0.0598623 -0.381917 -0.194751 -0.00720892 -0.331064 -0.437479 -0.173575 0.0559137 -0.0922518 -0.236587 -0.481305 -0.0627593 -0.458796 -0.285078 -0.464932 -0.135653 -0.142786 -0.273341 -0.292782 -0.0595864 -0.161192 -0.201251 -0.305564 -0.180752 -0.157511 -0.238038 -0.301172 -0.354405 -0.318362 -0.298502 -0.139578 -0.0627938 -0.113683 -0.0719897 -0.255528 -0.295753 -0.0509688 -0.384117 -0.301564 -0.54422 -0.354931 0.0548944 -0.168977 
71 -0.024463 0.108458 -0.171746 0.321903 0.19392 -0.0465875 -0.685735 0.0667135 -0.00514074 -0.166644 -0.27161 -0.349575 -0.486046 0.0202808 0.242374 0.0193258 -0.181352 -0.0108969 -0.464969 -0.318752 0.018259 -0.304087 -0.394133 -0.186336 0.0573738 -0.182544 0.0411723 -0.243327 -0.201466 -0.58892 -0.211614 -0.264553 0.483175 0.0906253 0.120022 0.183875 0.388916 -0.532767 0.087411 0.340296 -0.449597 0.301091 0.261296 0.0189758 -0.48232 -0.106673 0.367698 -0.0966413 -0.506665 -0.546132 -0.350177 -0.0858782 0.254057 0.0194157 -0.124362 -0.432965 0.694732 0.0112062 -0.1634 -0.122547 0.132911 -0.547496 -0.240153 -0.135565 -0.146294 -0.0246472 -0.645577 -0.349507 0.0820013 -0.0317609 -0.394302 0.107908 0.237724 -0.429517 -0.0867812 -0.365176 -0.297786 0.0063058 -0.0660768 -0.308132 0.248885 -0.227281 -0.030517 0.0613854 0.215036 -0.264743 0.00882006 -0.287328 -0.606713 -0.736401 0.012055 -0.399117 -0.460416 0.257179 -0.060406 0.444516 -0.121953 0.198977 -0.241491 0.044918 -0.130146 0.183563 -0.0205455 0.230288 -0.0719814 -0.49896 0.017218 0.0238746 -0.23596 -0.448197 -0.328798 -0.311191 -0.151345 -0.0123735 -0.0304628 -0.364846 0.0243975 -0.264618 -0.285891 -0.106845 0.171195 -0.262492 0.0951331 -0.31256 -0.178658 -0.0692217 -0.776165 -0.647022 
72 -0.345108 -0.539748 -0.373921 -0.477808 -0.298518 0.625156 -0.482131 -0.603434 -0.309353 -0.280138 0.19119 -0.608635 0.0606664 -0.137032 -0.0626462 -0.265214 -0.799889 0.00879857 0.0569997 -0.436978 -0.083654 0.268294 -0.0210506 -0.229854 -0.744085 0.00462724 0.203455 -0.707782 -0.092708 -0.256248 -0.137251 -0.607999 -0.245876 -0.409944 -0.407729 -0.504924 -0.615571 -0.564508 -0.92843 0.059504 -0.722889 -0.137468 0.155797 -0.626087 -0.758009 -0.586785 -0.485061 -0.395577 -0.0810575 -0.962181 -0.299982 0.425994 0.0762701 0.215786 -0.211038 -0.508831 -0.344955 -0.144003 0.104951 -0.0155653 -0.149684 -0.246163 0.247053 0.595061 -0.514454 0.0836637 -0.0451318 -0.301046 -0.100775 -0.58224 -0.289847 -0.811764 -0.255269 -0.31888 -0.504528 0.0743008 -0.196386 -0.446481 0.167779 0.133057 -0.269349 -0.277811 -0.0506069 -0.205929 -0.37507 -0.293331 -0.222985 -0.182728 0.0753274 -0.0871157 -0.669958 -0.64972 -0.337122 -0.00163345 -0.435328 -0.822957 -0.00817875 -0.493131 0.05427 -0.126805 -0.187072 -0.432097 -0.607555 0.213583 -0.148889 -0.192953 -0.0541029 -0.176587 -0.217476 -0.0762501 0.0118071 -0.723993 -0.187501 -0.207237 -0.270832 -0.2748 -0.237257 -0.231833 0.0515375 -0.26115 -0.169071 -0.333325 -0.615511 -0.179674 -0.413857 -0.384695 -0.105445 -0.172912 
73 -0.309475 -0.483509 -0.00741555 0.0466168 -0.0820346 -0.198608 -0.18528 -0.239072 -0.290413 0.206445 -0.438151 0.00474126 0.00628388 -0.443733 -0.371019 -0.537331 -0.070362 -0.34869 -0.162357 -0.234323 -0.225851 -0.567765 -0.239046 -0.246416 -0.313839 -0.129058 -0.203414 -0.279779 -0.179926 -0.149252 -0.418676 -0.105372 -0.0163612 -0.172014 -0.253319 -0.424878 -0.312394 0.135997 -0.054646 0.143983 -0.16997 -0.73551 -0.228529 -0.15008 -0.161864 -0.340814 -0.251951 -0.144793 -0.341703 -0.486014 0.219545 -0.321557 -0.521779 -0.664364 -0.688303 -0.578722 -0.743761 0.0640581 0.155584 -0.306468 -0.21469 -0.179019 -0.334 -0.307498 -0.41978 0.0849905 -0.195959 -0.0905294 -0.516247 0.0210879 -0.325892 -0.173499 -0.309226 -0.145984 -0.489378 -0.187535 0.333392 -0.255926 0.0430217 -0.158473 -0.0393955 -0.289076 -0.270544 -0.283707 -0.0605838 -0.130906 0.029047 -0.149836 -0.425087 -0.0739882 0.0920377 -0.139845 -0.62188 -0.846314 -0.368124 0.226346 -0.0973895 -0.103389 -0.375445 0.0488816 -0.0125074 -0.531795 -0.0883612 -0.194787 -0.36419 -0.472963 -0.239182 -0.33753 -0.345716 -0.359781 -0.240255 0.220435 -0.140666 -0.277716 -0.336406 -0.252442 -0.168621 -0.392605 -0.267901 0.0571326 -0.494336 -0.486433 -0.0106318 0.212676 0.347406 -0.0636088 -0.151861 -0.260069 
74 -0.290809 -0.0994158 -0.579576 0.128275 -0.0556934 -0.265804 -0.653184 -0.202848 0.200995 -0.507418 0.00203182 -0.327734 -0.377772 0.000778045 0.00242077 -0.58485 -0.124974 -0.11074 -0.331765 -0.337983 0.132493 -0.294317 -0.45826 -0.292544 -0.33264 -0.321106 -0.676736 -0.180234 -0.426249 -0.320301 -0.223843 -0.433035 -0.150909 -0.108882 0.0583529 0.0169218 0.00503132 -0.351433 0.113524 -0.449912 -0.317977 0.189154 -0.401359 -0.31417 -0.71366 -0.241356 -0.18202 -0.23767 -0.20961 -0.213082 -0.407154 -0.517149 0.159386 -0.00414581 -0.573915 -0.381149 0.250863 -0.0105716 -0.0686746 0.0726032 -0.180837 -0.553057 -0.0863939 -0.347275 -0.222053 0.2122 -0.304803 -0.436507 0.106877 -0.309323 -0.00285943 -0.290398 0.0979894 -0.434981 0.027409 -0.0972618 -0.696636 -0.524789 -0.271298 -0.628389 -0.0279126 -0.213998 -0.175098 -0.0427003 -0.00365273 -0.284588 -0.283163 -0.420978 -0.227004 -0.426039 -0.450152 -0.303411 -0.274884 -0.0667079 -0.25102 0.300137 -0.388849 0.100563 -0.20303 -0.115286 -0.487527 0.0607445 -0.48837 -0.0424544 -0.201112 -0.756297 -0.266976 -0.117096 -0.271242 -0.341893 -0.375322 -0.0686392 -0.0732099 -0.0950293 -0.0263745 -0.133056 -0.507749 -0.248856 -0.614476 -0.0473523 0.261465 -0.422061 0.0328199 -0.455912 -0.285573 -0.496984 -0.495842 -0.373449 
75 -0.509395 0.00176324 -0.27041 -0.691429 -0.312422 -0.188933 -0.235291 -0.267352 -0.339883 -0.410572 -0.321988 -0.367781 -0.331314 -0.434114 -0.0149628 -0.108682 -0.331165 -0.0790659 -0.314316 -0.328835 -0.321957 -0.410088 0.0278823 -0.0985045 -0.234814 -0.12375 -0.276761 -0.243913 -0.142509 -0.0947368 -0.301446 -0.340736 -0.413741 -0.563787 -0.429963 -0.30461 -0.494536 -0.130574 -0.0760945 -0.199168 -0.392299 -0.22835 -0.211129 -0.288553 -0.164142 -0.241147 -0.0776427 -0.623475 -0.206794 0.0819011 -0.473558 -0.261672 -0.323188 -0.321508 -0.199462 -0.275107 -0.49532 -0.618892 -0.498244 -0.334151 -0.0635647 -0.255161 -0.512258 -0.492147 -0.186015 -0.38438 -0.445469 -0.170401 -0.56142 -0.165688 -0.193767 -0.329868 -0.36665 0.0652129 -0.322374 -0.229182 -0.561846 -0.253736 -0.445198 -0.285387 -0.294998 -0.25139 -0.323787 -0.367613 -0.397963 -0.400575 -0.158188 -0.214382 -0.407116 -0.24804 -0.280662 -0.190058 -0.293845 -0.462845 -0.165592 -0.52315 -0.456378 -0.300205 -0.114089 -0.171089 -0.403313 -0.246719 -0.22941 -0.115863 -0.393064 -0.0956495 -0.398919 -0.293312 -0.361537 -0.0822663 -0.351568 -0.653302 -0.253269 -0.270538 -0.329627 -0.598962 -0.0280672 -0.40599 0.0961981 -0.311951 -0.436985 -0.0122602 -0.331453 -0.358285 -0.23711 -0.462901 -0.290113 -0.387867 
76 -0.465867 -0.0521575 -0.286686 -0.65568 -0.331432 -0.157929 -0.136571 -0.2833 -0.307382 -0.433675 -0.276064 -0.27027 -0.292244 -0.406851 0.0990582 0.030967 -0.395479 -0.0236701 -0.285463 -0.418781 -0.40752 -0.335494 -0.000891312 -0.16144 -0.255903 -0.163156 -0.226671 -0.195791 -0.0856655 -0.132391 -0.146828 -0.219002 -0.378668 -0.581849 -0.492773 -0.217785 -0.620861 -0.0654421 -0.166944 -0.211609 -0.393594 -0.176673 -0.143111 -0.309243 -0.0856151 -0.229928 -0.10169 -0.606791 -0.125574 0.0390914 -0.572378 -0.197735 -0.253156 -0.395976 -0.199697 -0.340724 -0.607168 -0.492055 -0.546873 -0.451514 -0.0735624 -0.170428 -0.479013 -0.536072 -0.208853 -0.50057 -0.4037 -0.197558 -0.50187 -0.199693 -0.155511 -0.287 -0.434799 -0.0304877 -0.240168 -0.0882553 -0.501657 -0.327269 -0.369011 -0.240251 -0.303653 -0.260943 -0.362315 -0.288959 -0.449269 -0.404625 -0.161784 -0.231812 -0.473133 -0.113617 -0.263744 -0.230038 -0.224671 -0.421785 -0.284272 -0.514852 -0.452542 -0.387201 -0.133691 -0.105566 -0.402842 -0.197065 -0.327509 -0.140145 -0.311957 -0.165591 -0.349298 -0.273505 -0.25845 -0.132063 -0.503049 -0.603137 -0.235777 -0.311065 -0.39375 -0.593968 -0.0255012 -0.382035 0.108997 -0.172542 -0.428532 -0.0187021 -0.365297 -0.404995 -0.164714 -0.491787 -0.241629 -0.366073 
77 -0.0651334 -0.275945 -0.225675 -0.173994 -0.368769 -0.259071 -0.0508437 -0.201798 -0.308923 -0.228365 -0.163311 -0.173265 -0.203379 -0.294727 -0.160061 -0.00966253 -0.435554 -0.254171 -0.207392 -0.29632 -0.36259 -0.116251 -0.346515 -0.310065 -0.173435 -0.433121 -0.166389 -0.0784981 -0.166407 -0.429838 -0.000131082 -0.194915 -0.219279 -0.339003 -0.308055 -0.257111 -0.288024 -0.0675902 -0.672472 -0.279742 -0.211328 -0.333572 -0.083873 -0.264683 0.0543762 -0.111627 -0.223439 -0.0326932 -0.173008 -0.178087 -0.271821 -0.223588 -0.042469 -0.435281 0.0814423 -0.0528658 -0.299049 -0.238276 -0.37797 -0.457148 -0.301815 -0.146289 -0.0780436 -0.144205 -0.249846 -0.639432 -0.28852 -0.300851 -0.258507 -0.29024 -0.180493 -0.121852 -0.371796 -0.355617 -0.175997 0.0526692 -0.112663 -0.287315 -0.167401 -0.10309 -0.455421 -0.323342 -0.357006 -0.0654129 -0.282594 -0.0548828 -0.396999 -0.179897 -0.238982 -0.339613 -0.395937 -0.196623 0.0155373 -0.107005 -0.285249 -0.553636 -0.130966 -0.525647 -0.282465 -0.460741 -0.061816 -0.210048 -0.22605 -0.428754 -0.080997 -0.199893 -0.191904 -0.256217 -0.162336 -0.189824 -0.312414 -0.366534 -0.36761 -0.364117 -0.334028 -0.0920005 -0.0846154 -0.0934831 -0.219087 -0.231035 -0.385303 -0.131917 -0.39881 -0.261591 -0.563548 -0.311846 0.0792428 -0.214742 
78 -0.555601 -0.046056 -0.295639 -0.717891 -0.344402 -0.457699 -0.0506757 -0.259668 -0.435332 -0.335755 -0.481319 -0.145073 -0.242165 -0.350471 -0.381924 -0.254791 -0.213757 -0.282754 -0.373187 -0.144218 -0.407922 -0.333425 -0.0310086 0.00460934 -0.075125 -0.0672009 -0.258037 -0.462295 -0.0997867 -0.111157 -0.387587 -0.366813 -0.43648 -0.471675 -0.206885 -0.396074 -0.383343 -0.127725 -0.0929082 -0.131945 -0.308683 -0.478555 -0.105058 -0.253068 -0.125219 -0.398546 -0.291806 -0.204384 -0.338785 -0.116107 -0.287408 -0.239848 -0.439131 -0.110542 -0.27035 -0.103786 -0.285619 -0.690124 -0.251451 -0.324329 -0.0660389 -0.237202 -0.3613 -0.358962 -0.12782 -0.410233 -0.247705 -0.216855 -0.4524 -0.232281 -0.19473 -0.282944 -0.488175 0.0642422 -0.383476 -0.398369 -0.0760938 -0.0491206 -0.29566 -0.244957 -0.209821 -0.139296 -0.288582 -0.353515 -0.56339 -0.339999 -0.127372 -0.284205 -0.281915 -0.13107 -0.172309 -0.256665 -0.335822 -0.389371 -0.214261 -0.78327 -0.174172 -0.299023 -0.148489 -0.377743 -0.252061 -0.355813 -0.356218 -0.108698 -0.406536 -0.0484498 -0.331123 -0.28428 -0.377486 -0.0443326 -0.255673 -0.63362 -0.413075 -0.211156 -0.279953 -0.366939 0.12901 -0.283631 -0.028322 -0.352561 -0.3703 -0.154416 -0.438742 -0.10778 -0.275168 -0.187475 -0.21459 -0.244683 
